solver_type L2R_L2LOSS_SVC_DUAL
nr_class 3
label 1 2 3
nr_feature 34678
bias -1
w
0.1032569103942549 -0.06142615008933624 -0.05590143904226665 
0.1656806029202285 -0.1019521885031072 -0.1217903198899568 
0 -0.0369945642954782 0.0372662012914482 
-0.04787608302437527 0.1071540965001047 -0.107371712047977 
-0.04118521940248596 0.04335869183102365 -0.03549315236433835 
-0.05134445700336693 0.03603086199449958 -0.005224919439224716 
-0.1051933596797541 -0.2459099775421765 0.1322190618161423 
-0.1165265638567896 0.08657349698522106 -0.04422009092570357 
-0.2047608061129194 -0.2338725297665791 0.353639649064266 
-0.114779925795151 0.1396213901526596 -0.1569638217604294 
-0.05820117767504699 0.05873260493315657 0 
-0.01868486181183195 -0.02747007519626274 0.07408732074145125 
0.04624332425152185 -0.02210508368750434 -0.03123562343601393 
-0.07982276792619289 0.05049115239121009 -0.03828314808477724 
-0.05022908358228752 0 0.0878395174566427 
0.10178901929079 -0.05007832834108637 0 
0 0.0379273165291754 0 
-0.05002617368109779 0.03011674616626351 0 
-0.03483381855214018 0.01114427676772 0.007088469253749693 
0.02340693500880222 0.05363246463960916 -0.1183958796839846 
-0.05706397316184198 0.09635548656717913 -0.08415701087093544 
0.08695109678394268 -0.07328691635430026 -0.04210355661567777 
-0.01404911993023689 0 0.01410063229551698 
0.05243122159733644 -0.05435712906068212 -0.04892118552212914 
-0.03179847508702878 0.08640033637981967 -0.06607409660104994 
0 0 0 
-0.05926138246297571 0.05731874542579169 -0.03153867123008092 
0.1843122279886068 -0.0660572837961225 -0.1688449817184591 
0.06733250437046351 -0.06864567161963848 -0.05128549707353632 
-0.3074676068536989 -0.1658358451895591 0.350112968893107 
0.05844140035690809 -0.1064797404883292 -0.06790690700158079 
0.1256217554794903 -0.125393606280054 -0.04788625482063364 
-0.0676295622544035 0 0.05537233976400313 
-0.08279754474435384 0.06392699125618519 -0.0005483757901042229 
-0.1078104348979892 0.1267421073230996 -0.08165956445744105 
-0.06337727386675007 -0.05823636716224735 -0.004378519777459924 
-0.02129573151014832 0.03229575460513271 -0.03497401368582932 
0 -0.005500467473317407 0 
0.04101909004653607 0.02033363650932393 -0.1005206167471962 
0.1317918397061544 0 -0.122048513635393 
0.0204819195046169 0 -0.02759105375716919 
0.02927187277505906 0.0114668864952394 -0.1215182915401253 
-0.07955668652735098 0.05240836541292325 -0.02983777942935012 
0.04875198108464288 -0.02368872472929913 -0.01596409287532374 
0 -0.09626758759893475 0.0510194300116907 
-0.1336609848823984 0.1596976611937352 -0.0396082131877614 
-0.08202521459950626 0 0.05642411836753517 
-0.02480424154319123 -0.01355148901922998 0.04211770799554723 
0.04561725761246339 -0.03546133619777947 -0.03253146248086495 
-0.05134445700336693 0.03603086199449958 -0.005224919439224716 
0.002815506463664488 -0.02465640539618125 -0.1059734410612694 
0.1778842408726196 -0.158121830169598 -0.07423139776341794 
0.2240257249745903 -0.05059190302438268 -0.2261926189667175 
0.1192960919577859 -0.1120485943969527 -0.07692254187152486 
-0.05436228944161861 0.02241004380088017 0 
-0.05762309415385953 0.07890050846106948 -0.0398957168682664 
-0.04941580786351284 0.0825501916061846 -0.1342525675351698 
0 0 -0.04455610315115045 
0 0.06850974980819864 -0.01984821983027456 
-0.06910951755306823 -0.02066458212029604 0.1263418319783306 
0.004261624441187494 -0.01652936719701364 0 
-0.2238567663960681 0.1772891642523044 -0.05728860788518266 
-0.07798138497101874 0.06916019794050068 -0.03237031032773316 
0.05737419928201756 -0.009462532168868875 -0.009988351123494438 
-0.1025895111068512 0.07042258575243084 0 
0 0.0103700533584143 -0.01429949089604005 
0 0.06764903152490297 -0.05477946137329094 
-0.01715775404264756 0.02862799931653442 -0.06622358314549999 
-0.05723620592838621 -0.02232610077270175 0.08572331791907202 
-0.03166296843823393 0.009648137995255537 0 
-0.2254252191098653 0.2005497996315105 -0.03978148200154859 
0.01373117520228617 -0.04151914187048453 -0.004246931077876888 
-0.001896608940099649 0.03735236405174445 -0.17539542065184 
-0.001919995459482708 -0.07248717102999543 0.09166391735306192 
-0.02987162540040202 0.068139230145333 -0.02731898915181177 
-0.01637140538956995 0.002622681721996585 -0.07780859068078373 
0.1013723238118997 -0.02486415332128149 -0.08610790635421733 
0.05483256621745802 0.005362355353993625 -0.09626540179385006 
0.04335827706297954 -0.1011640442456238 0.0008565402957217624 
-0.1503815832466758 -0.01959871794352374 0.1522361956894371 
0.04301014142429543 0 -0.07102927229575431 
0.06910120518908902 -0.0917123070751303 0 
-0.1488563918228847 0 0.02978526090621366 
-0.1298087569349782 0.1760115344171572 -0.04237857183699986 
-0.01260579252047477 0.06482665389834534 -0.1707847652572064 
-0.04846053604125544 0.06562942878399647 -0.06328085317263875 
-0.03953614723727473 0.06560648350361137 -0.0542296589275023 
0.2563023132253018 -0.1342536778603616 -0.1261348736746717 
-0.02602851617449695 0 0.03126775008968873 
-0.07203514684015055 0.07971544852690585 0.02814205051345341 
-0.07510728615743688 -0.030736608884578 0.0673332902520984 
0.145059007362574 -0.06219864867595726 -0.1158179035382937 
0 0 -0.05045602592780176 
0.08210661783311179 -0.05012663064873042 -0.0403850792256303 
0.1015611091274254 0 -0.1442945222159634 
-0.08633149094716161 0.09425101920726271 0 
0.04927645489249012 0 -0.03674321485364593 
-0.09460494834473883 -0.0592031004466507 0.09204622459482581 
-0.0146035301947878 0 0.012316906870797 
-0.3615210358783368 0.1691167475423987 0.1299455959500045 
0.06067875157727389 -0.05762680942454945 -0.1101764642338654 
0.08250271767118131 -0.05670019705626391 -0.03085260686678163 
-0.0002222813624492051 -0.01959871794352374 0.04305669286937509 
0.04172271069030729 -0.03524838577584954 -0.04834951681901854 
0.01924348841292249 0 -0.02670124332422053 
0.04381176261874774 -0.02525017023806617 0 
-0.01946795804142767 0.01895981909701741 0 
-0.05783483428229773 0.1322223248124001 -0.06622661520068014 
0.07877711883493153 -0.0833997515156157 -0.03473575754944502 
0 0 0 
0.1278772103213761 -0.05335217570365313 -0.1034152836111542 
-0.03879899243313907 -0.05831394426361556 -0.1033406122208466 
-0.02930697425999668 0.07902030383560106 -0.05968979488876868 
-0.09423166469297771 -0.001535574455288881 0.1086560842222438 
-0.07975064196816348 -0.01451664617295476 0.06101241637921389 
0 -0.002317166149039201 0 
-0.03755458754363179 0 0.05865039094552309 
-0.05087336000951743 0 0.04879608153839396 
-0.04675203408102761 0.1136333110858536 -0.03397924668398641 
-0.1508388818979737 0.1356813889769695 -0.1406692903850781 
0 0 0 
-0.03842281748032157 0.05362904458333771 -0.02747249851238992 
-0.1349733913291422 -0.01517057543867492 0.07370250462074433 
-0.03404856411745474 0 0.02851626296165402 
-0.008706873415987977 -0.01311209588062574 -0.08862970583133964 
0.1098182276994905 -0.06716079769488978 -0.04038656665632634 
0.06078505855164459 0.02087710529760478 -0.06311954257248517 
-0.03636316122679904 -0.03802599493316061 0.05104730021006869 
0.1482908137122418 -0.1290175179230952 -0.08583219399240956 
0.1133566084632944 -0.04216093716269857 -0.07904504439844204 
0.0718348662726969 -0.01613535271905437 -0.07378077498175337 
-0.04188156617875938 0.1349656109615642 -0.3123957912866031 
0.01350638593746683 0 -0.06553634208443712 
-0.009116847586577831 0.03368972492871247 -0.01222396930944566 
0 0.001189785016348504 0 
0 0 -0.02875733794499359 
-0.03883329870420762 -0.003557982095067815 0.03164846397502506 
-0.04174902574010885 0 0.02960477318259298 
0.08843022973822073 -0.01311381034319986 -0.066664871940601 
0.1422488811468705 -0.06765822628717011 -0.1023486386005674 
0.05536756790681656 -0.05600249835262683 -0.01285684150699082 
-0.03166296843823393 0.009648137995255537 0 
-0.085687155877834 0.06960177789435085 0 
0.1197238253971861 -0.1543634758091659 -0.0858021306787311 
0.08737281990832295 -0.0233167232005923 -0.04983225037555603 
-0.004568494232961619 0.0652706336028125 -0.01458352519254658 
0.03908009960768243 -0.04923921463572773 -0.001644601513385867 
-0.03198255787025864 -0.03841748815384371 0.032612238450808 
-0.01376402337814413 0.01447822327964718 -0.02825094711860678 
-0.07040027795827222 0.0920677851487397 -0.0573791378750232 
-0.144381708511782 0.09413261270639867 0 
0 -0.02534346076429734 0 
0.1722766639029552 -0.1548792625726346 -0.1203634751321193 
-0.1484611346132203 0.126471619188043 0 
0.01187303580795308 -0.009723714845658581 0 
-0.01543169165574473 -0.01613532458013885 0.03979880992806857 
-0.02426482943141355 0.003577722123625627 0 
0 0 -0.01029437797587165 
-0.1234540318433302 0.08642317440866713 0.0248413704832826 
0.04617382199525537 -0.06402714234563339 0.02009840470924008 
-0.02888977535940385 0.02580730758965077 -0.01044774686074691 
0.08708606188237669 -0.1368503087519807 -0.09703049160329069 
0.1656412450264025 -0.0628976312124685 -0.1666789732125185 
-0.02005337403677252 -0.007447237336903155 0.04072369468993878 
-0.03349437486656102 -0.07154752182666045 0.0790024519357453 
0 0.06009186507092797 -0.06683390497280207 
0.1288763576590253 -0.07486627627477763 -0.103068188651368 
-0.003119592143567837 0 0 
0 0 0 
0 0.0379273165291754 0 
0.01981259379128437 -0.1383682643941869 0.1250572856963053 
-0.2404438268949531 0.2440097729028977 -0.08620305502408837 
-0.04743073159088012 0.05313708895942165 -0.04894268020741144 
0.08134798633260171 -0.01259266729718892 -0.01094993006585497 
-0.09180835645220825 0.03574627453560049 0.03658821561429971 
0.2029442981640707 -0.1745786548014591 -0.004852826207990921 
-0.07009387766343229 0.04797213346051526 0 
-0.02469522152970838 0.02068723445270128 0 
0.05116998359940859 -0.02120796958048017 -0.04690261521105701 
0.1242485990621114 -0.03216095084217649 -0.1991765261213059 
-0.005869155349580642 0.008779964371219176 0 
-0.08745606621242065 -0.05187393183436552 0.09024577762115578 
0 0 0 
-0.05123201957733262 0.0655016935908036 0 
-0.0510952997421643 0.05425880031337905 -0.006899344725102825 
-0.08717050095585778 0.09163668639349722 -0.01795006296260578 
-0.01934828254754468 0.02104360033287113 0 
0.05236516960192279 -0.08802120934720484 -0.08400073125672299 
-0.07543917775811383 0.06645276825541635 -0.04325134469695528 
0 0 0 
0.1272524683057206 -0.05628644706805202 -0.09667450356432589 
-0.1106018021944281 -0.04660785613281566 0.08071553042851753 
-0.04829277814906222 0.08515345376729863 -0.05765857055541001 
-0.04918916258460814 0.06040706914000448 -0.01884588816548997 
-0.04112200822719558 0.01133882622097041 0 
-0.04920147329374906 0.05436392038744427 -0.02819024785759591 
-0.08878387733199239 0.09465578642624899 0 
0 0 0.003551070453165231 
0.07958895925932448 -0.04080658909589687 -0.01089296006678631 
-0.1218623740473706 -0.1215378994917639 0.1749775230451035 
0.1449481978458406 -0.1275125699999175 0.02326542595158676 
0.0998668969848889 -0.03591403206136089 -0.05649609703675265 
-0.02400391303660392 0.04745835651560625 0 
0 0.004772863193578931 -0.01034390566430809 
0 0.01157886786165414 -0.007463268025921025 
0.04048262056985748 -0.003069976517986961 -0.06177224485127342 
-0.01643815181376406 0 0 
-0.08348905270491852 -0.05436404020031146 0.08176971780798155 
-0.01711706448440157 -0.06132385640405812 0.1125145526943263 
-0.003179975024072199 0 0 
-0.03661518775969044 -0.06967157720271468 0.02691853939482961 
0 0 0 
-0.003441619812107158 0.04823868799882506 -0.06187378988980752 
0 0 0 
0 -0.1356669189999178 0.1376093423541787 
-0.1474898370724575 -0.07729280874410926 0.1242354242147005 
0.00992766365236987 -0.09823209365937383 0.0420309750235465 
0.08714456038726476 -0.00850495783052169 -0.06412773032206534 
0.08916680229155294 -0.08663986322084792 -0.05692887515902217 
0.1767685674617848 -0.1289125636176308 -0.07190352793460242 
-0.06588724956730108 -0.1225703211585946 0.08460398220933991 
-0.04564580668919509 -0.08543415861662097 0.07570487500091297 
0.1394457710614594 -0.08651566920654892 -0.09955908102725711 
-0.1065089457026837 0.0978168406786574 -0.03908006888573153 
-0.01638588361538002 -0.01774282435554755 -0.02348026105023004 
-0.138949795239934 -0.006259432418319249 0.1549685625456537 
-0.08805338009581552 -0.05635714762294802 0.0899646622823891 
0.05306185035196172 -0.05170729072372654 0 
0 0 0 
-0.05769574085226071 -0.0857604428430478 0.1030579923045938 
-0.07349704969458434 0.04101136001210291 7.630820679350656e-06 
-0.009098114577883089 -0.1627522039905086 0.1685995638359903 
-0.05166999045245607 0.0725098901430509 -0.04415823278489973 
0.06036744784747761 -0.06601597436560928 -0.005807630238912953 
-0.1157733370163297 0.09072577665436739 -0.03566695036214907 
-0.1673273740207968 0.04370123132261217 -0.05308119168263188 
-0.05508742212553446 0.06052665517685277 -0.0389844711766373 
0 0 0 
0.1248433282622248 -0.07858056406783016 -0.0312308527231662 
-0.01419864732978002 0 0.004264389956744889 
0.03694089833331601 -0.03132924945337999 -0.03232085355771537 
-0.06024740336482926 0 0.05273036471481812 
-0.2147148764487232 -0.08124033714398386 0.2774927512733917 
-0.0780977768043134 0.1102160104037707 -0.05143009536273981 
-0.06318043702995975 0.07435122601951923 0 
0.04501527558687909 -0.002222757411535137 -0.05208665187988389 
0.07171398935362268 -0.08168708938104226 -0.02731462346803765 
0.01538994477629683 0 -0.03957049796925143 
0.117128686305821 -0.04252026553343279 -0.009794448471845267 
0.07925539781164688 -0.07698455937832019 0 
-0.01123136214194504 -0.09144986094455913 0.07844371772187987 
-0.1170967764057463 -0.1107830643004738 0.05653276216496586 
-0.1985479734162097 -0.2783993315132519 0.1810133687719266 
-0.01196593507128834 0.01345032168660439 0 
-0.3726094969595971 0.01943578931706132 0.2584429466072785 
-0.1636678816510064 0.2212354122978075 -0.1366166236469133 
-0.1282644035352427 0 0.07384930677969337 
0.08682578840071997 -0.200978441216391 -0.02363917900354229 
-0.06327063006235806 -0.06171211451192748 -0.05172295879470664 
0.08362775825915722 -0.1041488661265769 -0.03937117664903503 
-0.06335194596686011 -0.09570741162440646 0.1528234973599905 
-0.01004980933195991 0 0 
-0.3217620361769791 0.2046697818594927 0.008113124180548492 
0.1121391603274306 -0.0954123556869907 -0.008989238056393855 
0 0 0 
-0.01897545033853865 0.07128540217048566 -0.06397579206907571 
-0.08324140369418991 0.09803831667435646 -0.07749616887907437 
-0.2252492264662806 0.2392525587496007 -0.1522462231717636 
-0.06289806438151915 -0.04152017867451217 0.05560861946271414 
0.04440882942359412 -0.02634242489682363 -0.02252629191924774 
0.1408868204272258 -0.0689707077052981 -0.02033655907981545 
0.0663585523102576 -0.05276441528551498 -0.04355598190064783 
0 -0.05505205891418814 0.06012050677996825 
-0.06963441100198468 0.0854222298227785 -0.05648787240192407 
0.06059887848191454 0 -0.06758098395968684 
-0.1540086241587368 -0.08861612990334515 0.2114571168385398 
0.1743109153913212 -0.1722265541175174 -0.1047682141124925 
0.1266622440334577 0 -0.1482571196892196 
0.009121157861607776 -0.1400257785736299 0.05489451137393987 
0 -0.04257715276636757 0.02568976524519529 
0.1800599004713893 -0.1089647640376903 -0.1167111446929219 
0.004261624441187494 -0.01652936719701363 0 
-0.1039664304601328 0.0798300553692403 0 
0.09606956687629861 -0.1182827362750379 0 
-0.04187228578413606 -0.07351619306693888 0.06912036227338833 
0 -0.00396349590631383 0.009603063671297511 
-0.02981100591400278 -0.01012783405851807 0.05834511526712527 
0 0 0.01502061096033685 
0.04468635427005126 0.001890109197146798 -0.06060598758920868 
0.04268964575889746 -0.008675130043255746 -0.03894817735082875 
-0.204190563866753 -0.1151507208928761 0.2242727801716049 
0.004233122060310156 -0.03336115598453324 0 
-0.02204167532177615 0.01591948292496695 -0.04771567753649981 
-0.1037717617845635 0.178849990119413 -0.05012931812826712 
0.04628061053506212 0 -0.05603074282558287 
-0.006149906405003885 0.02576846786029526 -0.0178336718975484 
-0.03536758897967514 0.02122337293403129 -0.007548217366259286 
0.1371976418030826 -0.08588475914784546 -0.09074541758653881 
-0.02924031261540324 -0.1093154886031526 0.1084111328073977 
0 0 0 
-0.0478619615936473 0.01659040000881685 0 
0.1401740797205002 -0.04371703479711878 -0.0892307890546031 
-0.001593039530592294 0.02417880414945842 -0.01894099535613881 
0.04469638697718922 -0.02755807067640902 -0.03416471720822709 
0.1030614697690089 -0.07457809353336761 -0.08612516111870575 
0.01096088144329577 0.01594539589486056 -0.03267305049181674 
0.06983437855443878 -0.07344478059441184 0 
0.006518890483916832 -0.04025438313319557 0 
-0.01774670434853692 -0.003399900807414626 0.03529889879074766 
0.01964032794318935 0 -0.02819135308964914 
-0.0403577762320534 0.1161903976397293 -0.1231803266492106 
-0.08820832038984977 0.1165052779626952 -0.03727878168070625 
-0.09113162101749704 0.06756782107417372 -0.01090735054100695 
-0.04107431637090427 0.03039526501260079 0 
-0.06606045883691657 0.06179181328192373 -0.05022311246901594 
-0.01535128841714817 0.01292196245892712 -0.005989200137671872 
0.0438914236750759 -0.06103920459334548 -0.04795351775742251 
-0.1977029536897702 0.09594232701394453 0.01564066923695519 
0.09542586371545761 -0.0312995443678117 -0.03249477362666564 
-0.01859661165344466 0.03367677607526171 -0.005884201154622273 
0.05208495954050511 -0.04402113562399943 -0.03547694165272007 
0.07689127826429075 -0.06314618645858357 -0.07182669421765457 
-0.0859183234579791 0.0920097523228179 0 
-0.1288649914606297 -0.06351769975043388 0.1328963817238419 
0.05104629891937254 -0.01061677841988402 -0.04829638371459427 
0.1325796247772016 -0.07609106050903471 -0.06450384959704632 
-0.1909697234795175 -0.03858605783041441 0.171605246154072 
-0.1046719918791333 -0.06222784844537599 0.145259694287377 
0.07499949973068572 -0.06019837533120726 -0.07590611523905696 
-0.06352615671180387 0.07314656801959103 -0.04094237099357537 
0 0 0 
0.06491176881593089 -0.03935840541250844 -0.07398928628827373 
0.07252088395850562 -0.01518752563921873 -0.07143724875322251 
0 0 0 
0.0998668969848889 -0.03591403206136089 -0.05649609703675265 
-0.02476318024133571 0.04475242913256706 -0.06622797168925235 
0.07399860410793006 -0.06788534415080905 0 
-0.05564157916085537 -0.07467969500307546 0.1033241710635646 
0 0 0 
0.221526485193232 -0.09128378747748202 -0.1455986806835144 
0.006146401420935374 -0.008321535688166234 0 
-0.1000976773973847 -0.07821926239285004 0.1484227214009212 
0 -0.009497339617459367 0.02296414985052355 
-0.02218942047101813 -0.02977809985821228 0.01471933051711376 
-0.06822090158720007 0 0.05504219867585684 
0.08506880155056991 -0.05243409334636089 -0.04174292662312252 
-0.1463483707504354 0.09124982861678271 0.05074706359512462 
-0.11786944091463 0 0.1172538204560322 
-0.02899357437156203 -0.1300701251921144 0.1078669367976889 
0.04396799820889543 -0.01916759070183358 -0.04151422850924676 
0.003842119982830071 0 0 
-0.1464941892706588 0 0.1425857734546601 
0.05999868632817896 -0.008766058723464192 -0.07029047327778584 
-0.05873992580016791 0.07985693145027889 -0.0287984438860352 
0.02279474845040301 0 -0.006223122170575344 
0.02787527265461442 -0.1014933328405209 0.06854552176894732 
0.09211738543277835 0 -0.1158711485439256 
-0.001543000112663924 -0.0116031433191331 0.01847247270137456 
-0.2219403446334496 -0.05475646895454615 0.2142628778583654 
-0.07810318847974881 0.08150197494888758 -0.0295329516531049 
0.07001032777263577 0 -0.09243557180303848 
0.02030476464946455 -0.02512994955496453 0 
-0.0393589754389304 0.03010609941931631 -0.01891823142752897 
-0.05377878429601521 0.07749163270065355 -0.04238316036133988 
-0.04722724518005179 0.06402637290095581 0 
-0.210076539688611 0.2122814467844125 -0.09245003858605802 
0.06292559884899268 -0.06590698834749513 -0.02782372292133512 
0.1926662940025242 -0.09188077817059467 -0.1452720724148266 
-0.05134445700336693 0.03603086199449958 -0.005224919439224716 
0.0754677039934479 -0.08248397016789338 -0.03572066382078458 
0.05737419928201756 -0.009462532168868875 -0.009988351123494438 
-0.03460734704566301 -0.1041886507993796 0.1049483364127611 
0.06252985065223281 -0.01191647110172064 -0.02050084325298731 
-0.07435700509200964 -0.05971614027667634 0.07626770158587753 
-0.04275628073531366 -0.03919564191407374 0.04649029345442451 
-0.04812401532602171 -0.09661678862521787 0.0812298101557896 
0.07031430717688814 -0.05842368705294588 -0.07939280891777951 
-0.08348905270491852 -0.05436404020031146 0.08176971780798155 
0 0 -0.01012876516969781 
-0.05883979769520661 0.0747763720508081 -0.1035674129517841 
0.0296237543384334 -0.1445409055056039 0.04544963921970185 
0.08058257633630354 -0.06252855363607175 -0.0473314889248183 
-0.02230925063699931 -0.01529925201603957 0.04313157594459827 
-0.001175412144127713 -0.04921289067538104 0.05214460942773801 
-0.09488444195089232 -0.07152964049814081 0.1140324900124944 
0 0 0 
0.09013174961170092 0.07439673205527132 -0.1956647372492228 
-0.1014959590452607 -0.04706070206502597 0.07448589033400724 
-0.1197889531562164 0.1080589353672371 -0.07982768420721936 
0.1360755048302727 -0.1269197237454259 -0.09013066312215995 
-0.09461496097672614 0.08456007895310534 -0.01324937835228469 
-0.01431292258781401 0.05245240281358209 -0.1012525890330299 
-0.06589533864705721 0.1006490438378129 -0.111517873655074 
0.09490212611259009 -0.09988811644851872 -0.02414280307181359 
-0.04514918691638693 0.1501088141976596 -0.0698250337211771 
-0.05774287674134041 0.05102783845313814 -0.0350518868688626 
0.1791706380020841 -0.07258773418113855 -0.1139144866785671 
0.002949476629550002 0.002113511518367847 -0.06234506617025202 
0.03989090215559341 -0.007373170856992308 0 
0.08114335423676367 -0.0569230857057736 -0.02752794536611747 
0.08202065961509866 -0.1582841877670505 -0.02304681095443708 
0.02855024989899958 -0.1121336636958685 0.01266194915120937 
-0.0783209154686095 0.08199195178452763 -0.03048904064486979 
0.2315116438353181 -0.1222368721459299 -0.09884664320516603 
-0.0008487610300643295 0.03887907747096266 -0.08596990478610697 
0.02063871894134802 -0.001276638594277554 -0.07489307008279557 
0.02114123885775251 -0.1049009721872927 0.0007251724104457135 
0.05707884395965666 -0.07809167458181704 -0.05471742259011036 
0.04274595772498403 -0.01616824405195613 -0.005847536182652706 
0.03920454451959418 0 -0.08986598251290218 
0.09195772413550975 -0.09497693205627616 -0.01647260008215323 
0.08280123787865463 -0.01071523242493627 -0.04677713848650629 
0.09933601188699479 -0.0565172102563354 -0.0856349504736013 
0.08574961043484747 -0.05396836749603372 -0.0521337536803784 
-0.04418212275168908 0.04809238791040292 -0.04566224754917506 
0.059709006647958 0 -0.04535799810239093 
-0.1411701286466843 0.008348476509912186 0.1483356191285673 
0.1634105857962764 -0.2092848179590269 0 
-0.1405005584409807 0.114716435085818 -0.06442554321048118 
-0.009799503140624673 -0.0745606522474473 0.04756014121269199 
0 -0.005164172147937856 0 
-0.02785550252320482 0 0.03995256325778236 
-0.05796113271899279 0 0.0281696978085345 
0 0 0 
-6.938893903907228e-18 0 0 
0.06596955100787746 -0.06465466770456763 -0.02235004043152438 
-0.0775898570604736 0.08457075879940201 -0.07946012899324473 
-0.006115827008895814 0.03848371059331161 -0.05165338142367756 
-0.06083228791520249 -0.07832943061368612 0.09486515742369693 
0.05442650095503074 -0.03222208410237258 -0.04696192571634883 
-0.1601333905486575 0.07993452571335199 0.01979502703798776 
-0.3109064041322213 0.09393849846274881 0.1163429777192901 
0.05718722296365825 -0.05478344535451115 -0.01263996201003498 
-0.05143243983985925 0 0.0473868062197496 
-0.08074701335338255 0.0872786452995632 -0.04591044450475208 
-0.07024551001006343 0.04066732575570278 0 
-0.1014262656021055 0 0.06467513903152199 
-0.04199707393483233 0.0341387311527292 -0.02630905795565942 
-0.07435700509200964 -0.05971614027667634 0.07626770158587753 
0.1308790379966646 -0.1512529213340166 -0.00232819143940931 
0 0 0 
-0.1014262656021055 0 0.06467513903152199 
-0.1243886073553849 0.1000341246626917 0 
-0.06255804700287022 0.09196055180805227 -0.01872168620605473 
-0.05917235944753071 -0.1078086912143077 0.03216991222385854 
-0.05817029725762527 0.07566047466257098 -0.04460541991798714 
0 -0.01896812143130282 0.005660571496778653 
-0.06022438193123484 0.05693047446069539 -0.0231076430528297 
0 0.02052774121321457 -0.01245633122097498 
0.1555928149367318 -0.06170685763017231 -0.1135812605394371 
0.07342456982288642 -0.07145835796214546 -0.04915968834810285 
-0.01473415932470212 -0.02290542172724562 3.469446951953614e-18 
-0.05337601434752158 0.024726418153508 -0.004082494175041791 
-0.03698850950979474 -0.141030121510667 0.1214193684494306 
-0.01881387344038582 0.04520566300607123 -0.001345030609037857 
0.1002389610457387 -0.06997811137193313 -0.01158567676151729 
0.1286385898662183 -0.03100511292104655 -0.1395440980436808 
-0.05872621177797366 0.04970921917482789 0 
0 0 0 
-0.06003893158686147 -0.05758995145056541 0.09960067897509819 
0.1036680612580796 -0.08081079855379422 -0.07627519623882799 
0 -0.02587977252056543 0.01281295539328262 
0.1645774396848746 0 -0.2140308439530776 
-0.03411156157094178 0 0.04711598993523661 
-0.004401324602474601 0.1188069741774742 -0.1236083425249148 
-0.05743354383188915 0.06573928842882319 -0.01514201602568984 
0.1205983040396115 -0.04300074751477481 -0.07503080355180466 
-0.1080070464760427 -0.1162649395603163 0.1206891663092982 
0.05737419928201756 -0.009462532168868875 -0.009988351123494438 
0.05547187566287157 0 -0.06013060961519179 
-0.0196132347199962 0.09423605517645217 -0.09212545134657574 
-0.07877392069842644 0.07265338702455651 -0.02186330438781197 
-0.05159858573717823 0.02731837804394417 0 
-0.001175412144127713 -0.04921289067538104 0.05214460942773801 
0.07620027682307236 -0.05027026219728027 -0.07218613066559582 
0.1093738661353754 -0.03838200641245643 -0.0296848194246237 
-0.1132015475246568 -0.03348577041109591 0.1127207090027045 
-0.1591316862205314 0.1230890382427681 -0.01583918364847118 
-0.00947463649045358 0 0.02524407531233937 
-0.100057925366855 0.111228912866551 -0.0596557847816085 
-0.1530756953356243 -0.0502493582025684 0.1752073723908023 
0.1058080105643452 -0.01048007341472343 -0.1117884768559675 
-0.09523250329562086 0 0.07305048128711591 
-0.06066360865506915 0.1231752141581934 -0.08638348520291139 
-0.01082533438249289 0.05986191470111867 -0.03889549559427562 
0.1556848821000145 -0.07450181325236543 -0.08088505317692085 
-0.06997278499692443 -0.1243724810221185 0.1637113037770903 
-0.0164480101954247 0.02235966845874543 -0.05191198328919162 
-0.1781971236594234 -0.106212491275888 0.1497386884073081 
0.1768544522857665 -0.03327563344975652 -0.2260504722691062 
0.0669968732538774 -0.07508194182816288 0.002027167998526619 
0.1575135223006146 -0.1276824363561461 -0.02684527332191786 
-0.02199067013242606 0 0.04629099980147452 
0.09875917430156621 -0.07066705156857267 -0.08940059154585074 
-0.01324424477956452 0 0.007477495927187193 
0.04018520957927095 -0.04290696598404617 -0.0142971229309782 
0.1320816677373428 -0.06698175822569825 -0.07534039360117201 
-0.05114360028003226 0.02439124112452236 -0.08674247258913481 
-0.2880967296239115 0.1215789048797177 0.05001888037684856 
-0.05584305824084466 0.1227631010433236 -0.07111952822705114 
-0.06856380713517424 0.09198842969016517 -0.06723603665944555 
0.02350603054123736 -0.06376673826869016 0 
-0.04500260117217653 0.1101218307746274 -0.07162833883798429 
0.1558440041753716 -0.08972523894876244 -0.05241475970978348 
-0.04355954153309829 -0.08628280255952339 0.08087024947127673 
-0.09309747324715675 -0.02648911349364302 0.08730427173134796 
0.09071838754287737 0 -0.1059952459097453 
-0.04753907987037311 0.04065216257421842 -0.004206090993032523 
0.01921980901952628 0.03262429107583116 -0.05593022101502357 
0.1288763576590253 -0.07486627627477763 -0.103068188651368 
-0.04943626286981369 -0.02151725649104138 0.05231804950284295 
-0.04612517777756039 6.938893903907228e-18 0.02175443419871165 
0.01355350993686993 0.04138080400759929 -0.06710021539375177 
-0.006856993312656159 0 0.03751381084340777 
-0.01054411481261738 0.0004615164366488046 0 
-0.03827553932821835 0 0.05367226911433914 
-0.1543584561385656 0.1726691558607323 -0.05403039482340719 
0 0 0.0215140038432719 
0.1139656281531651 -0.04518169141585227 -0.0905831397174411 
-0.1108184242981598 0.08894591681599313 0 
0.04230778644432594 -0.03800236486108319 -0.04631224018147968 
-0.03755458754363179 0 0.05865039094552309 
0.04705552313755942 0 -0.03635694183293417 
-0.08722000739553926 0 0.08417543253090773 
0.007281281574948463 -0.01040048228683282 -0.0171852871193559 
-0.07156505392661718 0.1035049167666926 -0.03478282258728942 
-0.01877026965979029 0.03318646229667112 0 
0.09849866130452462 -0.02850346621960014 -0.0615339219430599 
0.07726604809102593 -0.04984095410941003 -0.01691652892110138 
-0.01488737670500424 -0.03589011836503081 0.04583882458735989 
-0.02332161952834877 0 0.03586195225491713 
0.09636911765982226 -0.07080643368195148 -0.06744820495144745 
0.089085396377957 -0.03176487200187477 -0.06813363839270542 
0.08608348188619482 -0.06841222707967982 -0.02895445761716937 
-0.03637025319397585 -0.1132590191920641 0.1296458921779075 
-0.02152365660184304 -0.03517784060668597 -0.02232623088039033 
-0.03163863124553699 0.0780164987200291 -0.07445720220543679 
0 0.002308494369463948 0 
-0.03305048354610306 -0.05000628845505772 0.04007845036665155 
0.1260191369361368 -0.111323321683678 -0.02915353893153146 
-0.09489519967747809 0.09290205897483655 -0.04937682265014547 
-0.004790004960381682 0.01975967048663465 -0.0305832592224992 
0.1507856961251649 -0.0726304096187077 -0.09256742429357566 
-0.07598229706674001 0.09538983917952407 -0.08606110737403305 
-0.05386611044838773 0.03640060568673963 -0.03528157636922595 
-0.06964146439437115 0.03245441173237887 0 
0.09211738543277835 0 -0.1158711485439256 
-0.3024179884908713 0.3048981984344825 -0.2442619847654728 
-0.0734380565199674 0.1069816455012336 -0.09127485678314957 
-0.07028758975741596 0.03987160893837365 -0.03981358096035133 
0.1483308469566019 0.003451190958482927 -0.2115464784575139 
0 -0.08122043882444033 0.1052510932194516 
-0.08180955103755752 0.05246562882628643 0 
-0.08905714834095459 0 0.07516935812758795 
-0.01178391673790754 0 0.01581459634959605 
-0.03574346500368212 0.03609520171605494 -0.01605141574214716 
-0.1073310969930142 0.2755766694318268 -0.2909927135278539 
-0.008443210193872204 0.03739070105623764 0 
0.07449392535160261 -0.007081947291772121 -0.04768145699265453 
0.1893366361819484 -0.1620508450639451 -0.06305380470162159 
0 0 0 
0.1193591477800899 -0.04973631363937135 -0.08049515231558078 
0.008140585890698056 0.04687314070976936 -0.02034312767880241 
-0.0670703339513475 0.05184354135488288 0 
-0.1288791916627783 -0.06705773910344782 0.06663487064798362 
-0.1187199213746558 0.1357983525906903 -0.07714032447532063 
0 -0.0237588671029191 0.05078251633821497 
-0.04777043440440594 -0.04888692116747447 0.0637238439426288 
0.02073039605175381 -0.03463087685653677 0 
0.03565254116218747 0.05950797674336308 -0.1572701238748388 
-0.1254230765365337 -0.003391154527286541 0.1412780224112444 
-0.05092055972190391 0.05045589384905855 -0.01073816108502692 
0.03583506705560255 0 -0.05036836344783867 
0.160167834711549 -0.04436770762746312 -0.1785505196427469 
0.01291945442600963 0 -0.02304681095443708 
0.09401417860300983 0.02576241304216597 -0.1654931744146771 
0 0 -0.01029437797587165 
0 -0.01389851533714642 0 
0.1159587964795301 -0.06567230100658553 -0.08667491822313775 
-0.06131287837654784 0 0.03532541060171757 
0.1248889289569151 -0.149572461164218 -0.06214098805539621 
-0.03025269652757842 -0.0607827432411345 0.08863132808856326 
0 0 0.01417339284122622 
0.07493130086283424 -0.0680620553445915 -0.04358793759605829 
-0.1287766006809004 0.130667950911008 -0.007033753625107571 
-0.06081272635528759 0.02442461651102273 0.01639136001893304 
-0.1217782742669642 0.1133487869826346 0 
-0.0837682601826647 -0.04023833503330376 0.07809334695793195 
-0.01410125122017093 -0.03067150956536675 0.04207027171335512 
-0.04023314489973401 0.02619596990088086 0 
-0.1143248964967212 0.1090264124521444 -0.04737072969194975 
0.1072751185551271 -0.1156784912122427 -0.0197847606501578 
-0.07176622125479827 -0.001425143180809159 0.07219592285121998 
0.05979810308923746 0 -0.07821174195723954 
0 0 -0.02345511922324737 
-0.1286912569163286 0.09355244496661368 -0.09458873430037759 
-0.06694952153543338 0.08963769506015697 -0.04252939005420649 
-0.0676295622544035 0 0.05537233976400313 
-0.04336607145949465 0.05088338143598747 0 
-0.04001665466296037 0.03459559404408818 -0.01087204426403602 
-0.003815686965870768 0.06477305344535217 -0.06124236512271393 
-0.1588713014165702 -0.04327578684146843 0.1768382246253748 
-0.07278679740508608 0.09219499247104114 -0.1017064673319945 
0.06491176881593089 -0.03935840541250844 -0.07398928628827373 
0.05966384533982232 -0.04397595988518985 0 
-0.03028800141581553 -0.04923183820584483 0.01313133545951353 
-0.02360001717500693 -0.06136647240818175 0.04827173083677866 
-0.009556503289465824 0 0 
0.1931125817616526 -0.2651156973439274 -0.009122430810753104 
-0.09890829363871584 -0.03259476124688979 0.0711369142643077 
0.1225704495767257 -0.1326884960079411 -0.1381889050158756 
0.05319322174061647 -0.02700419110769552 -0.03276991302583519 
0 0 -0.005937857105017288 
-0.02602851617449695 0 0.03126775008968873 
0.002579908064303374 -0.04268562754347806 0.08599771037375495 
-0.01586880802868039 0 0.02998217072596584 
-0.1625336980122941 0.01896008082102626 0.1040637921259693 
-0.0853326462995638 -0.02104145929642951 0.06600763035628704 
-0.0633355365047461 0.08654105995615949 -0.02865326691297655 
0.03079864103159072 0 -0.02970480673640603 
0.04991498405633368 -0.03903818402034603 -0.003151796849706702 
0 -0.06657188069192024 0 
0.06378903664122565 -0.0781017258649904 -0.04161262558152395 
-0.0233143829303115 -0.1331791674704734 0.1033213435419269 
0.06725673426552709 -0.06976513161810968 -0.001780315442336088 
0.05908493428926027 -0.0008071588679745358 -0.04678269299304885 
-0.1102503752300561 0.1667770573564188 -0.0592188776219005 
-0.07897011533461983 -0.05217984765977435 0.07799941563169628 
0.02493519728081392 0 -0.02867597552404691 
-0.02626073774691809 0.01114427676772 0 
-0.0285474328639922 0.01735418350871053 -0.01614075961722993 
0.02324317060583241 -0.01805068113530266 0.05324372534736924 
-0.2424887391996617 0.1552985557497825 -0.02002126889518808 
0.1000818077070538 -0.0645692227329456 -0.0332161486005372 
-0.08681781194535447 0.07533284801507523 -0.01507298887528558 
-0.03058351429686465 0.002723083695944482 0 
0.06923639017686885 -0.05800405381423111 -0.03791371442893712 
0.03267096904894144 -0.04321112287136153 -0.008097630524552427 
0.1221374703397858 -0.06772990135813471 -0.09414300019984034 
0 0 0.03384090797687492 
-0.009940000755118274 -0.2444646511186321 0.1148899731515162 
-0.1644283298994195 0 0.1046491435513843 
0 0.0284976112730175 -0.02869645100948076 
0.125159692185755 -0.04735662088490072 -0.1017626446653958 
-0.001673787989475512 0.07714984210044948 -0.0760488357332697 
0 0 0 
0 0 0 
-0.07562702081938175 0.1015250587339055 -0.04681944907978797 
-0.07418677473196018 0.07049972982993304 -0.02017661515840963 
-0.05379613841118858 0.04537631688132038 -0.01557050089999687 
-0.1868633061413967 -0.1788120457909393 0.3307066636150682 
7.782177195335409e-05 -0.02524681477642096 0 
-0.008694337053928596 0.01060298964455461 -0.0706912790243992 
0.02281573138832675 -0.0680993618879504 0 
0.1658658627639676 0.07860464021434696 -0.430245041680962 
0.1421156274376254 -0.04272317340545295 -0.1340070974206 
-0.1114026589500231 -0.01318814533440011 0.115233833480621 
0.1108683795542788 -0.07950628178615472 -0.01546817020839632 
-0.01488737670500424 -0.03589011836503081 0.04583882458735989 
-0.08878387733199239 0.09465578642624899 0 
-0.01818510538994774 0.02943908719362662 -0.08103946911858471 
-0.07020106586878365 0 0.05000281417988986 
-0.02785550252320482 0 0.03995256325778236 
0.1665069636866561 -0.1803196777251477 -0.01524113025200888 
-0.02071510945594231 0 0 
0 -0.01422370447387479 0.004247364271156039 
-0.1206567851560292 0.0783592141408463 -0.03848884621279851 
0.2156225537967442 -0.06734357554177167 -0.122048513635393 
-0.08748122229174109 0.1449351840827895 -0.09775932680961601 
-0.07895335835329921 -0.01419677655115344 0.08724687821682323 
0.004298623013647076 0 0 
0.01488680641175102 -0.1023441183557506 0.0657473945947544 
-0.004305011657270681 0.02176390714823545 -0.03723218630052889 
-0.04753907987037311 0.04065216257421842 -0.004206090993032523 
-0.01349261028830679 0 0.03384090797687492 
0.02413122508561157 -0.02106363413874089 -0.01118754290017976 
0.1467969979542169 -0.05785369346820493 -0.1015382318350998 
0.08093942970634224 0 -0.06957915038811054 
-0.04629514081575224 -0.0482120637452623 0.0778315217574345 
0.08229658155422126 -0.0791287767969239 -0.09157143626141309 
-0.04177439188765621 0 0.03846191027110553 
0.09112316252559104 -0.05171963649205128 -0.07024153242861117 
0.1340781930852642 -0.03115611425815429 -0.1030982125560432 
-0.01217231012562968 -0.001966460460735271 0.02843413384692503 
0.3923378992218883 -0.1144836587748105 -0.4333114871852576 
-0.05857810966239685 0.07893342082303238 -0.03387360924623814 
-0.07696265926690063 0.09237547112724653 -0.01910682793726044 
-0.05671263838581066 0.124899700426537 -0.035218531864183 
-0.118087948550253 0.1339237090204964 -0.08727438522843799 
-0.05166999045245607 0.0725098901430509 -0.04415823278489973 
-0.1595178438728541 0.1281090271078402 -0.04289795697012669 
-0.0240533249697639 0 0.01266775930044508 
-0.01257486594476062 -0.003399900807414626 0.03529889879074766 
-0.06416058582491858 0.01836998011602516 -0.01864992675174339 
-0.05280838667542502 -0.01513575796920126 0.06996782146164943 
0.1837400238739083 -0.07394629991576358 -0.06756675995283659 
0.04196723400644252 -0.04378714177905229 0 
0.06769369716087668 0 -0.09410855824273043 
0.1616318340270182 -0.09161520030266355 -0.03925047924105677 
-0.07224344047004919 -0.02302672972097993 0.05450002025399289 
-0.1892200115331928 0.2046760073865454 -0.1536547425372498 
0.007378411018852093 -0.07912560085022928 0 
-0.1226910936665432 -0.2464375308786697 0.2430726497504785 
0.1618533743037005 0 -0.1093754389193759 
0.1420204889249601 -0.1026473266159516 -0.09465150525165171 
0.01499297593742534 -0.0239712824122107 -0.01493211988623206 
0.05343492382001062 -0.0446233942835975 -0.01471069322938917 
-0.1539784503872384 0.1168493276157765 -0.03793025500774412 
0 0.03358029347069895 -0.01634557421091999 
-0.08064713625535908 0.1106295281395283 -0.01369753583171672 
-0.1337553191183073 0.2472825600263259 -0.1721617077895832 
-0.01214124942019947 0 0.006292841440513231 
-0.02126178672130561 0.007062557048879916 -0.01368118559644014 
0.2279556643606304 -0.2014209152125905 -0.112059123911179 
-0.04532612789901715 0.03191322016995337 -0.01548647643700772 
0.1066557998402784 -0.03447216209591369 -0.09050835095058203 
-0.0627244218894332 0.04703938106349172 -0.01360919619665511 
-0.006637718988257331 0.1310962754300737 -0.1064110227689387 
-0.01184544079653577 0 0 
0.03980584351205495 -0.0347309709998586 0 
-0.06274767023531874 0 0.03249121608780667 
-0.008489336848217793 0 0 
-0.07854414916243477 -0.0007599237060351787 0.1032096459986468 
0.05306185035196172 -0.05170729072372654 0 
0.04375996604053604 -0.03428181365202661 -0.002125094738325568 
0.08114335423676367 -0.0569230857057736 -0.02752794536611747 
0.05306185035196172 -0.05170729072372654 0 
-0.03166296843823393 0.009648137995255537 0 
0.0663585523102576 -0.05276441528551498 -0.04355598190064783 
0.0663585523102576 -0.05276441528551498 -0.04355598190064783 
0.2659194594500208 -0.2239994147865207 -0.02239171291663677 
0.08074912088288477 -0.04996370423908375 -0.05677140972880636 
-0.02557637864292424 0.02938910780400249 -0.02862185304840769 
-0.1268690899987102 0.07940758177633771 -0.0432262098036212 
-0.08754088057843512 -0.09451834893910331 0.1071386107324476 
-0.04576389376344084 -0.07768222964847085 0.09817858293654974 
0.04853832636244251 0.04703938106349172 -0.1642323059592617 
0.04104322464036578 -0.04242072506673277 0 
0.1482908137122418 -0.1290175179230952 -0.08583219399240956 
0 0 0 
0.05204205119297904 -0.04061296317767889 -0.04541195687741645 
-0.01513049549233734 0 0 
-0.04279608718054571 0.05048648921643498 -0.04888171410363814 
-0.09064040725940377 0 0.06789500213785939 
-0.1161476042268289 0.1066195324666988 -0.01492780089604982 
-0.02485299570904857 0.007342521096861615 0 
-0.01431292258781401 0.0333996352354533 -0.03909723784212531 
-0.03203951274462817 0.09945076738031698 -0.01783528795249534 
-0.008091017732126147 0.03783515964995818 -0.01569928656548589 
-0.06339147027482772 0 0.001912943980407824 
-0.04782145948343767 0.06009745916402546 -0.05056307531797866 
0.01428905732804248 -0.06740638913730752 0 
-0.1282644035352427 0 0.07384930677969337 
-0.07348629109486247 0.07924395611954423 -0.07324569775274622 
0.06857966456324503 -0.03828505897571072 0 
-0.1186411926098837 -0.06333936941233224 0.01485270055527359 
-0.01291542254219687 -0.06746637893103981 0.06802555912951795 
0.207450705420285 -0.1313326416632893 -0.1355314725296922 
-0.1546555317731893 0.1253051436352397 -0.03224931566718266 
-0.04693137564058159 0.0727258739255124 -0.04661350407953702 
-0.03014067607598603 0.02930915172455879 -0.01068149288978305 
-0.02477896881428518 0.06216187382870367 -0.06046765451001743 
0.0405068238907503 -0.05207930077328443 0 
-0.07733823850962535 0.1050710690855311 -0.07931739369293597 
0 -0.05707466963405912 0 
0.141337456219824 -0.07280323145597391 -0.08438327445661165 
-0.1369341217103086 0.1244837509329354 -0.03329161695090192 
-0.02206051064002845 0.05251355138822569 -0.005478320630449151 
0.1002547758761761 -0.069614339140937 -0.05289615934157786 
-0.01901778419003201 0 0 
0.08677995746289757 -0.03680807647196212 -0.08653430315617221 
0.08250271767118131 -0.05670019705626391 -0.03085260686678163 
-0.05626240225778651 0.07384199892907288 -0.01209668264053183 
0 0 0 
-0.05372573310692205 0 0.07144248001395034 
-0.06284465623285544 0.04870352871766852 -0.01240502764660649 
0.1853629591506841 -0.03646500806556649 -0.1650640143599227 
-0.09220264181075535 0.1434073092768527 -0.07612630064575826 
0.09649866969458475 -0.1445022211272064 -0.009943892906580851 
-0.04767479870571608 -0.05338211534163038 0.04590446298333501 
-0.01410125122017093 -0.03067150956536675 0.04207027171335512 
0 0 0 
-0.2294985527468115 0.07576549437088995 -0.01645463693516653 
-0.05564371565559512 0 0.04939539521058493 
0.08408168605567672 -0.05980578382965852 -0.06237165054085793 
0.09177405404349112 -0.07485438617086308 -0.02803437019678849 
-0.006237373209715433 -0.003256876475972508 0.006610217698162993 
-0.2422253852990516 -0.1826784911899147 0.227147347052071 
-0.06170898837591055 0.02209327102150339 0.03586195225491713 
0.06486080742942796 -0.02304781879782303 -0.07053813870795261 
-0.1419389943273267 -0.05980578382965852 0.1400694318620148 
-0.07557633823913366 0.079641728598454 0 
0.1069774856439221 -0.1020041959265632 -0.05115251190417004 
-0.08176716958858117 0.04644420525623127 0.0113558429125092 
0 0 0 
-0.06488008789835464 0.03413891849692621 0 
0 0 0.01328280846221649 
0 0 -0.07294684089662741 
-0.003179975024072199 0 0 
-0.05202546919706717 -0.06812028926877836 0.13724505533208 
0.0313232210179178 0 -0.04234700903979303 
-0.08722000739553926 0 0.08417543253090773 
-0.08754088057843512 -0.09451834893910331 0.1071386107324476 
0.007567804087988834 -0.0554939375943968 0 
-0.02199067013242606 0 0.04629099980147452 
0.08528713478247213 -0.0800650057868791 -0.07402978071645756 
-0.0618543034033548 -0.06035344201041787 0.07685671357558126 
0 0 0 
-0.01422721800911506 0.03766212239161413 -0.02382263986806517 
-0.07477344914299693 -0.06317028645173865 0.08134999641188076 
0.06107156831992826 -0.06317002765840517 -0.004420943990166907 
-0.01201357296199222 0.06711204272272249 -0.01905104679732117 
-0.07839979984194786 -0.007571527019269483 0.04222362679136972 
-0.09554051659459592 0.03279779427556805 0.01253635819831138 
-0.01105842075881396 -0.08636770180066305 0.03337722826793465 
-0.06955727930648968 0.1509296912030631 -0.08585646767333584 
-0.02653067540282944 -0.111707235819406 0.1341440168484056 
0.1256659563149282 -0.1786699250430658 -0.06265188450637858 
-0.006115827008895814 0.03848371059331161 -0.05165338142367756 
0 0 0 
0 -0.01772975435655631 0 
-0.06032494130382319 0.06693142934374012 -0.03663494677236682 
0.3382681442453412 -0.2033110886723245 -0.1937961654604345 
-0.06445323793944809 0.07475398958268628 -0.05040497924931155 
-0.08180955103755752 0.05246562882628644 0 
-0.07809283140205876 -0.09558171645563099 0.08553890751921414 
-0.05224454906621579 0.136766877011219 -0.09061258286853159 
-0.07743369209770452 0.1474015423790652 -0.08240490686758238 
0.1037605969678154 -0.08400363656196097 -0.07018077420168313 
0.03195897378275508 -0.2215814678271368 0.07679614476077859 
0.09549917942839603 -0.06744445265538748 -0.03297844659275654 
-0.01257486594476062 -0.003399900807414626 0.03529889879074766 
-0.2019902895851692 0.1697030661069483 -0.05202752007295104 
-0.07286778298161238 0.006870652765176781 -0.1070570463972908 
0.02167898803854234 -0.04899133813720276 -0.008343163483644679 
-0.001316324036449348 0.1195275764765618 -0.1661292169212631 
0 -0.02945002773383328 0.01034823954620424 
-0.2743624992788193 -0.0007871665510377421 0.1963181223479303 
0.07866413808236318 -0.09623869283735907 -0.02288832980103101 
-0.01838166439010632 0.05201860514802545 -0.005874295771782471 
0.06599384568589049 -0.07996893997967597 -0.04467668769392383 
0.1010605971161083 -0.05204088371305093 -0.08693519217207578 
0.06875007785121219 -0.09616305415869306 0 
0.04986932649003845 -0.06097197527437712 0 
-0.2051600299404333 0.2298228344091539 -0.09161475205233199 
0.0462143949233716 -0.05454498894935397 -0.02514781470250716 
-0.1535079822395108 0.06060913094977032 0.084754912221536 
0.02304607962433259 -0.04263318666903564 -0.04941532810599221 
0.1165020926964744 -0.1086042907335249 -0.01642446328809842 
-0.05974542344371462 0.06891216108341397 -0.03237261925359138 
-0.03704496708523768 -0.0564097727207726 0.1157501975481641 
-0.1610561219267774 -0.09380647818115051 0.08374740413902379 
0.1002812096053943 -0.04408667718490323 -0.08428312256379923 
-0.06298035198539803 -0.06339145224807213 0.1017293213148453 
-0.04937746613874255 0.03189245785236308 -0.02512201578079162 
0.084744396345247 0 -0.1003673863909572 
-0.008195127275497403 0 0 
0.1887999533922605 -0.1581529659854526 -0.1184187844278688 
-0.09684670034710083 0.1538735337034259 -0.04413437560097543 
0.0712895129960866 0.0490866724494641 -0.04685533978146809 
0.01892915262381772 -0.05036325526881711 -0.02789927241391812 
-0.08951437610449255 -0.189894641071338 0.08914596552708783 
0.126135050388878 0 -0.1293976717443912 
0.150785696125165 -0.07400485238921595 -0.09256742429357566 
-0.07737299818690377 0.1405635684075243 -0.04567844724709391 
0.1384406014051692 -0.1295905936689112 -0.07939057946060481 
-0.09211211324964914 0.1100359219639669 -0.02067003043211532 
0 0 0 
-0.01339470568633337 -0.1721033983955115 0.05517481982812322 
-0.01535128841714817 0.01292196245892712 -0.005989200137671872 
0.1327415926637198 -0.04643751488423881 -0.162424944083455 
-0.02729476424221898 0.05508058262757445 0 
-0.007117858822774616 0 0 
6.708181813476488e-05 -0.1092090302033977 0.08132844888144078 
-0.08130463422657279 0.05760973381278137 0 
0.06234286632953837 -0.1012268708662625 -0.05502344141848077 
0.01013439537927129 -0.01022850895353667 -0.09025819367983806 
-0.04212539667469375 -0.08283496528000706 0.09932416526149868 
-0.0649419400095561 0.05798417204019223 0 
0.01049129640281377 -0.1565127358126769 -0.03425739808993468 
-0.02907048591407314 0.02222641628726256 -0.02506951345265784 
-0.03943770457959827 0.0313285442989494 -0.02245239083326355 
0 0 0 
0.089085396377957 -0.04793604108758385 0.003047184730196842 
-0.1840493276046967 0.03433016749878193 0.03101956570127138 
0.1270172041742983 -0.0583291812146547 -0.0918448684632987 
0.0340365577123735 -0.04056195286594421 -0.04803037013471819 
-0.177769087318741 0.1010514565215524 0.05326439295432858 
-0.07664386549030484 -0.01529682095784971 0.1103333771451423 
-0.07465820560600279 0.08978150581010562 -0.06317272761115457 
0.08292095861593458 -0.01773771430883977 -0.05078884238358226 
-0.03827553932821835 0 0.05367226911433914 
-0.03299547607379909 -0.1022812194435004 0.07683162802854063 
0.06590335419004857 0 -0.0789172302537154 
0.07962511977467016 -0.01601873288620108 -0.08016091818670514 
-0.1486933475284692 0.1554396453553604 -0.06501398383483069 
-0.02027577339875125 0.05367775743388187 -0.04937912828053312 
0.1044900754886506 -0.075055890381207 -0.08899236688989218 
0.02793027231164782 -0.036941004119185 -0.006358147459056016 
0 0 0 
0.1346852266292903 0 -0.1425993214933479 
0.05104629891937254 -0.01061677841988402 -0.04829638371459427 
-0.1724284279250684 0 0.1058841108399435 
-0.08396733936202096 0.06521921390317685 -0.02776905983482483 
-0.01277314078147013 0 0.002134378586674947 
-0.04883091970710611 -0.04288102264475672 -0.007448746461933047 
0.1194280722764116 -0.04861297441630368 -0.1227339092692232 
0.02729846193233854 -0.1183210857284339 0.05803357927916785 
-0.01524312046093443 -0.01318814533440011 0.0294283951174053 
-0.042712318047513 -0.06993727754688836 0.07401112770454057 
-0.0625327655099621 -0.06882925525586897 0.1239081949599089 
0.04886324279780756 -0.03474754917698664 -0.03182951908301476 
-0.1070309892580192 -0.0246861236646397 0.07673798759085058 
-0.03195823540806825 -0.009080262749180107 0.07876502906500141 
-0.04681871620183259 0.07316671433965424 -0.04377170478959742 
0 -0.04370533462243247 0.07061183974283139 
-0.05595475901994704 0.05485215388876596 -0.03443083469431754 
-0.005014474160519171 -0.01424178403915436 0.0170185226805544 
0.03418071781927826 -0.02702404199673056 0 
0.1108683795542788 -0.07950628178615472 -0.01546817020839632 
0.1494231407648518 -0.08121691660349743 -0.1185218274349363 
-0.07156505392661718 0.1035049167666926 -0.03478282258728942 
-0.387174456154506 0.3842602780096814 -0.1420229703879028 
0.0414014917949753 -0.03460802612073194 -0.008756629832999801 
0.005531638406796968 0.01479044902808478 -0.0644798309330938 
0.07798156928046951 -0.04257688611839925 -0.07242512952014432 
-0.06363909440472851 0.09637158903717662 -0.07000659925133576 
-0.02129573151014832 0.03229575460513271 -0.03497401368582932 
-0.05373590324257892 0 0.01658493041603071 
-0.03451839340496325 0.05180816312784421 -0.04623126421314081 
-0.05336971156313611 0.0405368118820417 -0.04368898543559945 
-0.04077975217321127 0.1306181946621352 -0.1352395652045552 
0.106322259186512 -0.05754452706009295 -0.08360430110560843 
-0.06718167898876205 -0.02615061037809546 0.06485745682258939 
-0.02945336810003526 -0.022655538540358 0.02530441409037966 
-0.05823591857092503 -0.03082636590465182 0.07072286723389538 
0.118156193644513 -0.05276441528551497 -0.1388944187269778 
0 -0.0231764351957387 0.0002827216418583712 
-0.1102503752300561 0.1667770573564188 -0.0592188776219005 
-0.04500307312269324 -0.1090133372725079 0.09788384424340131 
0.04132661620975 -0.03673146824711671 -0.04509799105797808 
0.07833436511954964 -0.04468562113016504 -0.07807023962141353 
0.04046234150200302 -0.04313402080243578 -0.008907195940506638 
-0.2148533492849207 0.1991521310472058 -0.005018552332961192 
-0.05984454747589655 -0.07200344571749175 0.1307856976511723 
-0.07586706236321543 0 0.07401341742467418 
0 0 0 
-0.02206502350270139 0.03625942772342256 -0.0376218926677386 
0.08820185535532832 -0.07258248494013816 -0.0429104473177639 
-0.05091112956814099 0.05561937499476378 -0.005801212271220425 
-0.05978430935653085 0.07104504677515458 -0.05259986177953802 
-0.01412118079408787 0.04935098535820157 -0.08638671340331101 
0.125433265493854 -0.1206794147203375 -0.004010729292175698 
0.07366301354434959 -0.04016317587680892 -0.02742885567510139 
0 0 0 
0 0 0 
-0.08633149094716161 0.09425101920726271 0 
-0.1321841306827667 0.1664243089503548 -0.1150206037948058 
0.06376905918102375 -0.05495872407451483 -0.06515592479725091 
0.1236044378988345 -0.2311257917730766 0.1171874761589299 
0.06744330470098732 -0.05987847056702759 0 
-0.005106913154496963 0 0 
0 0 0.008465980474468523 
-0.02295929408512671 0 0 
-0.0286860145093404 0.04206325034932266 0 
0.06104053472873042 -0.05307590413988458 -0.04958016841435206 
0.01144561048131088 0.09603124605493668 -0.2178993526890513 
-0.123357044385585 0 0.1075146534020301 
-0.07682811336836119 -0.05073422407689279 0.09201121324213085 
-0.05260495552861401 0.07475892415445 -0.0637797809637413 
-0.03028622983042129 -0.03249281064370049 0.06300586844303477 
0.02919619908007541 -0.06854715107734118 0 
-0.03031278877450536 -0.0490122356714692 0.1429360213307552 
0.2021543062003564 -0.2328804539352513 -0.09450458880784365 
0.1036538857006063 -0.01245472376853918 -0.2214206764185974 
-0.1554219578917059 0.1543903592716878 -0.07685339123923005 
-0.009000792676528112 -0.01371606419053113 0.01906542167600098 
0.1273138960030218 -0.128009679780567 -0.2290140276600534 
0.06034946107067746 -0.04602749579398633 -0.05138190243355038 
-0.05120923409006376 0.03301954532852848 -0.03242086282868839 
-0.04795369710821287 0.06513104110611967 -0.0523527704955212 
-0.1123559650284985 0.1103161440894024 -0.03487512154338256 
-0.08921157400860374 0.1097769478158624 -0.07146386736328122 
0.08725087053821343 0 -0.09698457013136105 
0.05104629891937254 -0.01061677841988402 -0.04829638371459427 
0.1400519934401267 -0.0679584047714913 -0.114858633516385 
-0.1099779164560617 0 0.04861118341827361 
0.2710737918069369 -0.1221314857387277 -0.1815192207851206 
-0.06246711883124471 0.06925609343149579 -0.02043143204772162 
0.02992434179738105 0.0006015441453615031 -0.08532210215329297 
0.05740363050742506 -0.007896692766608123 -0.04694903223961875 
0.1473449600206619 -0.1471681845474318 -0.09932723969587387 
-0.01868572950945321 -0.07740104127734258 0.0537236705510083 
0.0462143949233716 -0.05454498894935397 -0.02514781470250716 
-0.2723710594552482 0.03073810597613483 0.1619271282481195 
-0.1153241854848098 -0.05540068732135498 0.1813850570665969 
0 -0.02160523941782085 0 
-0.07384936092302455 0.08002224109403314 -0.04290024034122108 
-0.09614192478283269 -0.0609027800683355 0.08939478426811791 
-0.04156902677883261 0.0302776105539815 -0.006008054856603894 
0.1270617939804817 -0.06162553875009429 -0.1084516197819766 
-0.005271006722144046 -0.002762612369401769 0.02108987724245113 
-0.2176047699159215 0.2254465449573341 -0.0875593323855576 
-0.03943770457959827 0.0313285442989494 -0.02245239083326355 
-0.1627168183053835 0.2000403633316285 -0.114007347110019 
0.1148870389492982 -0.06094422538303906 -0.07295274715683231 
0.1423778685298184 -0.09370061116508592 -0.06115991536471448 
-0.03501255993334253 -0.04497182716316795 0.01291376512675976 
-0.03876493299053251 0.03444588337199279 -0.02015777926108021 
-0.01142931906503929 0 0 
0.1019662625756821 -0.07110055438921339 -0.04652173306468962 
-0.04793623173657378 -0.03497000545876926 0.02672880267030537 
-0.06010658692196015 0.01398220015416793 0.04432087299308453 
0 -0.02610888736491386 0 
0.02196201578040166 -0.00993606928541485 -0.01058456766344876 
-0.01790302172852483 0.05279331800384514 -0.09281864679094248 
0.117478818767112 -0.08810474381998776 -0.04592950265664713 
0.1420179686294519 -0.1078395093229575 -0.1241153266286246 
0.07290596642150576 0 -0.01503130480653854 
-0.1658355604187148 -0.1262709138081377 0.2401464690489842 
-0.3101017558428039 0.2497708934387294 -0.08995090551472873 
0.07425481444025298 0 -0.09324955989562231 
-0.1195648354396834 0.1011990939313347 -0.02699238185124527 
0.1033269988542453 -0.008401021285180291 -0.130757394691213 
-0.07538972373531315 -0.03316970558960002 0.07493985352019575 
0.1627622027906718 -0.1082971213659861 -0.01565534156907266 
-0.0873483683247417 -0.0178096101776265 0.07911643738318988 
-0.1172314884138728 -0.08626915656896425 0.1574567438753778 
0.1037884946090659 -0.0997598592388389 -0.02847354481060094 
-0.02766511284424471 0 0.04637654373010835 
-0.01501770917847185 -0.01362944906206595 0.03436491662940147 
0.1085375520981837 -0.07968709242670753 -0.05120075888585941 
-0.1232366587688035 -0.01572837865379273 0.1412475854002217 
0.04308387359194343 -0.09150265937875629 0 
-0.05451561804560295 0.07385528636035299 -0.07459822585216033 
-0.002394615066280671 -0.05557871806670901 0.0326617664740478 
0.1085029874345467 -0.07205438249530106 -0.04678269299304885 
-0.07021158090691969 0.09843957266077145 -0.0178336718975484 
0 0 -0.04455610315115045 
0.1015611091274254 0 -0.1442945222159634 
-0.04787608302437527 0.1071540965001047 -0.107371712047977 
0.2576469738970318 -0.04105291168229483 -0.3583309973667742 
0.1151740533979107 -0.03258535941789638 -0.2280572904056194 
0.10939924350566 -0.1702869723225749 -0.05373055456089275 
0.005739382175711625 -0.06086954559940424 0.009327259114426514 
-0.063146016855837 -0.06611343028259561 0.07264225201039275 
0 0 0.03239658247744083 
0.06744330470098732 -0.05987847056702759 0 
0 0 0 
-0.006574706053976918 0.03044100089909296 -0.04462961403000903 
-0.04574375620940388 0.03040125976377434 0 
0.08364902426299597 -0.02863343219689371 -0.04486380186405509 
0.145059007362574 -0.03527734738192874 -0.1158179035382937 
-0.05207601668732209 -0.03244775025521077 0.05213815922560186 
-0.06942637367141175 0.1192660539213226 -0.05006623777718184 
0 0.0284976112730175 -0.02869645100948076 
0.117733179867135 -0.1014084470768662 -0.01489457531989636 
0.02673350098589349 -0.1759322031184195 0.1587809161730396 
-0.04223868285013779 -0.06141964967494551 0.1604609419193629 
-0.0285474328639922 0.01735418350871053 -0.01614075961722993 
-0.0132387099348082 0 0.03219230289628246 
0.01856401897308679 0.1129695934603778 -0.205342954077723 
-0.03267039480289545 0.03911093528482079 -0.09324955989562231 
0 0 0.01175412429576634 
0.03691417630587468 -0.01309257143941177 0 
-0.006419407898518151 0.0182148699442284 -0.1324170507974509 
0.1450212039537364 -0.09240006022161197 -0.04771550875121745 
0.03362143031548759 -0.03293317682247298 0.04507174926504195 
-0.116498614173979 -0.0470345207609778 0.09736525941199217 
-0.2860958706668512 0.01243577666774579 0.2317010342547686 
0.07242265353149777 0 -0.08017876838224842 
0.06416876118167537 -0.01429276500564997 -0.05370339016714964 
-0.05595475901994704 0.05485215388876596 -0.03109174613094761 
-0.0615817307654722 0.0860444426893205 -0.05915485448605182 
-0.02766511284424471 0 0.04637654373010835 
-0.1477033617373428 -0.2604343423707796 0.1006235017791924 
-0.01881012317187297 -0.06137017329549064 0.04647942856317307 
0.06662238602785546 -0.1049451312537049 0.02787510407823051 
-0.04582752084085844 -0.07833406624697019 0.1162597491445784 
-0.01243140953135643 0.03201847627031132 -0.03936190425427705 
0.1746248257665715 -0.04557201588406513 -0.07551153214178669 
-0.08681781194535447 0.07533284801507523 -0.01507298887528558 
-0.03670669606508898 -0.08289914915765946 0.0974588549767319 
-0.07040305230721981 0.06798197701944196 -0.02713433114037222 
0.1092717918792762 -0.04088699079679498 -0.06559477628177417 
0 0 0 
0.05547187566287157 0 -0.06013060961519179 
-0.02877646498154084 0.02130000749993107 -0.03541492102438294 
0.07399860410793006 -0.06788534415080905 0 
-0.02693809554636915 -0.07508194182816288 0.09122212547151685 
0.1017367890998922 -0.05477242330012756 -0.07441326964758314 
0.05965284264645034 0 -0.08395106216984477 
-0.0238147717966123 -0.002013812899855456 0.02720515865730885 
0.03258712574930726 -0.06565759656988268 -0.02239854465679961 
0.03570933915168591 -0.02788524028158115 -0.02920084002691975 
-0.1207906491285638 0.1162201762179842 -0.001401522894563648 
-0.08396733936202096 0.06521921390317685 -0.02776905983482483 
-0.01655073000102349 -0.02161517075987935 0.006126732182627243 
0.1385265522452011 -0.1012364692649472 -0.05608868594028685 
0.06089046853689693 -0.04406104538339921 -0.06605237933309262 
-0.01701255995693567 -0.03998157734785961 0.0991416697596456 
0.03989090215559341 -0.007373170856992308 0 
-0.05267261894174093 -0.01636650426442058 0.07608743528309148 
-0.1918822992512963 0.2137258306184694 -0.1494127750643519 
-0.0101366269520225 0.04011269396850201 -0.001885104216216744 
-0.03375493141821372 0.05526193718667738 -0.05748293837371455 
0.08463935849508392 0.03985294943709513 -0.1198852084382181 
0.04991498405633368 -0.03903818402034603 -0.003151796849706702 
-0.03267517504364481 0 0.05384366964571973 
-0.07058461457062366 0.04325270587152864 -0.00301744751011407 
0.1614623351985141 -0.1247733506649999 -0.05379824888428887 
-0.06250172440797667 0.008422470370091294 0 
-0.008047052016574113 -0.01152396461191644 0.01616076797804623 
-0.009556503289465817 -0.02278499338749139 0.007745834649916229 
-0.04918916258460814 0.06040706914000448 -0.01884588816548997 
0.03849814376217533 -0.06049627440814019 -0.0296091488619369 
0.1177128902353345 -0.09175811119768257 -0.09655115277553254 
-0.05746150410515946 0.05539411381177983 -0.05735790652872155 
-0.04470075214374514 0 0.03709138581673441 
-0.1150725548225102 -0.04656742014191748 0.09564686995798419 
0.07793194374079911 -0.2181928689471967 0.1227091560497699 
-0.102745552178182 0 0.08878952855372112 
0.06565776576150442 -0.1330851337138043 0.005580202207944168 
-0.04209054326324946 0.09174892036437828 -0.06760037012925414 
0.00239674071778255 -0.1030103774370709 0.000231721780131533 
0.05721635207146673 0.01984800779823908 -0.05582090786941823 
0.08615419546962998 -0.06711920127113354 0.0006797996654475703 
0.09322065851856061 -0.04766633669675431 -0.05179025800069979 
0.1035296227425316 -0.02587977252056543 -0.170652090842076 
0.04150207504992064 -0.02100035120437801 -0.01493220832313814 
0.06906912634040258 -0.1458406106029502 0.03967434055316679 
0 0 0 
0.09875917430156621 -0.07066705156857267 -0.08940059154585074 
-0.1455188609430004 -0.1203010882180068 0.1679882844812124 
0.02688991560861281 -0.0006385488111303978 0 
-0.06606045883691657 0.06179181328192373 -0.05022311246901594 
0.007378411018852093 -0.07912560085022928 0 
-0.02445263069517555 0 0 
-0.08883275917433017 0.08869274557811636 -0.008071904141898232 
0.008215938167484487 -0.0206492557273212 -0.001854519221333262 
0.0314391562019052 -0.01063657205978273 -0.01959397027308281 
-0.04337885374984474 0 0.01954900943659285 
0.1087776112087388 -0.07002197472024611 -0.022645847397142 
-0.05116992727812439 -0.01756209622298196 0.06681702310944479 
0.07419461839864255 -0.08026157863481753 -0.07155873949410477 
-0.0783209154686095 0.08199195178452763 -0.03048904064486979 
0 0 0 
-0.1686782407755074 0.1738550999268226 -0.1007166099424385 
-0.02455017503832465 0 0.003611216967261941 
-0.0581686860989154 -0.05272054790717913 0.06133913685925156 
-0.05737079057318983 0.009545280488734655 0 
0.04375996604053604 -0.03428181365202661 -0.002125094738325568 
0 0 -0.005937857105017288 
0.02279474845040301 0 -0.006223122170575344 
-0.1565637689203334 0.2078825722762814 -0.2190500224857562 
-0.04858787207766527 0.03836811156917345 -0.01286962769527965 
0.03707485924605926 -0.03531941864694436 -0.02317702033202374 
0.1133566084632944 -0.04216093716269857 -0.07904504439844204 
-0.03870840251652223 0.07653144335225541 -0.04717298384919302 
-0.07702678399826622 0.08631753927388981 -0.008027805427966288 
-0.09983406732379374 0.009385229849443538 0.04036320779819152 
-0.07640535903987246 0.1376664991407285 -0.06455622713387979 
-0.04661592908048783 0.1106423982074016 -0.07378857159519622 
-0.03236462427461344 0.02678376760355403 0 
-0.04500307312269324 -0.1090133372725079 0.09788384424340131 
-0.01929282531298045 -0.06200524092909786 0.08476010493125981 
-0.01606343163016139 0 0 
0.05137386934898159 -0.05370046194412212 -0.03353719581414737 
-0.2106663886603105 0.1645042392436744 0 
-0.02945336810003526 -0.022655538540358 0.02530441409037966 
7.782177195335409e-05 -0.02524681477642096 0 
-0.09955566055446655 0.1691150440712655 -0.02800761683489421 
-0.03268570507667686 0 0.0565313454627912 
0.1443455449845909 -0.01139528277792421 -0.3378865965768465 
-0.04552989710039509 -0.04424919160174423 0.01404865511157097 
0.06741541060807031 -0.001865096373135592 -0.05643153172763013 
-0.01667952089529254 0.001872754677879743 0.02296699181024459 
-0.05321328050477026 0.03559882334568801 0 
-0.1565772810217947 0.205706918018469 -0.2021435348903798 
0 0.01803384187102115 -0.0106321061255072 
0.1010569998797514 -0.08163453684391464 -0.04205195568045536 
0.0009200865603339846 0.04812287989871362 -0.1167549108579333 
-0.01140331080426958 0.02992187087775678 0 
-0.04418316472762092 -0.03109796666905846 0.05026356469032047 
0.05160196110021779 -0.1329474055550226 0.04361878241488993 
-0.005185485264071021 0.01145909797659519 -0.03546674548687883 
-0.004538533328061045 -0.05163152417129071 0.02534526626953841 
0.08112019443451657 -0.01344757272621732 -0.06833819561053468 
0.01983375116221381 0 -0.02473605009810243 
0.1371272078557077 -0.06549195852540729 -0.04460078805360421 
-0.04642776605279814 0.02221781449197971 0 
-0.02604816033451484 0.07355277235600555 -0.01066195623693903 
0 0 0.0415395018336085 
-0.01655073000102349 -0.02161517075987935 0.006126732182627243 
-0.04009151641002232 0.064492094651769 -0.01288184404559448 
0.01700724467104081 -0.05659913014652921 0.04350760727749955 
-0.04648429149527394 0.07788670054026264 -0.04511051286737163 
-0.06170444368397595 -0.04832785785481867 0.09595311374238905 
-0.007315510670277811 0.006826236939360665 -0.02276276693746037 
0.03752733272597254 -0.004568333016803504 -0.07983495486066872 
0.07168762688404071 -0.06169342055935104 -0.004830883234231441 
0.1048045290050684 -0.09027098812105992 -0.09540951804021659 
0.08241225704446098 -0.06384795932246594 -0.0120140734806324 
-0.01414045823435156 0 0.02772954363346051 
0 0 0 
-0.0001719408455487598 0.04912727774507454 -0.04855690882281398 
0 -0.01187590972371018 0 
0 0 0 
-0.02980319706000037 0.03008501308680199 -0.02170748421113808 
-0.07686197362917108 -0.02297042075079517 0.09252145956097353 
0 -0.04137892264444352 0.04806284660014526 
0 0 0 
-0.01324424477956452 0 0.007477495927187193 
-0.01918062261748232 0.01901297505113072 -0.003457281476055681 
-0.04434074357547879 -0.09108576282614322 0.0870663173381352 
-0.03933744594461813 -0.02534346076429733 0.004678693326869376 
-0.1060660323712667 0 0.06065213095375196 
0.106322259186512 -0.05754452706009295 -0.08360430110560843 
-0.0002222813624492051 -0.01959871794352374 0.04305669286937509 
-0.08905714834095459 0 0.07516935812758795 
-0.01648686158540542 0.005590168214050194 0 
-0.1032225292449491 0.04533087110309449 0.0205682651825921 
0.08524035085268677 -0.1056119380600245 -0.009658471579945245 
-0.07268126092127443 0.07328805456247632 -0.006172054033136406 
0 -0.05677135149503708 0.02802745553240835 
-0.06339147027482772 0 0.001912943980407824 
0.06233269554997293 -0.04640239796018526 -0.0235876133024955 
0.2086475409651222 -0.2785573688689671 -0.02985077641411047 
0.1354313292328675 -0.161244382805515 -0.09409198551121566 
-0.02044290666912594 0 0.01036560859086453 
-0.1030412582129619 0.1440455474665404 -0.09316144114543323 
-0.01879809445990299 0.03761029241813809 -0.04785175908310803 
-0.2695181779905976 0.1502470030525697 0.01679356853684412 
-0.05734256140621277 0.09594320003977945 -0.0567771832020814 
-0.03203818208888366 0 0 
-0.1749783962443053 -0.1257985331599697 0.1863556975553297 
-0.04878679232083843 -0.07972853785354937 0.09187042082504404 
0.07721902651303846 -0.04709882590802515 -0.04855333663623433 
6.938893903907228e-18 -0.1154926604665422 0.1376093423541787 
0 -0.08235310391152041 0.04001939518546042 
-0.04973316503906205 0.03398131923704307 -0.01430629903245247 
-0.1149458440742588 0.01609054186996187 0.0745181466469811 
-0.09848119630911165 -0.01385172764869653 0.09673267321883612 
-0.0740301152321142 0.0793075426168387 0.0114911929968285 
-0.02262244748287458 0.03947507481155878 -0.03035989039173515 
-0.0002222813624492051 -0.01959871794352374 0.04305669286937509 
0.09192739053749986 -0.03870281192341261 -0.04671454535137404 
-0.09710688812242704 0.1098471734403176 -0.07434153110837194 
-0.08083544658017222 0.1034016384642784 0 
-0.05606064771893392 -0.4854587295747483 0.230741792543139 
-0.003119592143567837 0 0 
-0.04177439188765621 0 0.03846191027110553 
-0.0719331306836406 0.1037957818003319 -0.01199741206169372 
0.1489849309952871 -0.1438106750475676 -0.0005239928896537962 
0.1157594786698468 -0.05878923524034314 -0.07566906334456422 
-0.08180955103755752 0.05246562882628643 0 
-0.05830726879673709 0.1444453905799424 -0.08791719124251374 
0.08077985001740889 -0.05974931506613617 -0.04892121395620556 
0.09310227238533691 -0.04640277837502513 -0.05356852069244743 
-0.005123168366135244 0 0 
-0.04079590308046276 0.04006916614611967 -0.01876835108038378 
-0.01940000538962752 0.03668317279631565 0 
0.05300041846842884 -0.03398705213288976 -0.06419880305559444 
-0.02291235346798765 -0.04221149029581441 0.06415290513839286 
-0.01876683289050966 -0.01463850303215833 0.02463576165092239 
0 -0.01652537590887978 0.0583127132327587 
0.0705884158035946 -0.06409951856864256 -0.05819446487015391 
0 0 0 
0.03852916482815998 -0.09457674240329778 -0.001825187119264313 
0.1739149014017083 -0.1556811047836623 -0.1022849297845304 
0.1627737495380382 -0.1234002829135274 -0.07941800391361434 
0.06983437855443878 -0.07344478059441184 0 
-0.003119592143567837 0 0 
-0.005072773182594684 -0.05767837537284971 0.06679958226853971 
-0.03343946943175796 0.02113053499802403 0 
-0.04690677943967983 0 0.03917070166690938 
-0.04640821565820683 0.0574751569561326 -0.02408362884742002 
0.1270829298452005 -0.06397666467708246 -0.1275324201955777 
0 0 0 
0.1672694877422108 -0.1518977227824433 -0.06695641875145719 
-0.03340303816067015 0.004037324862265171 0 
0.03700719892079935 0.03844915195313842 -0.1542919222053176 
-0.01257486594476062 -0.003399900807414626 0.03529889879074766 
-0.07080103934011966 0.138818311980005 -0.07056476694202772 
0.04691204529469913 -0.04000779057911129 -0.02415692184312738 
0.07471469058591132 -0.01180324880895558 -0.04899931031509758 
0.2510066136327238 0 -0.1611798862317506 
0 0 0 
0.02378130263067574 0 -0.02746578627595235 
0.06462105800849111 -0.03758879145348215 -0.0543588774667353 
-0.01655073000102349 -0.02161517075987935 0.006126732182627243 
-0.04174902574010885 0 0.02960477318259298 
0.04959787522611021 -0.05528042454229098 0 
0.04150207504992064 -0.02100035120437801 -0.01493220832313814 
-0.05024856783315829 0.0716749596902022 -0.07293307196118161 
0.07250373221893285 -0.02320752702628136 -0.05772735594187965 
0.1685520221393512 -0.1277192645278193 -0.08803778272042441 
-0.07195710440810821 -0.002302165612635057 0.05453549870616524 
0.0809098113637437 -0.04201904980179813 -0.06012066668578425 
-0.09080321290405985 0.08029944511425935 -0.03371713819961515 
0.09609998284108374 -0.08823781347398164 -0.06540602405933534 
0.1068517528125976 -0.0735361223689795 -0.04227653374476045 
0.09872278463205802 -0.003230701544443278 -0.06177525339926525 
0.1056318834940101 -0.07930028460233672 -0.03550724686310468 
0 0 0 
-0.01868486181183195 -0.02747007519626274 0.07408732074145125 
0.1050356079302115 -0.154428575837842 0 
-0.04958688292438587 -0.02912400743144833 0.05200855343257816 
-0.0363645090431827 -0.03622851595224118 0.03690431554587112 
-0.06147434139339703 -0.02191689744584574 0.1276080890327415 
0.03782763475878619 -0.01400070123558156 -0.03314620369794308 
-0.1243365703763505 0.1324899051043717 -0.126535022319358 
-0.1069500031430863 0.1146130443506617 -0.1129311678627794 
-0.04156902677883261 0.0302776105539815 -0.006008054856603894 
-0.01316401338260609 -0.005667830285713403 -0.04231998856852227 
-0.03490937071171846 0.07283345275357014 -0.05089751745843801 
0.1556983108626919 -0.07320104156644845 -0.09068028143113541 
0.2377385969909481 -0.2699052865487062 -0.1338773215267082 
-0.08107125626963653 -0.06335071901256142 -0.03651232837219327 
-0.07359238390635624 0 0.04361845220483342 
-0.1943466891922178 0.2065602636684465 -0.1196942745124775 
0.01895381795882754 -0.05109682914625664 -0.0029955979010311 
-0.02250000088939895 0.02307167212886622 -0.02991021158220421 
-0.02359745240810195 -0.02723614257821694 -0.07284053322494234 
-0.06444751694880108 -0.08074591122277967 0.08397051906621592 
-0.03058478520351059 0.0559656283771113 -0.05574118355496398 
-0.005123168366135244 0 0 
0 0.00747073898839532 -0.01876925674308293 
0 0 0 
0.06234286632953837 -0.05934272542849722 -0.01512374981019573 
-0.05514783308329854 0.04133280684590206 0 
0.01386106216571321 -0.1437742886717358 0.03665280098174785 
-0.1452719682373245 0.06382581283215154 0.05155859447011545 
0.07690748498837684 -0.02535876084402326 -0.01083795866366823 
0.1002812096053943 -0.04408667718490323 -0.08428312256379923 
-0.07192289522330798 0.006791735347952653 -0.003814060806402425 
0 0 0 
-0.04477052712391644 -0.01248164459616807 0.07064701402938048 
0.1029757928476336 -0.06329919963297788 -0.1217637912463226 
-0.06126383249859386 0.06692515004962508 0 
-0.03054365087070142 0 0.03372351670475011 
-0.01628074924058833 -0.03491717227163605 0.05041337056867488 
-0.04105016962718548 0.06982178646365687 -0.05185460570255511 
-0.04952761698734379 -0.01988652391688665 0.03739173753788301 
0 -0.01179134734194384 0 
0 -0.009497339617459367 0.02296414985052355 
-0.001824547121897852 0 0.03171789159682227 
0.07419461839864255 -0.08026157863481753 -0.07155873949410477 
0.09676318792428169 -0.08428442281221135 -0.05523713155330591 
-0.09848119630911165 -0.03402598618207212 0.09673267321883612 
0.07850931181138143 -0.09850118485487361 -0.03892164275259319 
-0.03344516009511673 0.04249703360923589 -0.02795743823664357 
0.1572506752284805 -0.09440437894206848 -0.1636806312244271 
-0.08338004284613099 -0.03908031722064978 0.07410145421143713 
0 0 0 
0.05365612747262098 -0.0151889819502918 -0.1116400735172385 
0.04986932649003845 -0.06097197527437712 0 
0.01192638884080385 -0.02404180219455874 0 
0 0.05102008781998911 -0.06285852508791052 
0.05560444164483337 0 -0.05338503564679633 
-0.07005586694405432 0.1188117818010087 -0.06195711451634186 
0.06860496326901068 -0.01749046883156702 -0.01885984031875506 
0.04365899645005522 -0.03242931155111826 -0.04260515188926307 
-0.08460508660787247 -0.002263898821412837 0.08935206802933572 
-0.06766150771625037 0.02871930109734716 0.004733731682681118 
-0.07140211490496395 -0.07250035428748906 0.1388368158648366 
-0.06856074869473322 0.1286570477253103 -0.0954398037825373 
0.08737281990832295 -0.0233167232005923 -0.04983225037555603 
-0.09067682371290478 -0.09869376938456088 0.1106781698004999 
0.01145188860897959 -0.02842907700903196 -0.03797263121232593 
-0.04807538372831149 -0.02079339582121787 0.01376383536542406 
-0.03124539203244437 -0.08265537048444473 0.06149764616445991 
0.05748201062133761 -0.02234907022252354 0 
0 0 0 
-0.01241712688704341 -0.04213179096773068 -0.04500463731649457 
0.08417226731691115 -0.002974084956762471 -0.04030324620951207 
-0.0186857295094532 -0.05461604788985121 0.04944981068226997 
0.0522393178891228 -0.02848279084487197 -0.01462638721220165 
-0.0364154407974018 -0.06719547566541524 0.09780989490444184 
0.06903807270192486 -0.02210508368750434 -0.03745874560658928 
-0.03819710983880834 0.07026007055163888 -0.07720079323198584 
-0.02469522152970838 0.02068723445270128 0 
-0.02907203893356129 0.02408074942827277 0 
-0.1372982845815816 0.1684652304401047 -0.1115548972186838 
-0.0510952997421643 0.05425880031337905 -0.006899344725102825 
-0.05595475901994704 0.05485215388876596 -0.03443083469431754 
-0.102023733583489 0.1667765281926806 -0.1439513649477352 
0.1362096017740288 -0.06584020249342865 -0.01618836142527575 
0.09808583054915654 -0.07133038459898831 -0.08263860424054416 
0.09338820907616684 -0.07728359484948916 -0.006840715350876452 
-0.1209472607018947 -0.03777615264118223 0.118369502060986 
-0.1211981361022341 -0.02421042537871062 0.1270828068095663 
-0.0294275057920242 -0.05008793855711501 0.02758358737668903 
0.07198241307117202 -0.05715309466522343 -0.05517680235911421 
0 -0.0505579311333935 0.04745246350922599 
0.07112024071383262 0 -0.01178779021075191 
0.1116097503184157 -0.035361744530408 -0.01265201775237175 
0.1705132567005441 -0.1289367214378697 -0.05400245207118481 
-0.05411860511973339 -0.02745829344581788 0.07235546891264921 
-0.01291084561723937 -0.0470345207609778 0.04886058859338095 
0.04134666310084231 -0.04723306206942067 -0.02251637823510101 
-0.1782485398123492 0.1518360962416345 -0.1065788269081971 
-0.1489790413638408 0.1275393035658579 -0.003239751630724973 
0.06793460976243708 -0.07465905972119438 -0.002666754962334294 
-0.2072985888240598 -0.1302707180444626 0.2235343596554407 
0.06234286632953839 -0.04817428969704312 -0.02318470844176287 
0 0 0 
-0.09955566055446655 0.1691150440712655 -0.02800761683489421 
-0.03722193287786858 0.04604902669112589 -0.03863025196245477 
-0.02201463677344364 0 0.01003756144825835 
0.1298720415759775 -0.07778663626743267 -0.02907314042391599 
0.06973026684879567 -0.006567289741666317 -0.04671454535137404 
-0.03217977912480356 0.06837132339778623 -0.04388656569162817 
0.09993430153917862 -0.1614519865963262 -0.0324725492379024 
0 -0.01048098840491415 0.04560359407681783 
0.02470840648428378 0 -0.04111472911552808 
-0.03786350479493441 -0.07622606653680249 0.01626129544566383 
-0.03284990940559671 -0.1069747834287853 0.07590573639563496 
-0.05707158703140286 0.0940112860551189 -0.08356852331718768 
0.09530287816348797 -0.1461632052564062 -0.007330111020538741 
-0.01823871319924478 -0.0008403131911769537 0.03272626277036894 
0.07811325452244156 -0.08468508559606003 -0.010027259586017 
0.07242265353149777 0 -0.08017876838224842 
-0.0431390054183922 -0.06890857579435997 0.09405868618921756 
0.06243572403903976 -0.03334224425742741 -0.07470928975437163 
0.06498394024396512 -0.0647396765330694 -0.01300031908703751 
-0.1167409788988184 0.09069227185229171 -0.01484366582060409 
-0.07133486072774785 -0.06999867370388237 0.07760300464750586 
0.1253483708740813 -0.03124397841726646 -0.03876831728814076 
0 -0.01432803746679867 0 
0.09849866130452462 -0.02850346621960014 -0.0615339219430599 
0.1393350002718552 -0.1617170178120356 0 
0 0 0 
0 0 0 
0.1317586724150651 -0.05443837826350958 -0.1217903198899568 
0 0 0 
-0.1074133550296991 0.09644516371639038 -0.006124723920123908 
0.07848177013799537 -0.06970125477666129 -0.04380584876994825 
0 -0.03567539294176764 0 
-0.07510728615743688 -0.030736608884578 0.0673332902520984 
0.0341759696880552 -0.01550395265863687 -0.02946749188259556 
0.07031430717688814 -0.05842368705294588 -0.07939280891777951 
0.05231931310450551 -0.04624841002679517 -0.04123786891562502 
-0.333145946676446 0.2848564764983991 -0.02109306113371573 
0.02413122508561157 -0.02106363413874089 -0.01118754290017976 
0.0342540088652577 0.002789647021083533 -0.02043143204772161 
0.03449820910689697 -0.02478563103588304 -0.01664530949153988 
-0.06038927233644968 0.08501911136328942 -0.045525667870893 
-0.04190288275074985 0.04583711966099516 -0.046265138665937 
-0.08557390283769306 0.07649380150180418 -0.02414107566756249 
-0.04073440704319641 -0.08377068989036794 0.08001793990384937 
-0.05046396375115356 0.06230201740465198 -0.04012758796079061 
0.1585487412722236 -0.1007238362167541 -0.02847567971635942 
-0.02350408382046268 -0.03819583093228193 -0.007485867043302716 
0.1244301380283614 -0.03735484442092148 -0.1565046537369109 
0.03864040733121531 -0.004553973614271348 0 
-0.340948030427504 -0.005059562341757436 0.3132175344837938 
-0.07489636432264361 0 0.07272054969550214 
-0.06957613837108625 0.01664773322509352 0.02530441409037966 
0.2839865013433005 -0.07971164703648614 -0.2431656326955584 
-0.03936477256859607 -0.02529501123146299 0.06485184747500176 
0 0 0 
-0.03477229282490764 -0.02439710099563401 0.09890974917451441 
0.02494453501877264 -0.03890476952093157 -0.03888064936405556 
-0.05734943021282848 0.06075406349836225 -0.006122457571599246 
-0.1166161033134057 0.0411926538836087 0.04410979563232204 
-0.01402128139481579 0.02640750946314081 -0.03514390449287633 
-0.1902144396651221 0.03668317279631565 0.1176794505366049 
0.1444694612850358 -0.1064049265477695 -0.06594347249419949 
-0.01516206565489531 -0.09920109067946227 0.1214730361702231 
-0.1019369101820366 0.113535526492203 -0.07704295275960317 
-0.1032787634442406 0.05926193366046172 0 
-0.03025269652757842 -0.0607827432411345 0.08863132808856326 
-0.0644917428507337 0.08605765856042091 -0.06886439624224283 
0.1261362866168795 -0.1618941944863233 -0.03145762778936793 
0 0.01596113854284001 -0.03338853592695214 
0.09117631846316583 -0.03866496598464478 -0.1177534988107266 
-0.04499506789578654 0.01143795435285425 0 
0.07432615675266442 -0.04434966607950983 -0.04024301037362749 
0.03027020760501395 -0.03120446361033884 -0.03724837456876411 
0.08815105862015961 -0.0713292387764811 -0.03246606389461126 
-0.1121985742460603 -0.1352900183902046 0.05606582265210635 
-0.05353693919431386 0.04051113299181891 0 
0.09795316866870769 -0.1084235994085223 -0.007082993000652605 
0.0981671870443615 0.04806403132690157 -0.1887459354252279 
-0.04418316472762092 -0.03109796666905846 0.05026356469032047 
-0.01648686158540542 0.005590168214050194 0 
-0.06160482002204869 0.05017025688095249 -0.04449913771476552 
-0.008694337053928596 0 0 
0.07603207909637444 -0.07964429549913188 0 
-0.04788935537117561 0.06391106601395161 -0.04799840303468957 
0.05594837952378379 -0.06514628026563687 -0.01294102300699619 
0.05489938872275099 -0.05255159311483793 -0.06508411485040143 
0.07017341676324394 0 -0.1338806121326164 
0.06638144362103517 -0.06648455859724821 0 
-0.06450673651481928 -0.02370266879928 0.05722038988109485 
-0.01460369662934818 0 0.02838631316519557 
-0.07073294498229837 -0.06113636475853183 0.0991093840174147 
0.2735575205490585 -0.07363225321125171 -0.1773791601783419 
0.05735094126955276 -0.02654318357925595 -0.03419959611780762 
-0.0330645359311284 0.03932843705249111 -0.007653069295970803 
-0.06175667587163328 0.1652499381185304 -0.198245451716944 
0.004615952598164411 -0.06182744926646282 0 
0.03959993549492388 -0.06150142633321703 0 
-0.05373590324257892 -0.002440062365291527 0.02387437336651681 
-0.0774027022338758 0.1121444607088658 -0.04905317815272233 
0.08315675013369205 -0.07668526218080628 -0.01236475121478332 
0.06650209854425575 -0.08574803768315577 -0.004872264749155374 
-0.06183221029486485 0.07026245932901935 0 
-0.08411169462201243 0.09632556327184198 -0.01575457336513311 
0.03451186389773403 0.04737411408323161 -0.08033816109177666 
-0.03480103630318483 0 0.04789475060412456 
-0.07289707821136916 -0.007019970832390227 0.06849819061980417 
-0.1141876286645774 0.1090617989542228 -0.03249619528240107 
0.05618710078384187 -0.09789269540336748 0.05139066435178633 
-0.03870840251652223 0.07653144335225541 -0.04717298384919302 
0.08208548678042339 -0.05873277267340987 -0.08390034170125553 
-0.09663307890652621 -0.08204251134790144 0.1926345670438405 
-0.03089438828666503 0.08335201722260757 -0.1065449264538237 
0 0 0 
-0.0985713906069763 0 0.07381078013765588 
0.3332066809318738 -0.2213637397565135 -0.084637026493455 
0.2720212185450248 -0.1358454875855306 -0.1860709802305923 
-0.04712998376999077 -0.1013799381287241 0.0721820715905451 
0 0 -0.006901118060063976 
0.09562388611508918 -0.1013710007186561 -0.1989977874407671 
0.1193261085261904 -0.1020370985756422 -0.08234499978554352 
0 0.003747532120336267 0 
0.08081018437028187 0 0 
0.128150553061771 0 -0.1344663200976437 
-0.01891157098511291 0.03524338857971386 -0.004875836580437355 
0 0.02105505438443406 -0.04245114298690602 
0.2249393762212811 -0.05526071140015169 -0.05964760233938034 
-0.08018435802872409 0.1155650271704851 -0.05830047143072702 
-0.02998157107577036 0.04207802458409543 0 
0.01252885881136345 0.08979311583865811 -0.1573900984766243 
0 0 0 
-0.1087201025498325 0.04038775676189186 0.0374933786414718 
-0.01447788381919229 0.01587021911085415 -0.01392754453832731 
0.09211738543277835 0 -0.1158711485439256 
0.216141444667569 -0.09240006022161198 -0.05950329896196938 
-0.127842242191505 0.1273083674820569 -0.03641601109792562 
-0.1023057998493767 0 0.09618288775814357 
0.007526896159407027 0.02659182515170389 -0.02125303892309831 
-0.02027580661129489 -0.07222094785708896 0.01360227936195116 
-0.02819795364644394 0.04488671101470935 -0.02933090388445672 
0.09554080005452865 -0.02293191993634111 -0.0414682472958506 
0.1002547758761761 -0.069614339140937 -0.05289615934157786 
0.04962109749322939 -0.04156119105673533 0 
-0.02602851617449695 0 0.03126775008968873 
-0.03966594603160327 0.09423605517645217 -0.09212545134657575 
-0.1318217517763572 0.1885009180744484 -0.04808972200741075 
0 0 0 
-0.01150286815688615 -0.01487654889935192 0.01981863494805573 
-0.08564298652967174 0.06278912113332923 -0.04455610315115045 
-0.01016248101877999 0.01167408804869813 -0.02113534553988042 
0.1819362730265394 -0.08044599613840928 -0.07904504439844204 
-0.07004451274003463 0.04478256259239646 0 
0 -0.0369945642954782 0.05054900975366469 
-0.08106919497597241 0.06512520370057277 -0.04959005381658685 
-0.06444751694880108 0 0.01327531488376968 
-0.04747418154341757 0.08333048842423427 -0.02946749188259556 
0.1000741059852604 -0.1844791680213029 -0.08400697061522648 
-0.04782145948343767 0.06009745916402546 -0.05056307531797866 
-0.0758020190307694 0.0840297511062465 -0.06602937167759558 
0.1122681657880218 -0.07838390812633306 -0.0668503083289067 
0 0 0 
-0.01170322790914129 0 0 
0.03053962794803858 -0.165830613584724 0.0711902550350271 
0.09177405404349112 -0.07485438617086308 -0.02803437019678849 
-0.03496087689273242 0 0.02324782033558221 
-0.009799503140624673 -0.0745606522474473 0.04756014121269199 
-0.2192489030911103 -0.05219960042389447 0.1874237728235742 
-0.03970061295025605 0.05616111782689519 -0.03237031032773317 
0.08920377511178731 -0.07891006791143296 -0.06234636032456003 
-0.07912770025270541 -0.06189930091068042 -0.07442527654076664 
-0.1486985967218682 -0.1105938403060295 0.1850920942302396 
0.05728859012773565 -0.04740857951964531 -0.03297229664985538 
0 0 0.00587193130318147 
0.2532252435319829 -0.2052275994167832 -0.104210712768393 
-0.1596073688193912 -0.07050656057985329 0.1188745030011246 
0 0 -0.01445188880241896 
0.0524425340512683 -0.0406666109051828 -0.05102315614497056 
-0.06618688792022542 0 0.0364021328653941 
-0.03485509283925221 0.02365655568553521 0 
-0.02538205460603625 -0.06637664248425933 0.06012913463178355 
-0.03550341236916147 0.0610741454674163 -0.05752353380533766 
0.06612783906322017 -0.05314245865000632 -0.05884604503416593 
3.469446951953614e-18 -0.01405735306376194 0.004432044742169825 
-0.1297262853249157 0.118437268484973 -0.01539905137695513 
-0.06548332648711161 0.04058057974108176 -0.00108211965289725 
0.009098481940928604 0.04085622887860125 -0.1215289040733616 
0.05482579603447487 -0.1474891244713758 -0.004478916710384187 
-0.01617695958784138 -0.07295078653296502 0.08991727566959597 
-0.002788845782251764 0.005681501228896517 -0.01806513767861137 
-0.05203201311287479 0.1309171919475506 -0.1084836091759409 
-0.08821238721386583 -0.0755998525828256 0.09506585871974517 
0.01658718861241667 -0.134828269897017 0.05196314892336343 
0.1583406609737718 -0.1770900487330637 0.01189166581693254 
0.04224928188941947 -0.0425771190430005 -0.02183304212835236 
-0.03419554589334495 0.03144326207195507 -0.01360224778933057 
-0.2420729634941822 0.205708993256552 -0.06369787437900112 
-0.08396733936202096 0.06521921390317685 -0.02776905983482483 
-0.06803912921420395 0.02473258911160325 -0.03552013913758149 
0 0 0 
0.1388903828804037 -0.3097484930066328 0.07440747825484602 
0 -0.03177433855601058 0.005900795827395623 
0.1714141198073327 -0.3112302189697251 -0.005990003261340089 
0.08826192598993056 -0.08998969310439192 0 
-0.02335621654616485 0.03378409404934614 -0.01725217315323544 
-0.02204167532177615 0.01591948292496695 -0.04771567753649981 
0 -0.02587977252056543 0.01281295539328262 
-0.01030784486210882 -0.07545407730226322 0.0584171261154189 
-0.04807171794884351 0.03709308791442414 0 
-0.01665924120265151 -0.02959195806510028 0.07012209199871568 
-0.144644368349353 0.1775457299259573 -0.09695453764761491 
0.0851934464340158 -0.0458528394320409 -0.04593816880514354 
-0.06450673651481928 -0.02370266879928 0.05722038988109485 
0 -0.00736825938662899 0.01702750938966706 
-0.03058351429686465 0.002723083695944482 0 
-0.03468426045714209 -0.02302835245840985 0.06398556220676913 
-0.08508739801010838 0.06090759830940279 -0.002986871174760111 
0.009378130834895162 -0.001286644693567228 -0.02257440551673251 
-0.03510548189079882 0.02268165242449991 0 
-0.09502716123947608 0.08552612310606647 -0.009730114633911668 
0.13532218430633 -0.0981132038322631 -0.1079350368727495 
-0.070473185455157 0 0.08095432705851972 
-0.08088836845755325 0.1329490262905387 -0.2539096084403362 
0 -0.0523761194236603 0.04930609378801157 
0 -0.05651577009868276 0.06246972618165168 
-0.08708985744492961 0.1362040610311285 -0.1147930197343038 
-0.2348477484228415 0.1277217840580196 0.03222719630633399 
0.0664980354828153 -0.05250697332699884 -0.06009078955674464 
0 0.01643275656224525 -0.04679837880515812 
0.1246468600340977 -0.2525986621336963 0.03698472519042808 
0.08539517239787515 -0.06233050579591987 -0.03276319431366344 
-0.03909337514328504 0 0.03690431554587112 
0.04720901285834825 -0.02292637888279767 -0.03780327213926698 
0.03174850408879167 -0.02493569358771618 0 
-0.002833729723579042 0 0 
0.05785711412894095 -0.0445778568428252 -0.03041409833095249 
0 0 0 
-0.0399082579014153 0.04305453025938819 -0.02543703665457498 
0.1446785651837671 -0.0674677810747894 -0.06427008345028828 
0.1054082819216009 -0.02902225342333621 -0.06015257632742071 
0.02010708771775231 0 -0.057703627945536 
0.05549275043211069 -0.114093940653986 -0.03757227396621817 
0.06599384568589049 -0.07996893997967597 -0.04467668769392383 
-0.05424696761087649 0 0.01964238426340844 
0.01604114578857464 -0.003622057941921259 -0.0552377108856788 
-0.1764106368419948 -0.1816817257384272 0.1750519095625232 
-0.08685447342178276 -0.09216128618874501 0.04301995245643424 
-0.1519609132708564 0.09575887638586315 0 
0.1143491149136641 -0.05015500084568364 -0.08611216795319418 
0.04624332425152185 -0.02210508368750434 -0.03123562343601393 
0.07901572820215298 -0.07710044222288276 0 
-0.003441619812107158 0.04823868799882506 -0.06187378988980752 
-0.01752533895144913 0.01469434912950689 0 
0.01362168605434426 0.04537592331741246 -0.07467749108940647 
0.09189160750096242 -0.07620621106014612 -0.02878178603973491 
-0.2113656024723141 0.04712608619516098 0.03226068358529818 
0 0 0 
0.06910120518908902 -0.0917123070751303 0 
0.004429980078431842 -0.034930766289116 0 
-0.004109187075030656 0.05092746122399371 -0.07281739137010064 
-0.05796579610578602 0.09140074192100354 -0.1025857832383425 
-0.05713523463413211 0.0390953853973107 0 
-0.04681871620183259 0.07316671433965424 -0.04377170478959742 
-0.03943770457959827 0.0313285442989494 -0.02245239083326355 
0.01175734909613337 0.03461582776167277 -0.07536643637398521 
0.06463575531045727 -0.0696419065159983 -0.004246931077876888 
-6.938893903907228e-18 -0.05677135149503708 0.0203925636945352 
-0.0377526147678842 -0.121815761345165 0.1071791771633655 
0.1103167996285858 -0.0746337297053641 -0.06444768698869285 
0 0 0 
-0.07145816159541026 0.109455072284785 -0.119085282000648 
-0.1117050682413877 0.1946578988652387 -0.1316925674588584 
0 0 0 
0.158922314931417 -0.06299014623677973 -0.1253362436156494 
-0.01651249394211607 0.07658368167864497 -0.06550544731588494 
-0.04541343562979688 0.05198843133413449 -0.0122777481609361 
-0.0006642904424006746 0 0 
-0.09038842051425333 0.09044617112099813 -0.05028966112148604 
-0.07216151897662322 0.07609288612880788 -0.03020661264766035 
-0.1344099216438834 0.1669026033675393 -0.09310889992099554 
-0.1019351246121745 0.1317684219093973 -0.0767156654774117 
0.08954608786495874 -0.08897350308069017 0 
0 0 -0.003016760050788842 
-0.001106513988199442 -0.03266404470152248 0.02431994748917786 
-0.01901778419003201 0 0 
-0.08109044939923704 0.03605429306121893 -0.02707480099359682 
0.08735838908238824 -0.06649527350334396 -0.05382783921614636 
-0.02772353762865266 0 0 
0.07772656625846183 -0.03779586141419068 -0.0353747507867766 
0.04740085015565753 0.01060793473100301 -0.1679749632442023 
-0.03419554589334495 0.03144326207195507 -0.01360224778933057 
-0.04578531933064817 -0.02325312883703873 0.1049767552574303 
0.02586731899171764 0 -0.01396353031673697 
0.1243643704017821 -0.111710425262563 -0.06478215440510292 
-0.08722641440562089 0.08402794932791219 0 
-0.03125508116136202 0.04928454324743148 -0.01751109938879863 
0.1355931494697162 -0.06752152065449835 -0.09514736224220283 
-0.07806718222535494 -0.004890403617887961 0.03690431554587112 
0.04956915745190754 -0.0114319913827937 -0.06065735490991025 
-0.03980600519304557 0.02871930109734716 -0.03521883157510124 
-0.03943770457959827 0.0313285442989494 -0.02245239083326355 
-0.05375864834831619 -0.04800307361222847 0.0655122866151317 
0.4636397532026943 -0.2961504251857115 -0.3764762472737665 
-0.0793444672026901 0.04489995360939652 0 
-0.01255637997649464 0 0 
-0.0549763321879838 -0.04144728458447636 0.01265265174526357 
-6.949902268774318e-05 0.01127164899314511 -0.002388015565408227 
-0.01593792084680387 -0.07137467619436715 -0.008804216603559602 
0 -0.0007823637243031516 0.006232889243201699 
0 -0.01027178136781879 0 
-0.06087301730013685 0.05655630802471092 -0.003941466945611006 
0.04485910292716568 -0.06652424565415505 -0.07638006884602283 
0.1620295871469548 -0.2045116090105313 -0.1248836600544349 
0.1241005027364782 -0.08334523962989873 -0.02794212741911666 
0.2413573266769305 -0.221232951801003 -0.1003099787759316 
-0.1482765126806586 -0.3341690890015638 0.2630365218478681 
-0.05939209116559297 -0.06566466255508933 0.1115232930706504 
0.1707908290372988 -0.2286000766725259 -0.1223983543404705 
0.1228407089862673 -0.09264209426910928 -0.02753989681250258 
0.08843948165801745 -0.07628976619061291 -0.04333296874335529 
-0.06041130286219325 -0.1142887313182761 0.1726952555921211 
0.1018374737535122 -0.1269949510388311 -0.01571251273050692 
0.1634683767087363 -0.02954994976204807 -0.1878228860767058 
0 -0.05024935820256841 0.02173128457900273 
-0.03870840251652223 0.07653144335225541 -0.04717298384919302 
-0.07347174455023972 0.08177549150778282 -0.03744988289412904 
-0.05538412062150651 -0.09186772412220756 0.103894998199139 
-0.04841653371921793 0.06580421011518577 -0.07028822874934675 
-0.04743073159088012 0.05313708895942165 -0.04894268020741144 
-0.05949226900675557 -0.06289681796925335 0.1169545947930706 
-0.003508123803704136 -0.1755703423039504 0.1061951126367264 
-0.07373499494218985 0.04771282440335316 -0.00574897845333463 
-0.0634237886640248 -0.04662002727620441 0.07493985352019575 
0.04023726023115728 -0.1365726684504374 0.09756954905063511 
-0.1334721392695137 -0.07020641296498947 0.1554507937762778 
0.09084834322717691 -0.09617755569002057 -0.03995285257122304 
-0.006055429536595117 -0.03313272820060194 0.06001617653191052 
0.03075410404854455 -0.04126863583815196 -0.1238928072355077 
0.112579953128921 -0.08994169310396001 -0.05153112503927584 
-0.1831720293277817 0.03398716291358754 0.04381518722289773 
0.05593892785598444 -0.06981357126640426 -0.03788472650544896 
-0.03171561570958302 0.1191408030646724 -0.07679878793821245 
0.1017140722633835 -0.140100790310278 0 
-0.02140963446238146 0.03420779211417097 -0.01927187954839261 
0.1017140722633835 -0.140100790310278 0 
-0.1166482637578388 0.1150107212003071 -0.1717930467047759 
-0.06997278499692443 -0.07104366521527199 0.1082226444058019 
-0.1315567171543356 0.05348036724319626 -0.0003153040687538262 
-0.06960454598540347 -0.1426690137937932 0.1253831383515642 
-0.0561413792633133 1.301042606982605e-18 0.01343334865716539 
-0.1171180371299091 -0.009802688501065873 0.05182169760888043 
0.2783096693869996 -0.04048211799919352 -0.3075325023344093 
-0.132301101291567 -0.1499418525124503 0.234167963584534 
-0.09388762793663785 -0.009082102156665325 0.08409841827946951 
-0.07866796036964079 -0.04168183192895116 0.126311994624614 
0.07649501085943806 -0.07218094756272082 -0.1270506308433366 
-0.003960613702655532 0.04085941907459945 -0.03409050877906829 
-0.03141249308590898 0 0 
-0.01660721680892153 0 0 
-0.07804754189994106 0.05846209418726009 0 
-0.09663004793244709 0.01360837125977448 0.08967011471645291 
-0.1221500742840381 -0.07315922676413739 0.1296318480791422 
-0.06085602136328262 0 0.04868730488096475 
0 0 0.01328280846221649 
-0.04648429149527394 0.07788670054026264 -0.04511051286737163 
0.04501527558687909 -0.002222757411535137 -0.05208665187988389 
-0.0680823114244497 -0.1016072721500812 0.1055849374109895 
0.001179745730882934 0 0 
-0.05971087958636304 0.06625567724637599 -0.05548836322190442 
0 0.04334634230311557 -0.06968075426012872 
0.007898991660623869 0.01414373156831085 -0.07752790016298414 
-0.008489336848217793 0 0 
-0.01073322132952876 0.01042073892488646 -0.009864388256625179 
-0.0377526147678842 -0.121815761345165 0.1071791771633655 
-0.09632891908787963 -0.04429611679051551 0.145259694287377 
-0.03049475542920555 0.02960899120920762 -0.03105802396152658 
0.06285293433980893 0 -0.03802012859813195 
-0.05124909372362146 0.06430652850923899 -0.06146314544626717 
-0.1660772615045186 0.156650581447057 0.002168983269378949 
-0.06586266933386817 -0.04583444653563642 0.09955036731600023 
0.05413013177322245 -0.1023781896233855 0.02059737589365786 
-0.04111471104553256 0.02629307654610454 0 
0.2022243317766457 -0.1121501607177538 -0.1168242658427995 
0 -0.02232056773333341 0.03081198635465628 
-0.01402128139481579 0.02640750946314081 -0.03514390449287633 
0 0 0 
0.05562365879930683 -0.04135401330674118 -0.05189645875338839 
-0.02888977535940385 0.02580730758965077 -0.01044774686074691 
-0.1098944071164605 -0.1072212137838057 0.1367768023250443 
-0.0006592468801870429 -0.03375654447325305 0.00887375947105238 
0.02362860328796991 0.08300697367459786 -0.1093239382884356 
0.03720548459404368 -0.008357865123220776 -0.01235950676313987 
-0.05974542344371462 0.06891216108341397 -0.03237261925359138 
0.06632817480996969 -0.1330059236073798 -0.01514691681006976 
0.2228626090947262 -0.08598064402261234 -0.1791746620463259 
0.05261115406958538 -0.1155714496810515 0.1076092359045474 
0 0.005265842124691651 0 
0.0791216771493491 -0.02924126329354136 -0.01982740564566687 
0.05763615461336156 -0.04254973206360074 -0.05208156866285843 
-0.005839117273517856 -0.055242895641175 -0.02376042167257839 
0.06461881168264964 -0.03346126231645052 -0.06044636753062697 
-0.05840892435075251 -0.09547846117194814 0.1060289596872218 
-0.0861734068888781 -0.06709318917181066 0.1292175842777148 
-0.07278679740508608 0.09328668852710723 -0.1017064673319945 
-0.07170173105557204 -0.09240728171101609 0.1281943882105846 
-0.04466105932822734 0.0510626234665267 -0.01278218481048937 
0.0417617464955428 -0.08228415652221606 -0.02661636841489421 
0.1266865766897795 -0.004579311389044566 -0.09386160191184624 
-0.04704484534320572 0.02537370454020672 -0.003378605078839687 
-0.152968399246232 -0.05449422373708238 0.1211996755576559 
-0.1062235148982833 0.1400186359435309 -0.04231938888012442 
0.2666873615746921 -0.309003585520375 -0.04306044416792207 
-0.03917525160534434 0.03895767574991701 -0.003458344761748331 
0.05139946286707831 -0.02601632204837669 -0.06768545624243823 
-0.09212425145292101 0.09710819453436875 0 
