solver_type L2R_L2LOSS_SVC_DUAL
nr_class 3
label 1 2 3
nr_feature 35228
bias -1
w
0.08033972023862983 -0.0681860486478678 0 
-0.1074257442408051 -0.02397468500105609 -0.05765718247243758 
-0.00525770999152401 -0.0551861409448548 -0.1273095363962002 
-0.1426447091860834 0.1774431280678974 -0.1452337500767671 
-0.04237447629241215 -0.03571941272974395 -0.09435477544049042 
0.08033972023862983 -0.0681860486478678 0 
0.1164784049077943 0.150673189246997 -0.4641715748912775 
0.08033972023862983 -0.0681860486478678 0 
0.0162622948091764 -0.0681860486478678 0.02607071622614264 
0.08033972023862983 -0.0681860486478678 0 
0.08033972023862983 -0.0681860486478678 0 
-0.06493677532622913 -0.02947519811477343 0.09763300691673552 
-0.007980599933846163 -0.03047524060542701 -0.09412413070118283 
0.08033972023862983 -0.0681860486478678 0 
0.08033972023862983 -0.0681860486478678 0 
-0.03492459609872783 0.002168925388520869 -0.06651130915962186 
0.08033972023862983 -0.0681860486478678 0 
0.3222995019234918 -0.3008178055518343 -0.1741348161772238 
0.02697651124905721 -0.001123836498618891 -0.1217338752209888 
0.08033972023862983 -0.0681860486478678 0 
0.08033972023862983 -0.0681860486478678 0 
0.08033972023862983 -0.0681860486478678 0 
0.1427253762916462 -0.1741295543619903 -0.0734323075721037 
-0.09060821770647468 0.03136452192334013 4.51725949406805e-06 
0.1409857139250517 -0.1842066186172462 0.05126375627987071 
-0.07308670462918357 -0.005572358044035674 -0.00833836987203428 
0.07132822601040151 -0.08917065086036759 0.02363356871048401 
-0.06512201462187198 -0.08296923016666477 0.07289469183145569 
0.1114761890276803 -0.04957224463777904 -0.06326718149336696 
0.3357290893680056 -0.1266397163571782 -0.1759127011414049 
0.07789924325178248 -0.1093556119921218 -0.07323490764917688 
0.08088480483063266 -0.1158231837567718 -0.00179025422997276 
-0.1180788799466829 -0.03147142335843763 0.08475668388254989 
0.2407711599936025 -0.09078179531269349 -0.2341074749811399 
0 -0.02726801019686096 0 
0 -0.02726801019686096 0 
-0.02063488269436233 0.1358476780834781 -0.07660332584527113 
0.00558002799884324 -0.02726801019686096 0.002722809926203718 
-0.0481852613996687 -0.1070144077614316 0.1089125610219672 
-0.05754071687572075 0.04679569328699845 -0.1097144453215056 
-0.3643257997779876 0.5618504232190678 -0.4527757978621576 
0.09055955434210361 -0.01675712834115296 -0.03608838988867842 
-0.03844554185848454 0.01073842907740186 -0.04579004170544228 
0.1853226223002613 -0.04951311219322849 -0.1695139422331374 
-0.02559986004682645 0.1086561787416726 -0.08472159653588991 
0 -0.02726801019686096 0 
0.04002690514366745 -0.02901457777243646 -0.1102870740666725 
0 -0.02726801019686096 0 
0.1995436899548302 -0.1225658140795888 -0.1625306443452124 
0.4265830647410808 -0.3238314103374351 -0.2857593863726505 
0.00413361643802359 -0.1655631406776058 0.2031322513023887 
-0.1304801298653302 -0.1210941624994829 0.1772035602084839 
-0.155731215193781 0.1242563133554605 -0.09766758030002159 
0.3873459692833431 0.02411391973001316 -0.5352755119203642 
0.001078544442065295 0.03699742617352414 -0.1105805486315294 
0.1426015347972227 -0.04876995599290735 -0.0790558873374934 
0.1461119104745715 -0.07085183552193246 0.004509433467116214 
0.02873009173737649 -0.03320678791393692 0.0004467484008863834 
0.1171662028849206 -0.2866295437097707 0.09460789464871645 
0.06166067888316679 -0.1124921667477929 0.0160543626342092 
-0.006390128641166642 -0.04367285470499539 0.02653594926054635 
0 0 0 
-0.15463829794825 -0.0508328542442689 0.09562928893232189 
0.2264550937920374 -0.3696138079968369 -0.1031688888608405 
-0.08794639976983155 -0.05616797911594539 0.02845204345855024 
0.2057070321408643 -0.1540162259889483 -0.03171033407330398 
0.1003815583266642 -0.05947110056430382 -0.08573658795474572 
0.1291626049195787 0.1719049130594322 -0.4885165472693294 
0 0 0 
0.05515772213947772 -0.01697337306657639 -0.01450866171879146 
-0.003515885174028855 -0.03515045402985793 0.023453728168045 
0.01982684410507557 -0.00235730973595683 -0.04950404500168759 
-0.190349291348853 0.1857139929590153 -6.071532165918825e-18 
0.0406674579777621 -0.07933171558061594 0.04025646096830503 
0.04832196511864316 -0.001955463251698104 -0.1357324604578931 
0.08254980556156137 -0.0459028258135623 -0.009808243815270769 
-0.06167219389478737 0.231870608029393 -0.2518019528981549 
-0.04785876362845441 0.06678532045817097 -0.03786472644964121 
0.01929868847268964 -0.1021762734583456 0.1031642559148469 
-0.05000595460802778 -0.01913778565293413 -0.01894859813503581 
0.1390657037572181 -0.06559256969758068 -0.04263274832379257 
-0.002704774656780991 0.04532711077649358 -0.1200364157884451 
-0.1255749109055413 -0.03843952373181012 0.1524536736572628 
-0.08903871116956057 0.05614384984032862 0.07797915003745699 
-0.05926976312718387 0.06821824638767406 0.0008377272645566022 
0.03729432943611381 0.01986328350088861 -0.009808243815270769 
0.2830199343316624 -0.1429105517126085 -0.08149911308828478 
0.06142818142134807 -0.06420098465157824 0.04967708259551243 
-0.03252977049977376 0.1975132288144063 -0.3395293028412947 
0.0318015085732541 -0.03656197528638234 -0.009808243815270769 
-0.03724897564004827 0.1762896554960788 -0.1935643671033587 
-0.05164208182329547 -0.1940451397849335 0.2011882656553592 
0.1226037531866599 -0.04964756646147179 0.01819835800085416 
0.05223839204640562 -0.1162147177069728 0.09188253488613587 
-0.05932291077248717 0.09620237192595464 -0.09335734184285845 
0.08254980556156137 -0.0459028258135623 -0.009808243815270769 
0.08254980556156137 -0.0459028258135623 -0.009808243815270769 
0.1532962279411288 -0.0856234806635128 -0.04953017853595006 
-0.0128607050192626 0.04394973954579141 -0.07708840011496625 
-0.02173715422373973 -0.1040035310674511 0.1413463711722692 
0.1509316824153772 -0.1545942544109475 0.08740197368002688 
0.08254980556156137 -0.0459028258135623 -0.009808243815270769 
0.1297049549109849 -0.08227384089733107 -0.009808243815270769 
-0.08162058229419186 0.02098158941076278 0.1068397481353406 
0.06341172152951575 0.1630079361490104 -0.2177565181423587 
0.08254980556156137 -0.0459028258135623 -0.009808243815270769 
0.03965933028869308 -0.1143600761823475 0.05989695463290896 
0.06843524614143319 0.03569854501189035 -0.1858148152937238 
0.08254980556156137 -0.0459028258135623 -0.009808243815270769 
0.0160637409579002 -0.09519019436028202 -0.001837058879387346 
0.1055898310645245 -0.06441978968774092 -0.08020523768725873 
0.1256248972946007 -0.05808619889733772 -0.0441852682252639 
0.07120130316870762 -0.0142690104403831 -0.01935079567079602 
0.03520948708481291 -0.1109201879761697 0.1113126259612533 
-0.1597173618876276 -0.02656999708035956 0.08110928051039853 
0.003019913814337924 -0.08747708508215268 0.05257697566033135 
0.2334917837193274 -0.2334947046835906 -0.04319766570926487 
-0.003506700078766354 -0.1002720604412072 0.04604563596144296 
0.2671530926322502 0.05707170568892454 -0.5117876696744544 
0.1126864249654664 -0.08200472353361042 -0.02248392829163587 
0.1112937005804506 -0.1750699006778169 0.1194419680946625 
0.2487541271472038 -0.2828547757974583 -0.09490575598338634 
0.1518885309079016 0.04856313874924706 -0.2905538094175439 
0.1173340573846166 -0.09194695145239705 -0.2322125256267965 
-0.05948077945859265 0.3526283593784529 -0.7034610262726427 
0.02296517398105748 -0.04212876874041369 0 
0.01231896178911096 -0.02656999708035956 0 
0.01231896178911096 -0.02656999708035956 0 
0.004249255133409274 -0.005941940641091055 0 
-0.20962556771167 0.1468097843307362 0.05407523098660811 
0.1921586320118546 -0.2560912405385233 0.01098964989699055 
-0.08577544593616863 0.08845421807426174 -0.0009813279613385163 
0.08271952108139818 -0.004857115209429574 -0.07425706185957905 
0.1539442304619615 -0.007186837810948198 -0.1009394815236693 
0.08271952108139817 -0.004857115209429574 -0.07425706185957905 
-0.0701882463201997 -0.1050981663214255 0.09991413432677825 
-0.01372055371711063 -0.04459418253501293 0.02972861607357719 
0.03507631617452637 -0.08640666623758539 0.01891204745725937 
0.141520161019335 -0.009270035209713791 -0.08602150263319967 
-0.008730161650107426 -0.01310507590200941 -0.001059540563412009 
-0.2056505264304707 0.3006162112769427 -0.07570389128323247 
-0.01337969957054675 0.077117394431993 -0.09872224892495818 
0.2208475242747147 -0.08041302289504837 -0.1197533072615713 
-0.1228094998158541 0.09935556675046796 0.01545992341687725 
-0.001762445659712218 -0.00485711520942957 -0.03007041249375455 
0.6649130756370748 -0.3796353478246955 -0.2978302967701358 
-0.4120651391932234 0.2115950058091739 0.2268020628872388 
0.08271952108139817 -0.004857115209429574 -0.07425706185957905 
0.1094601660663153 -0.03421050089539499 -0.05773389272658877 
0.1012103884796457 -0.1684956667325285 0.07419033651216117 
0.04276690875374298 -0.04387185712499245 -0.01635089359350333 
0.149273411427383 -0.04049151364986715 -0.01348618399680587 
-0.09093999775709175 0.09452299315309937 -0.03779571395597106 
0.04066636285799641 -0.05788487120544156 -0.01094870613539565 
-0.0534521510913403 0.08497623476466432 -0.07338667866125158 
0.1452834921826307 -0.1222993382542194 -0.01094870613539565 
-0.1256210016769069 0.1934198840662137 -0.03981974077900124 
0.07592399416178944 0.08780283696409275 -0.1131443239257736 
0.03028833687833937 -0.05541078711686216 0.004702779422594812 
0.1377623962832312 -0.1050536181660948 -0.01094870613539565 
-0.1050306866497597 -0.2102670154564718 0.2086647500240462 
-0.0917748280765024 0.02350111792174286 0.07988364281359359 
0.02813099027841605 -0.2264229090799125 0.1507944309909171 
0.1452834921826307 -0.1222993382542194 -0.01094870613539565 
0.1452834921826307 -0.1222993382542194 -0.01094870613539565 
0.1452834921826307 -0.1222993382542194 -0.01094870613539565 
0.2794405815732524 -0.1420727184418689 -0.07956684025564117 
0.1452834921826307 -0.1222993382542194 -0.01094870613539565 
0.07014652629536249 -0.03047989160275814 -0.1204529415328577 
-0.08700153285520673 0.05974339573596623 0.06667561423378701 
-0.06892274404290134 0.04024741327089747 -0.03761683270257841 
-0.04442307365457595 0.202235138769702 -0.2426098230474192 
0.01649917012288775 0.01220813615387484 -0.04166998446598084 
0.1452834921826307 -0.1222993382542194 -0.01094870613539565 
0.1165317454882595 -0.0575080838764892 -0.08232511004905028 
0.2269077364986918 -0.06375726748466524 -0.2269515476476413 
0.1165317454882595 -0.0575080838764892 -0.08232511004905028 
0.1165317454882595 -0.0575080838764892 -0.08232511004905028 
0.1165317454882595 -0.0575080838764892 -0.08232511004905028 
0.0983415345568804 0.06547685666704106 -0.252420127004935 
-0.0796679580082707 0.09435335075990235 -0.02855865970835508 
0.1137072417520131 -0.1227976250004321 -0.01135563045633755 
0.1820921939057573 -0.1055926308402149 -0.07620375887930886 
0.1165317454882595 -0.0575080838764892 -0.08232511004905028 
-0.04488597395288649 -0.3084491811616251 0.218203423343861 
0.06235618680784093 -0.04887462562168499 0.001967505774101183 
-0.005585091454285688 -0.1864419111602553 0.117853068832809 
-0.02814581163536595 0.09794594269520153 -0.109040963872596 
-0.007174256013443142 0.002012158693204648 -0.07707785089785688 
-0.1599436155299101 0.01189931489388649 0.1705991241846568 
0.1165317454882595 -0.0575080838764892 -0.08232511004905028 
0.03175720965179761 -0.06850697610228182 -0.06732647448422947 
0.00791370816642801 0.1591231466685953 -0.192678139146591 
0.04034230213347813 -0.04293427039446768 0.01740655431445253 
0.1482533071971138 -0.195277657396121 0.04983429027624643 
0.05426835518290715 -0.0828853518562284 -0.001604282981077357 
-0.09281376923056595 -0.04039681577461674 0.1798146763642825 
-0.2176452948741933 -0.1488656953358839 0.2497480084444415 
0.1406723374593275 -0.1632572034125552 -0.02239874959957799 
0.04050534388171821 -0.08369639896721093 0.02981540996920282 
-0.07201499979778463 -0.04381047961925892 0.08113970519332581 
0.4159819788540298 -0.1300858309988567 -0.4000157697490457 
-0.1168211924635802 0.1397815303451785 -0.06732861473529433 
0.08175691680963433 -0.1423485196811169 0.01975886665998997 
0.1276976645595946 -0.03115623359144659 -0.1764640634194282 
-0.04586055600935988 0.04853393228683032 -0.02314106708738395 
-0.02884167587744974 0.03712311330227522 -0.0911727676923694 
0.02934082948576153 -0.09554316545842351 0.1329678159986964 
0.01881516620082038 -0.008982650509231345 -0.0830988084637761 
-0.03059214572823842 0.07126622065891017 -0.1218522427879837 
0.1869824324936161 -0.0416898407892296 -0.1147046850014896 
0.3346583033468959 -0.1362967896408675 -0.2109412710981465 
0.125197443805054 -0.09960098888910726 0 
-0.1859363196870088 0.1438684204277207 -0.04707078521656899 
0.125197443805054 -0.09960098888910726 0 
0.2312348252657378 -0.05544793168417262 -0.1492220585003308 
-0.08641472631228936 0.160101806851032 -0.07568126431576704 
0.1217342550121415 -0.186211828151636 0.02757621917474077 
0.2014050465562347 -0.1299670171516419 -0.08993076131743512 
0.04217514126764119 0.1486979205025215 -0.4051885081613834 
0.08472216694677658 -0.06462406005586063 0.03223210996135284 
0.06023934799695815 -0.009386934137490241 -0.013338855707932 
-0.02820611745425503 -0.03932328046948869 0.02398367931404778 
0.01079598579551625 -0.2758680120330909 0.1728667977575901 
0.125197443805054 -0.09960098888910726 0 
0.2321302568909944 -0.1539552812652664 -0.02664916895906464 
0.125197443805054 -0.09960098888910726 0 
0.07307286806275112 0.09208418704480718 -0.2237724376540789 
-0.06195961051377494 -0.04943142030265561 0.07804635686182233 
0.1157762741472913 0.01344672102855298 -0.07925054629594427 
-0.05017902025015049 0.1003778804533544 -0.08834371011686117 
0.02594071804848531 -0.06516649623082801 -1.734723475976807e-18 
0.1076133930140547 -0.05792480618268511 -0.03745272740780299 
0.006333127768812606 0.004934176138321224 -0.03507872384562132 
0.3808635301271621 -0.390763171680867 0.02687078841305781 
0.05481594250941158 -0.08845214662879992 -0.05130017971214574 
0.24905339213134 -0.4191165998627327 0.03440885549139505 
-0.08711360983209629 0.02042316245905795 -0.007723653075531577 
0.1133580085815994 -0.0813060250268782 -0.09390772386540432 
-0.1915488524147932 0.2444592991854751 -0.1111842365424913 
-0.148997678958993 0.03413049619006706 0.09999757169318362 
0 0 0 
0.2707881701146838 -0.2230845989350011 -0.02869584411830487 
0.05949037095008031 -0.09138019641849296 -0.01936596475012604 
0.1067600142250376 -0.09328845573427715 0.02461456454423503 
0.07316950695678842 0 -0.03526425739405033 
0.2091815948091032 -0.2369542738220404 -0.000780952807152846 
-0.3080197311848097 0.06352674657554865 0.1551373865321219 
0.1889075009227064 -0.09504873213291495 -0.174884917564296 
0.07316950695678842 0 -0.03526425739405033 
0.07316950695678842 0 -0.03526425739405033 
0.01637348052174234 -0.120556364683111 0.05161895138332789 
0.08703690113361025 -0.2297194989339684 0.08514137872372229 
-0.04644311392890446 0.09972887305236253 -0.02673140399110873 
0.1594254541961724 -0.1756286224179989 0.09901382503035594 
0.2548251562160174 -0.1030239784339246 -0.1800746261311973 
-0.08117767536886325 0.0796196811579423 -0.02975396057509928 
0.03778846023694034 -0.08702023703487294 0.04852104790840765 
-0.2417973462668669 0.02636912652388948 0.1390865973084046 
0.07316950695678842 0 -0.03526425739405033 
0.05904587443520484 0 -0.03526425739405033 
-0.03133564675464235 -0.02526586564019637 -0.0009164373964303343 
0.240390868929781 -0.04163703287194363 -0.3554126213694918 
0.06766319470873662 -0.0100649430888811 -0.02273694115736779 
0.07316950695678842 0 -0.03526425739405033 
-0.1167248935097576 0.1038775568456616 -0.01249129627978782 
0.00890337371160424 0.1381599627497355 -0.06044726940179094 
0.07316950695678842 0 -0.03526425739405033 
-0.1021398968655689 0.343215416850591 -0.2329033335015197 
0.2197380124827646 -0.06434911125157612 -0.03742264387192863 
-0.08830403505838187 -0.3589394110431576 0.2915908383002193 
0.07316950695678842 0 -0.03526425739405033 
0.03498179488853678 0.08488820452950331 -0.1296353604770158 
-0.04713576545414403 -0.01716773760042732 0.004698896630021676 
-0.08989669776142264 0.03778947245539533 -0.009950203144842329 
0.02311776218576291 0.01291184454480918 -0.01603211292725477 
0.01190359572221987 -0.0009565220339779988 0 
0.001358792283454545 -0.000830027855362929 -0.02512931156579367 
-0.1125510633520933 0.01168572154101118 0.03106215449020559 
0.06785900628917926 0.1602362122753544 -0.3091626126843435 
0.03492096609933225 0.07560924522922707 -0.226942300540019 
0.06947964839227386 -0.05379080835369085 -0.05713836508593174 
0.03933457789727021 -0.05405526418714659 0 
0.03933457789727021 -0.05405526418714659 0 
-0.05350260499839033 -0.03727893452430395 0 
0.007693503729886187 -0.01293031114072414 0.04850935428331997 
0.1565261943648694 0.06101284443622543 -0.3508586298343173 
-0.02623312061357872 -0.09114609836300477 0.1275715900240506 
-0.04047823717989139 0.1443114754550334 -0.09263124770751852 
0.006504416613487481 0.1242544709864283 -0.1394235851816594 
0.243478758698128 -0.2041809686836384 -0.08102098911073367 
0.2279157323380081 0.0260100027232257 -0.3247474423746182 
0.003373880288574431 -0.1778508741079365 0.1200356625427723 
0.1605705204622712 -0.3269888037732603 0.07479149003749294 
0.3011810100407125 -0.1036724246136649 -0.1910344323827069 
-0.02125572426076228 -0.02632694597553662 0.03693562096801029 
-0.09073821491263598 0.01383414118900976 0.05328834738674468 
0.03608782377632887 0 -0.04005362520480923 
0.03608782377632887 0 -0.04005362520480923 
0.03608782377632887 0 -0.04005362520480923 
-0.004100456921772749 0.05673609844030042 -0.06720363821600012 
0.03608782377632887 0 -0.06792418212814616 
0.009124949747237585 0 -0.0248002552494167 
0.1501878971370653 -0.07302033547594713 -0.006292260750633754 
0.01663695351078854 -0.06137791818966767 0.05412411815248151 
0.007253512210253602 -0.03606995466392209 0.006365723960608417 
0.0733327450155348 -0.1427622703447072 -0.009834103133067054 
0.2221431301230036 -0.2458051743932456 -0.02120680257993384 
0.05041884744810099 -0.110317267471439 -0.0181596739730277 
0.03608782377632887 0 -0.04005362520480923 
0.06123945028588652 -0.001585594883170612 -0.2147273303672642 
0.009168959322385688 -0.1447344709183201 0.02610458300494196 
0.03608782377632887 0 -0.04005362520480923 
0.2297486293073333 -0.1763273541310851 -0.05939355737481643 
0.09131491172011616 -0.04837256612438463 -0.05833736579345335 
0.03608782377632887 0 -0.04005362520480923 
-0.06560782043638216 -0.3278782928426529 0.1800872274902734 
0.1084105851979318 -0.02665747977304658 -0.0632579510131598 
0.02220334126923752 -0.03553345368137725 -0.01937526628224787 
0.02220334126923752 -0.03553345368137725 -0.01937526628224787 
0.1263345277098629 -0.1453218309291612 -0.01765912241762724 
0.0766551003358551 -0.2638567840116594 0.1684702227234451 
0.05559735822940431 -0.009147330230670698 -0.06185020271260681 
-0.0552689360071829 0.1582537106012897 -0.09804285434954829 
0.02220334126923752 -0.03553345368137725 -0.01937526628224787 
0.08576280203163988 -0.1401109188077222 0.0009680727615304415 
-0.006132751452146125 -0.03553345368137725 -0.003033129316086503 
0.211971897158125 -0.1267469693178916 -0.04203311893482064 
0.01356303289307199 0.1156221916981843 -0.2353071291334231 
-0.08779159681967433 0.103054573065596 -0.04693555423673146 
0.1418434634029273 -0.1031052288451562 -0.04909741249871242 
0.3060614487841952 -0.1118342517672338 -0.04616600169775956 
0.1126025370370643 -0.07317976889029072 -0.06867020362764199 
0.1958997424556004 -0.361260392463945 0.145633730077971 
0.03852790841419578 0 -0.0452020534230827 
0.1181269855133884 -0.02647895577857769 -0.1276336042907936 
0.1071467687261511 0.05138297706621311 -0.2659626822043676 
0.002654744276542964 -0.06883671224971084 -0.01979793706939037 
-0.1356561922436997 0.1302163833594012 -0.0452020534230827 
0.03852790841419578 0 -0.0452020534230827 
0.003422502902693581 0.01696189674250851 -0.05954605870280986 
-0.1012710672582914 0.04952450660706505 -0.01079432472616545 
0.07979738286745092 -0.05809642107902428 0.01826126585192182 
0.1151207623711733 -0.151354774523707 0.04643669451986312 
-0.07278108834385949 -0.07150662417241596 0.2180107370496742 
-0.07274096623750753 0.01105261289729284 0.04110038021026748 
0.02900747083808136 0 -0.02144275184238872 
0.3958009891885575 -0.2380640189833139 -0.08158652272417485 
-0.03617398273481638 -0.02129977384525367 0.0575630464298094 
0.03251413261682447 -0.09401169115318452 -0.0452020534230827 
0.1190971396459247 -0.1183378444596978 -0.02704835726872885 
0.226154787868579 -0.3527919247930149 0.08706857969069115 
0.03852790841419578 0 -0.0452020534230827 
0.05477434651915285 -0.1403721060149999 0.07027872343590888 
-0.2067761523393621 -0.05894191175034718 0.1348895769875621 
-0.08889587383360834 -0.06844015223030736 0.1048748243966611 
-0.1595797077344627 0.01707813863332965 0.116997694201025 
0.07489308749266332 -0.02545781860368777 -0.06406559367244265 
-0.1456573063485972 0.1052642815660821 0.07775675609869925 
-0.02771443775908994 -0.07543587303355243 0.0362437539425429 
0.1556794311164122 -0.04611832380796599 -0.08312689657211528 
0.102614684515399 0.03814557694488424 -0.1348636788130509 
0.1432799047273423 0.02490724298520301 -0.1783906380027468 
0.1206262782565441 -0.03929401487583303 -0.05300938186150728 
0.1477812285202428 -0.06531740920852794 -0.135959017913021 
0.1782518385206616 -0.046118323807966 -0.1324456478420288 
-0.07415684732859959 -0.1439344831878732 0.1280558044372348 
0.1556756137561748 -0.04618360334857877 -0.1347333145577995 
0.228963553373199 -0.1236204620494911 -0.09466354081272974 
-0.274260479204186 -0.1040123737192436 0.3434919015937102 
0.006551990102536971 -0.03841699852080749 0.0197231109445601 
-0.1434582154190683 0.1951921856613009 -0.1184483071099616 
0.1283282975256081 -0.04611832380796599 -0.05300938186150728 
0.08822322256357214 -0.06365273433926816 -0.02774777403362906 
0.1608591805183777 -0.04611832380796599 -0.1201371168223175 
0.1283282975256081 -0.04611832380796599 -0.05300938186150728 
-0.0306340353763226 -0.1407136272010412 0.1286846462226514 
0.02063331420029853 -0.06863948387180843 0 
0.1211046989557946 -0.08901087212276643 -0.07610091501616453 
0.04350246666386141 -0.07611673925317931 -0.009813346072181546 
0.02394368602095579 -0.2086979518413665 0.1446971310555419 
0.2281617705116676 -0.1813400072042205 -0.1117099253006268 
0.1108445348774729 -0.06863948387180845 -0.1188005742300707 
0.08361049288048072 -0.1333807696578977 -0.03425205939405372 
0.02063331420029853 -0.06863948387180843 0 
0.09066857408186751 0.1787430899541413 -0.3782853371583318 
0.0908034348920877 -0.08016582957307497 -0.05263703173542141 
0.02539460007920381 0.09517456588143126 -0.2467474916117569 
0.02063331420029853 -0.06863948387180843 0 
-0.08223376720721132 0.07121031586913204 -0.03104219823763841 
0.02063331420029853 -0.06863948387180843 0 
0.02063331420029853 -0.06863948387180843 0 
0.02063331420029853 -0.06863948387180843 0 
0.08331021495804079 -0.04198385008995168 -0.02162108577686534 
0.1133850006454999 -0.05400104304486252 -0.008490054644475175 
0.08331021495804079 -0.04198385008995168 -0.02162108577686534 
-0.006215509053640298 -0.04274371563073604 0.1203660013972836 
-0.05252174800554096 -0.02645504783463604 -0.0469977198975063 
0.08331021495804079 -0.04198385008995168 -0.02162108577686534 
0.08331021495804079 -0.04198385008995168 -0.02162108577686534 
-0.1215407012342344 0.2622622756348527 -0.235988088508966 
-0.06589103974653022 -0.1617313627059794 0.1946625367941485 
0.1501214729237466 -0.03981260878206729 -0.1211326467571147 
0.03350453749360027 0.05162802162268669 -0.07778349702179413 
0.08575053507838402 -0.02247386555967678 -0.1811578881949379 
0.002296888206212132 0.06707876087777224 -0.108363622825197 
0.08331021495804079 -0.04198385008995168 -0.02162108577686534 
0.08331021495804079 -0.04198385008995168 -0.02162108577686534 
0.08331021495804079 -0.04198385008995168 -0.02162108577686534 
0.03825319775257323 0.006634175089423055 -0.2019322862071237 
0.05315648388849853 -0.2380857668925411 0.00783178350798195 
-0.06976772779573967 0.1186823095319657 -0.1201551236553818 
-0.06734518748283447 -0.09413799569706523 0.07812029271794409 
0.0344497162819532 -0.09413799569706523 0.03294126065041397 
0 0 0 
0.1348115157489082 0.1385966536267389 -0.2876083972768045 
-0.1268087113839998 0.07437483904213152 0.005561088271857658 
0.161243122435329 -0.1477181337831088 -0.08021913628445169 
-0.01050835211521867 0.1639175461830717 -0.1856474735434336 
0.1018781467975499 -0.02255272727716805 -0.07100786998665468 
0.01707339301322621 -0.3466741229264862 0.2089902541141127 
0 0 0 
-0.02106752128746486 -0.0106912740230066 0.04826444804598019 
0 0 0 
0.1843682351041654 -0.14259685279162 -0.1051772509197114 
0.5957135506873686 -0.3063410300922077 -0.4118209238324596 
0.1714345970753902 -0.03392748659354803 -0.09067584849245934 
0.1262257850122449 -0.04067026607138846 -0.07383605828178344 
0 0 0 
-0.04097463894179851 0.05042720413517036 -0.08748062303916142 
0.08413643168553885 -0.02657071644195822 -0.02151480452660766 
0.08408754951319572 0.0531242302309344 -0.1538440574631675 
0.2357777060885823 -0.1293470298957964 -0.03629315642586323 
-0.05248390094538938 -0.1104449928222557 0.160892009041765 
0.1524057822854999 -0.07359463605923736 -0.06712694713471082 
0.04814233689987164 -0.101694266135266 0.01270882260887131 
0.08413643168553885 -0.02657071644195822 -0.02151480452660766 
0.1688111179126809 -0.02657071644195822 -0.07132882681128933 
-0.03286712449371101 0.04949696747509452 -0.01110179074114231 
0.08413643168553885 -0.02657071644195822 -0.02151480452660766 
0.2174936604382185 -0.2221999088205289 -0.07254174455783276 
-0.2362110838536721 -0.1102997029126545 0.2756201426143743 
0.2438389303798701 -0.1927080244617728 -0.1277144514389252 
-0.07420848473150847 -0.1102856916269085 0.1662363183384471 
0.0568759069692242 0.04815144992195845 -0.1010681392953192 
-0.0132347768316179 -0.0622182434328289 0.09414300464389791 
0.08413643168553885 -0.02657071644195822 -0.02151480452660766 
0.0218604857676336 0.04501892161336733 -0.01125104550736728 
0.08413643168553885 -0.02657071644195822 -0.02151480452660766 
0.08413643168553885 -0.02657071644195822 -0.02151480452660766 
0.2051743111673855 -0.4473286099474605 0.1163995407960454 
-0.009958511371600101 -0.01447545541193547 0.07875125767265623 
0.293611333244835 -0.08604217524904692 -0.1857563906021133 
0.02267736236065953 0 -0.04782640749442323 
0.0949737535192708 0 -0.07362907961052817 
0.0949737535192708 0 -0.07362907961052817 
-0.2732577729008359 0.06506182494394962 0.01241993188243841 
-0.0007392677093222312 0.03409087907201811 -0.07362907961052817 
-0.2691792151972163 -0.0382628622259909 0.2552262371850256 
0.0949737535192708 0 -0.07362907961052817 
0.230227755509465 -0.03260582274520496 -0.1911381237128495 
0.1089397394642534 -0.03074992975925591 -0.09045539775452058 
0.2162327719583527 -0.3825467950170687 0.07878884315180963 
-0.1789821073566014 0 0.09146915607574031 
0.0949737535192708 0 -0.07362907961052817 
0.05589644169423498 0 -0.001618426037915122 
0.00884995392692331 -0.01765083028352753 -0.004578238554026129 
0.1632517695833224 -0.0822833660066343 -0.1582992642252194 
0.2035555745424363 -0.1121843121860722 -0.07343436593326395 
0.0949737535192708 0 -0.07362907961052817 
0.0983593151305218 -0.05330450991884758 0 
0.0983593151305218 -0.05330450991884758 0 
0.1459899774447128 -0.08704912589279479 -0.02176088808796447 
0.0983593151305218 -0.05330450991884758 0 
0.0983593151305218 -0.05330450991884758 0 
0.0983593151305218 -0.05330450991884758 0 
-0.0402295558470975 -0.07667268955460421 0.05297274637970805 
-0.1960004633222612 0.09116074363308728 -0.01429536077403521 
0.1364812785382911 -0.1003289444949304 -0.02610590444759462 
0.2022424334493772 -0.06739331519982472 -0.09550320604421586 
-0.01360864957290057 -0.1470936954022338 0.07367717706041892 
0.1053552348240131 -0.1126998355545017 -0.02821945952480303 
0.2000229292985816 -0.05629244114442482 -0.1696323678308054 
-0.02833956930746796 0.06005186154160385 0.05745651518028753 
0.0983593151305218 -0.05330450991884758 0 
0.0983593151305218 -0.05330450991884758 0 
0.0983593151305218 -0.05330450991884758 0 
0.017863842328306 0.06156241372070394 -0.04106005773475554 
0.1970396750031101 -0.1374928894587125 -0.0197221224463844 
-0.02060800048516488 0.1030360150568917 -0.07121294619745211 
0.1694807636329936 -0.0922770902908527 -0.1241048394531693 
0.02446819067315142 0 -0.06761068616092628 
0.02446819067315142 0 -0.06761068616092628 
-0.05042122614014377 0.007713955315556855 0.02354487941056652 
0.1606240229785822 -0.3818215901281868 0.1042969443029552 
0.02446819067315142 0 -0.06761068616092628 
0.02446819067315142 0 -0.06761068616092628 
0.2648429281311165 -0.2310354481479442 -0.02716825258759647 
0.1407407094214898 -0.0365498066813279 -0.1150627862064925 
0.02446819067315142 0 -0.06761068616092628 
0.02446819067315142 0 -0.06761068616092628 
-0.05693331433679578 -0.01756920310595782 0.02513679950861729 
0.2250920848231473 -0.2518069200160313 -0.08969132922653919 
-0.06890468125558055 0.100388105777793 -0.08209101863914177 
0.02446819067315142 0 -0.06761068616092628 
-0.05413570650550588 0.06280721282826192 -0.01755016058961833 
0.1440637040778648 -0.1265558711022931 0.004896216440837433 
0.03230141908620519 0.078963592366775 -0.2045014305449655 
-0.09714217258547821 0.1123379389186014 -0.02287179969788354 
0.04259310249146733 -0.003945312897447339 -0.07109969036720558 
0.112543786259279 -0.09634384243514228 0 
0.112543786259279 -0.09634384243514228 0 
0.112543786259279 -0.09634384243514228 0 
0.01107956576155473 -0.04237911312744832 0.09998823316251773 
0.09673747893592857 -0.05211499214331076 -0.1383022683245491 
-0.1660983828111813 -0.1316716370235231 0.2917930403895593 
0.09801378013505777 0.04586545720283688 -0.3210079408199635 
-0.001619345048450471 0.1405716584443939 -0.1284882714445958 
0.112543786259279 -0.09634384243514228 0 
0.01823596825790135 -0.2199469067487678 0.1410739077519701 
0.0692154012902701 0.1384221172565119 -0.3140369580694562 
0.1725259861738518 0.1593518295802805 -0.5731174226244913 
-0.0674486646929314 -0.05123256910453022 0.07633256294042524 
0.07777074489035059 -0.05027706627316623 -0.01449454369844063 
0.006465848066587999 0.004299968947083049 -0.008578596863265359 
0.2431713757206133 -0.07959247582421079 -0.08338919178174234 
-0.1022054121270727 -0.0109026051589831 0.07956330401707667 
0.03223321750904324 -0.1210090585229871 0.1167900171824291 
0.1173517984850736 -0.144765860307095 0.0195245630015244 
-0.04338891098502172 -0.09335709759590674 0.06837658225713225 
0.02157958039008771 -0.01052138326594535 -0.05981342964347616 
0.2243925170012345 -0.1233897555026992 -0.0914204772882469 
0.1872420066764199 -0.04171223704776312 -0.08748596767318603 
0.05920576819134968 -0.02958834290466523 -0.1414151969547461 
-0.007140858049481861 -0.0008569139079316337 -0.03012501914146512 
0.1001895466796805 0 -0.09507437639951234 
-0.01950877196961067 -0.04894782498940978 0.0304969618083025 
-0.03461574533130505 0.1374921785077027 -0.1044630532406384 
0.001896541236918364 -0.03461404892222202 0.05324080150598262 
0.09083463937150781 -0.03758558300745731 -0.03004211704307043 
0.06407857485397447 0 -0.04961318399624645 
0.1001895466796805 0 -0.09507437639951234 
0.04928290700293191 -0.1708298354634146 0.09061223066165813 
0.2338640397199366 -0.3031199258814987 0.06284910291673645 
-0.03181388804406719 0.2095209233515688 -0.3532542051761235 
-0.06621737722813641 0.03590629248974008 -0.04103663319017946 
0.3481131864724513 -0.2093796955756613 -0.08120513302524025 
0.03046818285900041 -0.05069617682411199 -0.04514444385172514 
-0.006218271626357548 0.04654188386133417 0.01855897142198056 
0.06665557845327075 -0.1355192901229355 0.06695123710366092 
0.2457671161628395 -0.1673653023180062 -0.03333276944220239 
0.103564587668325 -0.1129573681712041 0.0518849042837588 
0.2457671161628395 -0.1673653023180062 -0.03333276944220239 
0.1331443078803861 -0.3414802924659044 0.0644574280555528 
0.2457671161628395 -0.1673653023180062 -0.03333276944220239 
0.01087392642936736 0.07757447858347741 -0.1176221174575798 
-0.07627934315292724 0.08619030243472389 0.01442528842071708 
-0.1550204254998145 -0.03200786182491241 0.1363227480131741 
0.2532548331692742 -0.1986745216771348 -0.0550426171181176 
0.07883276169140462 -0.05891908556684907 -0.01119792948204612 
0.06460244896849907 -0.02348575496280256 -0.0126105930015595 
-0.03079150220884231 0.03190010811010694 0.009458741849538637 
-0.1165489945646838 0.0218419367049919 0.1015263163358647 
0.1073038939393994 0.08970718046930415 -0.1543911488923282 
-0.05481335415902003 -0.08194899842743847 0.1117436152466484 
0.07883276169140462 -0.05891908556684907 -0.01119792948204612 
0.1425430928629621 -0.1728866592367799 0.07021941258099779 
0.2142632306776065 -0.06966509581283582 -0.1813637814214689 
0.07883276169140462 -0.05891908556684907 -0.01119792948204612 
0.07883276169140462 -0.05891908556684907 -0.01119792948204612 
0.1595842720612831 -0.09491599801586725 -0.07789084317955619 
0.0158797880211996 0.02241607276842644 -0.06951975044051026 
-0.344948837313818 0.5184066917683636 -0.3795985555864919 
-0.05906264746573325 0.08726760718232282 -0.03706071731030065 
0.4078639538691269 -0.3035826480135562 -0.09667523345432008 
0.123060643482894 -0.1084777470505782 -0.02396159484818155 
0.133494191941736 -0.02903749696048775 -0.1207829151374421 
0.134277281167649 -0.1002770199617955 -0.05324411702389904 
0.3204438834537029 -0.3884573426142849 -0.02130335978580385 
-0.07670224204058579 0.03626462138158452 0.01748951187196257 
0.12180795880315 -0.1859091700456067 0.06073340512286642 
0.2427793573064119 -0.1415947974041445 -0.121129017598833 
0.1960252723314034 -0.1948918364070062 -0.01462442582877685 
0.01942025756159919 -0.02904438301959156 0.02742860395218436 
0.05694548038357929 -0.07803723127345877 0 
-0.1288052648576865 0.198686581977435 0.008745057183781759 
0.1430141711229476 -0.04884802857848961 -0.06841458934581167 
-0.09331377116157348 -0.006871000124711801 0.0100576109312548 
0.03370031414593376 -0.1312556142196671 0.1266913110015607 
0.07909830191609153 0.01974690418422901 -0.07051899193598513 
0.1113691039122408 -0.06323960677395285 0.007107447622642313 
0.08556599652456354 0 -0.07051899193598513 
0.08308669346786439 0.02117780832966154 -0.07565589982431278 
-0.07905288112359683 0.188771410688093 -0.1434577848979802 
0.06972671173130213 0.009165262314300747 -0.07051899193598513 
0.2596414485961128 -0.09219090653960393 -0.2271219291079022 
0.05694719352095515 -0.02549251685543565 -0.07051899193598513 
0.08556599652456354 0 -0.07051899193598513 
-0.1479882404073695 0.1751229235454137 -0.001423191944053383 
-0.008425065747427803 -0.03179700703999026 0.03618356064775703 
0.08556599652456354 0 -0.07051899193598513 
0.1337944308189718 0.04767130651414821 -0.1648527512420405 
0.08556599652456354 0 -0.07051899193598513 
-0.01598290319576973 0.002456770339563548 0.02032124346581376 
-0.1201119587766039 0.09204533549131722 -0.03300926285592612 
0.06856978752096662 0 -0.02149905777114876 
0.08556599652456354 -0.02720139147235438 -0.04338715432080146 
0.1892189797479732 -0.1564946322754004 -0.04722401921789503 
0.1507332525166301 -0.1012349697886577 -0.1442215613455661 
-0.09999025938705711 0.1315225707789815 -0.07387308972521189 
0.02656141043237501 0 -0.01078144966182902 
0.03574412664483289 0.0009121147079324326 -0.03299342768831322 
0.03659044076487904 -0.001724869975231933 -0.1964846096092983 
-0.1401884446015167 0.1719685229431285 -0.01281376886040513 
0.2682276774104492 -0.1126341148267087 -0.1962807769702233 
0.3416406069775852 -0.2479849859283503 -0.03568213874954801 
0.02656141043237501 0 -0.01078144966182902 
0.02656141043237501 0 -0.01078144966182902 
-0.1111758638116688 0.1673364229874333 -0.1274355060433403 
0.02656141043237501 0 -0.01078144966182902 
-0.1041484674708557 -0.0535247438281525 0.1644505874530154 
0.02656141043237501 0 -0.01078144966182902 
0.05917730409378062 -0.1310571251698371 0.03204014981987509 
0.02656141043237501 0 -0.01078144966182902 
-0.01121820129306939 0.01387050124014876 0.01952386719552235 
0.1500260384035411 -0.2831380152690846 0.04509451420561201 
-0.02658481619253338 -0.06162090510361486 0.06380349189205939 
-0.1333657950872404 0.1488587332216918 -0.08357974486152088 
-0.02398614929740326 0.07708920383189533 -0.08166783947122783 
0.07075827430667046 -0.06162090510361486 0 
0.07075827430667046 -0.06162090510361486 0 
0.05148059281505978 0.03801333388327315 -0.02799314646098177 
-0.1132817131787087 0.1072590396705078 -0.05626199073128269 
-0.04385536186858449 0.009342568497467093 0.05645764607162804 
0.07075827430667046 -0.06162090510361486 0 
0.02196959870438743 -0.01214969637497084 -0.05440482933145558 
0.05925848423943433 -0.03449549170742176 -0.09536987206164294 
0.2475390160248515 -0.2236445816969544 -0.07221086861737937 
0.1109207719390254 -0.1360601635134644 -0.02010043238042653 
0.05423949110738888 -0.08970902531802176 4.336808689942018e-19 
0.07075827430667046 -0.06162090510361486 0 
0.1248476977029078 -0.06208034094018729 -0.06102208877071923 
0.03878887070176861 -0.06162090510361487 0.08085947807081528 
0.07447913968015302 0.01506157028568256 -0.1144273473735594 
0.0428942271545216 -0.1546994803988425 -0.02328796285964337 
0.07075827430667046 -0.06162090510361486 0 
0.1402931495439739 -0.02242458744899589 -0.0836425646785819 
0.07067796907739332 -0.02974196687416102 0.01785075815011518 
0.02835438934627354 0 -0.0095756619302939 
0.02835438934627354 0 -0.0095756619302939 
0.02835438934627354 0 -0.0095756619302939 
0.2310501692347942 -0.3393694030913589 0.07914119885065271 
-0.08482581450351004 -0.114421899015277 0.2048317235774313 
0.02835438934627354 0 -0.0095756619302939 
0.05535916785449434 -0.01952136347355735 -0.09224772631526237 
-0.1469689910174342 0.1973846840266278 -0.1045577842069921 
0.0935327208461748 -0.06593217882095814 -0.0095756619302939 
0.03071770930470127 -0.08297437538909148 -0.0007805595545908265 
0.4590596765981268 -0.4139298602728702 -0.2022073232080774 
0.02835438934627354 0 -0.0095756619302939 
0.06149495139089322 -0.1097399983798426 -0.03451724482812737 
0.02835438934627355 0 -0.04645695206840812 
0.09819385305098845 -0.0512470032792357 -0.05735717371442952 
-0.3104777680024812 0.07058023690519732 0.136952430853579 
-0.1335342510796339 -0.0330213985405977 0.06679731760703901 
-0.01299303361370651 -0.03248096760969797 0.03369975896176957 
0.213754495726108 -0.02547454375379062 -0.2178647211300062 
0.1674105361104317 -0.07988531740376648 -0.1589074470584415 
0.08378063990183114 -0.05721245176805205 -0.05415147089248969 
0.02289258916479768 -0.02479265289513468 0 
-0.1773838436390723 0.1608011947521027 0.0706719190728349 
0.2781097600428045 -0.2286641324624047 0.005111044332473048 
-0.09003825391612562 0.1094400046351035 -0.04016193386874461 
0.185578996108149 -0.06875366558834443 -0.1195003893845643 
-0.09630993095318054 0.05230755062401101 -0.01908102663669221 
0.006191056567411521 -0.1408575762592709 0.1107971989015129 
0.05313663997756467 -0.01975702105016675 -0.1293128509757163 
0.01949833400990305 -0.1098009982616766 0.09137999980950352 
-0.01172198429644085 -0.02588122957555624 0.04877314833254622 
0.02289258916479768 -0.02479265289513468 0 
0.03005138996806338 -0.01876486052448504 -0.07504636784861898 
-0.05514011563995158 -0.09463717745469137 0.1620729580965757 
0.02289258916479768 -0.02479265289513468 0 
0.193182330160574 -0.2248009810054365 0.002089011898752529 
-0.03650878093085687 0.08123277342707069 -0.05280389747153802 
0.1119502385021873 -0.1025075676426172 0.04177094937291823 
0.01252682977434608 -0.04786737690038578 0.03518742951800061 
-0.03429726267003554 0.007647506897422524 0 
0.02289258916479768 -0.02479265289513468 0 
0.02289258916479768 -0.02479265289513468 0 
0.217413941352714 -0.1137910456769491 -0.07221020031246471 
-0.1696123482746749 0.00630347579679728 0.07847912344588141 
0.02289258916479768 -0.02479265289513468 0 
-0.02127863021989861 -0.0944827864612293 0.1371193384113882 
0.1624820770901932 -0.213234016404483 -0.02238997926078051 
0.107853686635181 -0.08394323534271358 0 
0.1294718420083547 0.03885323148260499 -0.1970835846226708 
-0.06969637015145286 -0.05586844341087725 0.05898756715132596 
0.04018342919390277 0 0 
-0.009473850048528989 -0.01527483111345467 0.03099096996915345 
0.1472473903703535 0 -0.07768834632102421 
0.04018342919390277 0 -1.301042606982605e-18 
0.0107325556756937 -0.05945761994026861 0.007783740457672893 
0.2420168890131087 0.05394106161594464 -0.2816079954719746 
0.1507807551736489 -0.05313092978737918 -0.1173006716581484 
-0.02241094496014413 0.097266296801546 -0.1082375507604416 
0.00740258848859879 0.1543968078106066 -0.1952657523455453 
0.04018342919390277 0 0 
0.04018342919390277 0 0 
0.02397703838955112 0.02580511059539878 -0.02539665564317455 
0.1079263421834093 -0.07053721968876138 -0.09118491880317497 
0.2067225894198139 0.07962152357989782 -0.3809983768359679 
-0.1127328466011643 0.002052462783878395 0.1199558186092561 
0.1053082112303054 -0.03017705122531118 -0.1155547255145333 
-0.04386795062426421 -0.1691802202611123 0.09646985034293995 
0.04018342919390277 0 0 
-0.07333001684561063 0.04448395677086776 0.06507389534709124 
0.04018342919390277 0 0 
0.1564319815398417 -0.1454213981516884 -0.08699934784705163 
0.0117879088873404 0.03224331023353682 -0.02615998159201549 
0.05887053043414401 -0.05298272817863304 -0.01096427695928694 
0.05799334729951729 0.09603244731165694 -0.0821179204823808 
0.08887238917866905 -0.0930438725013884 -0.02200948097907935 
-0.03024705806141864 0.08885412748441793 -0.06957288536204156 
-0.03210678592969152 0.05783434274423538 -0.09761666644139648 
0.05114557578103343 -0.04770907690770594 0.0740625809645323 
0.05887053043414401 -0.05298272817863304 -0.01096427695928694 
0.05887053043414401 -0.05298272817863304 -0.01096427695928694 
0.04785890313113495 -0.1251906435714069 0.04275407698730795 
0.1205505768874078 -0.05661345231848568 -0.02397004708541218 
0.05887053043414401 -0.05298272817863304 -0.01096427695928694 
0.01581952393324872 -0.002573077573544363 -0.007713526665444137 
0.01581952393324872 -0.002573077573544363 -0.007713526665444137 
0.1526524302103336 -0.09184682201429877 -0.02604599998378427 
0.01581952393324872 -0.002573077573544363 -0.007713526665444137 
0.01581952393324872 -0.002573077573544363 -0.007713526665444137 
0.07419395954891637 -0.02969512221133083 -0.007713526665444137 
0.01252155354870082 -0.001851665945449095 -0.01129152436002286 
0.01581952393324872 -0.002573077573544363 -0.007713526665444137 
0.01581952393324872 -0.002573077573544363 -0.007713526665444137 
0.1611045940689516 -0.05216133509649613 -0.01560396436795044 
0.1028025942503663 -0.07523062216857124 -0.03203641596612845 
0.2155409869997859 -0.1610364208278997 -0.07926410681873948 
0.01581952393324872 -0.002573077573544363 -0.007713526665444137 
0.2532670590833586 -0.1645948443320118 -0.125274168193868 
0.01581952393324872 -0.002573077573544363 -0.007713526665444137 
-0.08137787797666605 0.04895569547034748 0.0270082884689852 
0.01581952393324872 -0.002573077573544363 -0.007713526665444137 
-0.1501700202334729 -0.02596710426990546 0.1098275294100856 
0.01581952393324872 -0.002573077573544363 -0.007713526665444137 
0.01581952393324872 -0.002573077573544363 -0.007713526665444137 
0.03927702255037773 -0.03207245200911849 -0.06217734114404601 
-0.05699980017311071 0.02496960105764862 0.01165958461776301 
0.01581952393324872 -0.002573077573544363 -0.007713526665444137 
-0.001101398603996169 0.1610312989447535 -0.1329661902676511 
0.3471532652523447 -0.1143783987313441 -0.1069603020855334 
0.01581952393324872 -0.002573077573544363 -0.007713526665444137 
-0.0473845694676848 -0.003335902557116202 0.07983833855711152 
0.003386276596644804 0.1634209245192852 -0.1371223744377595 
-0.0002194642875506378 0.05758494089142355 -0.09576712546749436 
0.06076816104306833 -0.1160386205158811 0.08866973663869673 
0.1050885504919584 0.00302655163690901 -0.09339925307332976 
-0.08871555776922382 0.01813312222569194 0.05658317076528573 
0.01581952393324872 -0.002573077573544363 -0.007713526665444137 
-0.05894778773393458 -0.03457155043673399 0.07209083277165314 
0.03078379092437639 0.1619415361899768 -0.1961697203549872 
-0.0785425067167911 -0.1502584400306451 0.2471920867573409 
0.03901136363012973 0.1326385786547493 -0.230569095604817 
-0.1482217932635769 0.03608646511317617 0.1592317227542548 
0.0271210992808638 -0.2797942256303907 0.1931814006045891 
0.1833210867083381 -0.1329745613333301 0.003725748531616578 
0.05642380193805414 0.01543324933748904 -0.05425390717332403 
0.1450746903704592 -0.04509987652651044 -0.02988714288047288 
0.3847045522071382 0.01632289051870129 -0.4468246509445532 
-0.1049968882704678 -0.09619633048871808 0.05843036704948916 
0.1450746903704592 -0.04509987652651044 -0.02988714288047288 
-0.05416566891396626 0.1209764806543733 -0.1949195627713723 
0.1764850677264837 -0.06225605177311241 -0.03737531154500921 
-0.1455271268031732 0.09143108007631587 0.06160530092798108 
0.09517233704110582 -0.03427114534323047 -0.002946466312746672 
0.01804250372157221 -0.07531942148070961 0.06290175694487028 
0.2941463818020374 -0.1984701780790964 -0.1262556088594527 
0.1477359071966511 -0.03427114534323047 -0.05055231004434666 
0.09517233704110582 -0.03427114534323047 -0.002946466312746672 
0.1536575095709992 -0.0223449349663871 -0.09527764037084169 
0.0188110121142526 -0.0687668647043562 0.0831611899327188 
0.09517233704110582 -0.03427114534323047 -0.002946466312746672 
0.07227548410159029 -0.1421405316432582 0.1022199025304388 
0.09517233704110582 -0.03427114534323047 -0.002946466312746672 
0.05913517465846346 -0.1352862009964541 -6.938893903907228e-18 
-0.01587428465567981 0.01062123705197424 -0.1016297173795863 
0.09620277044133613 -0.1378104031582073 0.004766990474732152 
0.02816296305375377 -0.08984464668971576 0 
0.02312617428445036 -0.01868194164137955 -0.09563304836079786 
-0.0693391015203694 -0.04466559332595661 0.1183377549796125 
0.08768394458441979 -0.004385553981790962 -0.1750848601868905 
-0.01260029554345102 -0.009691224320374947 -0.02779011475723538 
-0.1827792773506423 0.1254620511347977 0.02077724148507385 
0.3924251229107169 -0.3780924905815409 -0.1072253909167986 
-0.001846593732245019 0.1719204546428785 -0.2213618413095956 
-0.1510301839418469 -0.03877642017643744 0.02127983402873912 
0.247078677781609 -0.1814408854883715 -0.04024888307758835 
0.09737604289750297 -0.08984464668971576 -0.03543989203038347 
0.07402441333820577 -0.0442878514422728 -0.1057091725020591 
0.2384293747576667 -0.03936163975445811 -0.1617625633581238 
0.08956820394736277 -0.07700795496337159 -0.07791652854176881 
-0.08596463599274173 0.03837241383833676 0.02112640031526999 
0.1448755203381184 -0.1468322396230055 -0.03140835482638659 
-0.2487994870115715 -0.0232421456446809 0.1787399213060958 
0.1952468701013945 -0.1109571288749803 -0.07616646658768206 
0.2724796513992964 -0.08605339400280951 -0.1684619190359159 
0.2131465831664965 -0.3049511871792381 -0.01794516827341388 
0.1794166284295616 -0.04683834502627003 -0.1528201907171048 
-0.002472324431259833 -0.08201098760574713 0.05443461175778337 
0.05669808445113512 -0.05849346738454727 0.0269393215892543 
0.05208371129791762 0 -0.04345259039955123 
0.2256892188304828 -0.1781903293898977 -0.06469959341348783 
0.1380398038773264 -0.1286422218856751 0.005303196075469138 
0.02682545132427002 -0.02411793645308678 0.0007918559308431883 
-0.002187080791312156 -0.04621925242458606 0.06938031100162798 
0.01827370904325242 0.002924069784563171 -0.04757323150201184 
0.05208371129791762 -0.02398808149514363 -0.01892936047320022 
-0.0656180490672256 0.1345586385478288 -0.01812125494299439 
0.05208371129791762 0 -0.04345259039955123 
-0.1147643521608243 0.1508359908641451 -0.04880300281421268 
0.03249078759647039 -0.04429197185951268 0.01696836855207862 
-0.03792080520216388 -0.2020059434175392 0.1360769035000857 
0.01972689444615048 -0.01904635117995579 -0.03561812290549849 
0.2909624316791505 -0.1452308137088546 -0.2063898331368235 
-0.04833453960023826 -0.03390035948923865 0.08866873628742097 
0.05208371129791762 0 -0.04345259039955123 
-0.02236052785272917 0.0160833703550089 -0.02736852315940004 
0.0842271462228677 -0.05907960225866058 -0.003240417656081154 
0.0842271462228677 -0.05907960225866058 -0.003240417656081154 
0.04621169346734037 -0.1161033667891602 -0.01316008657192733 
-0.007322964031374033 -0.01159002836041574 0.004560940605321095 
-0.1664976836422515 0.05672546903243675 0.1007916960357934 
0.1784085785126322 -0.08928235690275957 -0.07674870614835577 
0.02928857855788587 0.0250435404007608 -0.02979344043482612 
0.08422714622286771 -0.05907960225866058 -0.003240417656081154 
0.0842271462228677 -0.05907960225866058 -0.003240417656081154 
0.03105282130014095 0.03754580219332405 -0.06196221447195424 
0.006732740352886874 -0.07205975807100216 0.04141783357344558 
0.1820201264342785 -0.1894544976614516 -0.05703562053019073 
-0.2299909377378338 0.1116555722808769 0.154134507579294 
-0.05113282361473112 -0.1804153667743675 0.1693110825705575 
0.2916476058484298 -0.194176056472432 -0.1635260787065038 
-0.03790008718660756 0.2868783075378091 -0.3593932392669151 
0.1225144755152248 -0.02251625684920576 -0.08823640811976059 
-0.07029903226170872 -0.1993727081401681 0.2880813173483341 
-0.01117364923183148 0.192340433259535 -0.2496407065527984 
0.4941545533267095 -0.718086175147553 0.1015468940469642 
-0.02632158580533927 0.04081683223721627 -0.08160829697669844 
0.1225144755152248 -0.02251625684920576 -0.08823640811976059 
0.0676313107328661 -0.02231953994961378 -0.06371317819340958 
-0.03092438538286906 0.04590316017212617 -0.01222930990336365 
0.1225144755152248 -0.02251625684920576 -0.08823640811976059 
-0.02499595931957958 -0.02507727592540178 0.05065703956782171 
0.1225144755152248 -0.02251625684920576 -0.08823640811976059 
0.1225144755152248 -0.02251625684920576 -0.08823640811976059 
0.07302339775290535 -0.02251625684920576 -0.03956101871856811 
0.1225144755152248 -0.02251625684920576 -0.08823640811976059 
0.0429436766945654 -0.004179413104574173 -0.02835338303507444 
0.1407835903405807 -0.07790762365919629 0.0372027422457395 
-0.2048868869979513 0.05255327599448509 0.03973917825486761 
-0.07444109036474596 0.157734350391242 -0.08859212251211221 
0.1536871863845049 -0.03933078020991901 -0.05411462294122097 
-0.07372259687539286 -0.06239462361937116 0.1149694393413717 
0.132609694406006 -0.08788858359635141 -0.02846949770321322 
0.293238729704918 -0.1097509073554546 -0.1392254235961377 
0.006265338658178558 0.09367676376538313 -0.1700253767241929 
0.2577177873971932 -0.002938890402624012 -0.2068272616291794 
0.01090734338557837 -0.06703991908924337 0.1314566998512813 
0.0429436766945654 -0.004179413104574173 -0.02835338303507444 
0.0429436766945654 -0.004179413104574173 -0.02835338303507444 
0.002382364771084955 0.0003516611323304501 -0.05463870450996997 
0.0429436766945654 -0.004179413104574173 -0.02835338303507444 
0.004563422572709724 -0.03974124522414982 0.06038087245200065 
0.1016142565080417 -0.2377034807699833 0.09521265246784355 
0.1482143772426315 -0.007575461166110286 -0.09362578046711126 
0.1482143772426315 -0.007575461166110286 -0.09362578046711126 
0.2141512491703401 0.04195257762679688 -0.2963519927348052 
0.1482143772426315 -0.007575461166110286 -0.09362578046711126 
-0.04770720996565334 -0.2928321120616689 0.2033761104705758 
0.1642935213395516 -0.02175512329861733 -0.08733341957456607 
-0.06466237187723213 -0.2355072703497772 0.2821268170687452 
-0.07136491347156342 0.0752237667826627 -0.01846934011339655 
-0.2276889895249158 0.0833729341112255 0.06700286864456624 
0.09554498701947627 -0.07895110830715991 0.03934017813770447 
0.1332258098531347 -0.02218060406062767 -0.07887787637550223 
0.09078958702919546 0.008726208938292991 -0.09362578046711126 
0.03028041878017663 0.01120189000002553 0.03312824276680384 
0.0886336800839008 -0.007575461166110286 -0.07991163437361427 
-0.007122821693259868 0.08363394006651784 -0.09362578046711126 
0.06807816091532561 -0.007575461166110286 -0.09362578046711126 
0.2189477543567556 -0.1977110181513845 -0.07240912756197911 
-0.04186891297875638 0.004049416214619773 0.06946957089995416 
-0.07510592861399432 -0.04321703671986622 0.1212482063013763 
0.02616953930135961 -0.03795972044848909 0.04628255851331146 
-0.1316008089652983 -0.02348054973991334 0.07995730284574218 
-0.03024721841521313 -0.007485826832929395 -0.04383395518429472 
0.05417498181553301 0.008445413872647033 -0.06871434595540152 
-0.001567339842149542 -0.1122275024279324 0.08326997670472572 
-0.008630680063167542 -0.04369713486771034 0.02525961036635457 
0.02482515602790224 0 -0.04383395518429472 
0.1723175350103998 -0.07348638552897679 -0.06725026541801586 
0.02482515602790224 0 -0.04383395518429472 
0.279634725289541 -0.2213149269279419 -0.1148666757293766 
0.1534685965600337 -0.1514426465438543 -0.007619412478647284 
0.02482515602790224 0 -0.04383395518429472 
-0.02226604421228531 0 -0.01249335543170425 
0.02482515602790224 0 -0.04383395518429472 
0.04664301092649538 -0.1181787470778569 0.02229912177539398 
0.1862844632884072 -0.6466806082781764 0.2096690237367288 
0 0 0 
0.04027191172161527 -0.1282985902808902 0.0907733560457176 
0.1388968321150724 -0.1642795060241127 0.05328464228552435 
0 0 0 
-0.1126205268438061 -0.05445577253374371 0.1661094905952205 
0 0 0 
0 0 0 
0 0 0 
0.1040562812738389 0 -0.09887055182402978 
0.09015585139852467 -0.06705207080741835 -0.05769798977764569 
-0.05898394103226721 0 0 
0.07953492592368371 -0.0134301699360361 -0.02343233912472303 
-0.002224479688639982 -0.03409992364915652 0.02029497441554563 
0.2625291215332559 -0.1117932853738068 -0.1634546302396754 
-0.01291483232135656 -0.09864502687571688 0.1372074873914202 
0.1929604606937854 -0.03456869850776161 -0.1040377113554826 
0.006832314197708855 0.09095418292575749 -0.08336671938968716 
0.04933023938054423 0.02189480322710792 -0.07310399301189965 
0.2276524521095022 -0.08175498620125146 -0.03550798545125921 
0.1122370603372192 -0.05078017132033728 -0.06285455719162365 
-0.1192223242455862 -0.2227873439818053 0.3628610769868585 
0.1284255953577035 -0.02929444636071167 -0.07614050760458878 
-0.06554711727955921 -0.01497679234860921 0.08073835972655027 
-0.09760621158844807 0.10419471835867 0.06916300670989313 
-0.001545277283076529 -0.01042584420687615 -0.02359499804376337 
0.02189116483715628 -0.02929444636071167 -0.01635431617510169 
0.3260453949992592 0.008497133435876526 -0.2325060027074214 
0.1716339179909085 -0.2610498812233609 0.03828292782462182 
0.3443299145009089 -0.2146762640007741 -0.1321858479328482 
-0.04548978547854007 -0.04636037968780675 0.030602402382736 
0.04054307333456812 0.04520841482519829 -0.1423797383535005 
0.08440173311217465 -0.01982594924130214 -0.07614050760458876 
0.183712088541552 -0.1053537843238885 -0.07614050760458878 
0.06315212131468022 -0.01777767911125891 -0.04215504861694518 
0.06315212131468022 -0.01777767911125891 -0.04215504861694518 
0.06315212131468022 -0.01777767911125891 -0.04215504861694518 
0.06315212131468022 -0.01777767911125891 -0.04215504861694518 
0.1409578907116785 -0.04151643256121682 -0.05006074074352064 
0.06315212131468022 -0.01777767911125891 -0.04215504861694518 
0.009910405199579718 -0.04711900957523971 0.01866464097862081 
0.0382820654366812 0.01542371645477614 -0.0562109149791293 
0.02485256991583506 0.1221047204734795 -0.1147175229488305 
-0.05442696707865929 0.1012561452269742 -0.1080036921047789 
0.06315212131468022 -0.01777767911125891 -0.04215504861694518 
0.244348659246131 -0.09196936128956532 -0.1870006018781367 
0.01195807809316411 0.01858114169317897 -0.002995848222613723 
0.06315212131468022 -0.01777767911125891 -0.04215504861694518 
-0.1470354629634614 0.0377167316030832 0.06496819174449964 
0.008431470359685281 0.06626864993528445 -0.0671225642213073 
0.1061843267882347 0.006270841616850568 -0.1249409196984926 
0.1786104438972579 -0.157168799039667 -0.1606680448833827 
0.08781646272138786 -0.07380038386604697 0 
0.08781646272138786 -0.07380038386604697 0 
0.1388266205963906 0.1428607507017615 -0.2392697931225825 
0.08781646272138786 -0.07380038386604697 0 
0.08781646272138786 -0.07380038386604697 0 
-0.1200748266575369 0.1329847913382 -0.0644121162982533 
0.08781646272138786 -0.07380038386604697 0 
0.01160289936358708 -0.08245483866355556 0.09313252286087373 
0.08781646272138786 -0.07380038386604697 0 
0.2036906979304867 -0.146296960229272 -0.09927732612989948 
0.08781646272138786 -0.07380038386604697 0 
0.2508429449583344 -0.3867291625094929 0.09762318304989057 
0.0508250340060905 -0.1292734267062975 -0.007168882543358494 
0.01284868811399468 -0.001316311013169306 0 
0.01284868811399468 -0.001316311013169306 0 
0.04098110624832985 0.02616362838682771 -0.08614627206506591 
0.01581125454337549 0.1157521398187483 -0.06644359674274307 
0.00413787100517282 -0.1045982075789745 -0.01378274508210167 
0.01284868811399468 -0.001316311013169306 0 
0.09114380403480452 -0.01076223751468264 -0.1133879124880163 
-0.02401597802303922 0.008616681859889105 0.00294396551100578 
0.0766867547477561 -0.03559776337375673 -0.02252177142695404 
-0.1533906941880228 0.2118790838390994 -0.09482717281131134 
0.5610817119146052 -0.2402757652298048 -0.2228368145154812 
-0.1028352632779988 -0.03065901975216316 0.06239057674631434 
0.07086374094971655 -0.08757205617051682 -0.04675798033774774 
0.01284868811399468 -0.001316311013169306 0 
-0.2250472650594329 0.08334197575809212 0.07377347812662911 
0.2623932408308834 -0.2505500781704805 -0.03925001225471196 
-0.094601158858655 0.2520552445325627 -0.1606877672178673 
-0.006229692668796059 0.08765470777545557 -0.1083877083516572 
0.2207523004900727 0.05843432196421219 -0.2583676491848218 
0.01284868811399468 -0.001316311013169306 0 
0.03726265279521587 0.003325871491898948 -0.06257361959456484 
0.05843989637197408 -0.02913452870720678 -0.001675795620104082 
0.01354556187519708 0.0700077715221708 -0.09942099385221176 
0.09871786123328449 -0.06593425139966065 -0.04185051357377668 
0.00180308645467351 0.0003433401350679943 -0.04128814875476809 
0.06237881092846263 -0.02684514968549212 -0.04185051357377668 
0.006049094270621391 0.01522045791821361 -0.04185051357377669 
0.01185619261599914 -0.09056825333178946 0.06886634594900948 
-0.1587276915242765 0.002607461275421928 0.1647614784579741 
0.1178535544208839 0.05686796228113636 -0.1024650804643885 
0.07558858750266008 0.004708613271816202 -0.06416899626814493 
0.09871786123328449 -0.06593425139966065 -0.04185051357377668 
0.09259814343449604 -0.06593425139966065 -0.06904685660005674 
0.1750810283125443 -0.06593425139966066 -0.06433281263267757 
0.09871786123328449 -0.06593425139966065 -0.04185051357377668 
0.09871786123328449 -0.06593425139966065 -0.04185051357377668 
0.0331108391610431 -0.06593425139966065 0.04228153289945324 
0.09871786123328449 -0.06593425139966065 -0.04185051357377668 
-0.009010649854779361 0.02425599250698891 -0.04185051357377668 
0.04565483087295356 -0.02997007687600929 0 
-0.1580696269196128 0.008876207216978843 0.1738777681956767 
0.02458730958548868 -0.04066135089901589 0.04826444804598019 
0.04565483087295356 -0.02997007687600929 0 
-0.01821052673766291 -0.08285637843759878 0.1189382649627531 
0.03668234347718288 -0.02997007687600929 0 
0.1053475306680182 -0.02456673073565065 -0.1033419037471697 
0.04565483087295356 -0.02997007687600929 0 
-0.09053316159668179 0.01147528258287368 0.1499941873893831 
0.2030249058346759 -0.1517073999990932 -0.05034444422490036 
0.04565483087295356 -0.02997007687600929 0 
0.04565483087295356 -0.02997007687600929 0 
0.1456661332331248 0.0001556013357967555 -0.1397971464820147 
-0.1060772729836031 0.06693565495803383 0.01459978251223371 
0.1804901197052985 -0.06143950995689412 -0.1245905970229885 
-0.02524786351754154 0.01732685086184706 -0.08088970470752388 
0.08454693142251749 0.08609514445105074 -0.1241813249085168 
0.1000407456696066 -0.05351732014337585 -0.1128690131358555 
0.1193359192179967 -0.1785794142932819 0 
0.1193359192179967 -0.1785794142932819 0 
-0.3635231155957195 0.5525039899355292 -0.3476889764178526 
0.1193359192179967 -0.1785794142932819 0 
0.1080755028673522 -0.217963345965998 0.04838819271351501 
0.1193359192179967 -0.1785794142932819 0 
-0.09117185203111014 -0.04532272302827971 0.03663598226500087 
0.1193359192179967 -0.1785794142932819 0 
0.05847609323021513 -0.03872716429353767 -0.08461403566750099 
0.1193359192179967 -0.1785794142932819 0 
0.1193359192179967 -0.1785794142932819 0 
0.141266082911637 -0.1743031989883252 -0.03800238202475432 
0.03461423822722634 -0.1256711609430416 0.07625552823104859 
0.1092404372361632 -0.05793852184277756 -0.05553839865831658 
-0.0005538289966497065 -0.05827744711224531 0.04157502504377231 
-0.04116674220657356 0.0407699797107792 0.02465785902445936 
0.002444691035612453 0.0455157705640372 -0.01125113262422296 
0.1092404372361632 -0.05793852184277756 -0.05553839865831658 
0.1092404372361632 -0.05793852184277756 -0.05553839865831658 
0.1248749293390574 -0.09288159464015334 -0.05553839865831658 
0.134500765694993 -0.05946566976733177 -0.08528338545462338 
0.1092404372361632 -0.05793852184277756 -0.05553839865831658 
0.1913796763654044 -0.1201662794318552 -0.1360813627991623 
-0.1200029185814995 -0.08018510429442628 0.164795023288229 
0.01976581041112665 -0.1227687366257872 0.1031209667081222 
0.1092404372361632 -0.05793852184277756 -0.05553839865831658 
-0.03986951478636729 0.1992766348652803 -0.1391226997325961 
0.1092404372361632 -0.05793852184277756 -0.05553839865831658 
-0.06666534331912753 -0.09092271137337582 0.1294350984160712 
-0.02787476902220181 -0.05897876274878659 0.01290657596537151 
0.0851238065331929 -0.05042789173121361 -0.05031747335246853 
0.0851238065331929 -0.05042789173121361 -0.05031747335246853 
0.1192076297365716 -0.04539210581732362 -0.07520095001785126 
0.0851238065331929 -0.05042789173121361 -0.05031747335246853 
0.02357607666984875 -0.09989904208385378 0.07011442255213539 
0.05681260138412492 -0.07885171549882942 0.0723034216012246 
0.0851238065331929 -0.05042789173121361 -0.05031747335246853 
0.0851238065331929 -0.05042789173121361 -0.05031747335246853 
0.0851238065331929 -0.05042789173121361 -0.05031747335246853 
0.134279059827643 -0.003444801521867952 -0.0910010701096606 
0.120453304716304 -0.05666733585309567 -0.05908434593134546 
0.07098862566250989 0.0103685262126466 -0.07773230479891885 
0.1736024108214387 -0.1156938829685787 -0.06243686371112845 
0.1485852447308701 -0.0483083328849731 -0.07773230479891885 
0.1485852447308701 -0.0483083328849731 -0.07773230479891885 
0.1200568694798381 -0.1150720020377957 -0.01349061231531693 
0.1983859450373544 -0.07637863037443926 -0.07773230479891886 
-0.2999440654592432 0.1403437401080581 0.1659344075181488 
-0.133753542512678 0.1867406801062535 -0.07108552186198094 
0.1879736477949938 -0.1243223878882685 -0.07773230479891885 
0.1783732885061476 -0.1225045414944967 -0.05431531085216079 
0.1485852447308701 -0.0483083328849731 -0.07773230479891885 
0.02230865389472509 -0.02444835163882321 -0.002713452456841639 
0.1520326903400204 -0.3963628276498893 0.20940400080637 
0.1677874601789557 -0.08239648194562808 0.03166234354869676 
0.1878364577838511 -0.1603194139380672 -0.1078120963903171 
0.1119057379917363 -0.05494129113475195 -0.05101277357166953 
0.08841304353825087 -0.06003422504906583 0 
0.08841304353825087 -0.06003422504906583 0 
0.128486422668627 0.02073405722128945 -0.09855934332806895 
0.03311970979056068 -0.3150168031958518 0.2165956694731482 
0.4538367641724298 -0.2615158393101883 -0.1590622463657204 
0.08841304353825086 -0.04806086733727644 -0.01963832397388219 
-0.044296313076743 0.03371555916954687 -0.03741398223101554 
0.3707342933571736 -0.3881629521166383 -0.142045052135116 
0.02068492417808822 0.0144452994280551 -0.1102637253902096 
0.1437438564560681 -0.3589687221699416 0.108010313031389 
-0.09753272287122913 -0.0352584626571851 0.03776857493571686 
0.2457756099288988 0.007806295685896682 -0.294162638471138 
-0.2508096035375975 0.0426851015406382 0.2323149904589412 
0.06313330133342494 0.04699298418553022 -0.2214760715607531 
0.08969620847210208 -0.07130480474165492 -0.0762359464107677 
0.07633794413411156 -0.0004351173068683246 -0.09754723025143205 
0.09582848600384865 -0.02925554422734258 -0.05863697131161939 
-0.01027833813499375 0.00507680756711511 0.008684230297219882 
-0.1239139812461446 -0.1135866944243592 0.218844034886504 
0.1150969831817251 -0.0672698196384108 -0.06107393961807758 
-0.0423271258849755 -0.1068597342556094 0.1043344774089451 
0.1843744474205047 -0.09792810872165396 0.01287992250010187 
0.09582848600384865 -0.02925554422734258 -0.05863697131161939 
0.05244153227993661 -0.0545094314725634 0.04704287522037578 
0.2123693242050086 -0.04182016627240211 -0.1694959576447601 
0.0745440085533738 -0.04182016627240213 0 
-0.04420676289094121 0.09506800918488735 -0.1055171065978348 
-0.09807803885538034 0.07989698970930832 -0.04935473727258425 
-0.0922912532764881 0.1426417974029418 -0.03288861512745727 
0.1636309027132374 -0.1362308791360992 -0.02332453552107429 
0.0745440085533738 -0.04182016627240213 0 
-0.02544513641910203 0.1272640669861283 -0.05998366373277553 
0.0745440085533738 -0.04182016627240213 0 
0.06504446529137739 -0.01878563786562341 -0.008077202418515558 
0.0745440085533738 -0.04182016627240213 0 
0.01966084377101506 -0.01763536787766651 0 
0.1010156891769472 0.06564827832518894 -0.1580221477464967 
-0.03945172474917758 0.2638618489227242 -0.2412456118732839 
0.1117767950078216 -0.01914812598688191 0.01176636819643878 
0.03460538907763191 0.1201884762425591 -0.08983830932959513 
-0.07670755342458234 0.1188368862481743 -0.05083571604519311 
0.0745440085533738 -0.04182016627240213 0 
-0.1002936170920857 0.04427025662482892 0.03545934677003779 
-0.1692873882708649 -0.07958319301887191 0.2570417906923141 
-0.05263567254141596 -0.1088243107629103 0.1379662007351735 
0.2062910347381933 -0.1273264135847163 -0.02600774897803537 
0.1917421597421192 -0.1200618439723576 -0.05524684200203053 
-0.03134007944354084 -0.06238093692096438 0.1413062640073019 
0.171249187758426 -0.04846882072050726 -0.1790546585518003 
-0.1041964761142741 -0.3014334954747211 0.3083607664484531 
0.1180818198848684 -0.0647433683163695 -0.003467198767793334 
-0.03291949793977503 -0.3392593324354132 0.2638609344691686 
0.1180818198848684 -0.0647433683163695 -0.003467198767793334 
0.08011952032252061 0.0181191364952186 -0.07697491311784582 
0.1258783427241011 -0.06972908085431355 0.002386404268558105 
0.1180818198848684 -0.0647433683163695 -0.003467198767793333 
0.1788183697198934 0.01967520742162486 -0.176198240888642 
0.06399320483399062 -0.08145261981983858 0.03875100052463962 
-0.09160754249522281 0.2554791622842071 -0.2578018338337794 
0.07619062980023261 -0.0647433683163695 0.04201570005770578 
0.03874662998399023 -0.04987260844404934 -0.06992205199570158 
-0.03029726336101073 -0.002911999137908583 0.1284300696770926 
-0.02997549234366002 -0.02298196041195227 0.05060067317554261 
0.03870470641893957 -0.02298196041195227 -0.01113844957240045 
0.03870470641893957 -0.02298196041195227 -0.01113844957240045 
0.156828992140766 -0.1331097050297575 -0.03257903412967543 
-0.1128853908141666 0.04824104795827429 -0.04370852407196615 
0.03870470641893957 -0.02298196041195227 -0.01113844957240045 
0.0594150322967712 -0.08422932775665784 0.001031631308381754 
0.03081778857374812 -0.03609942632119834 0.03826932808609806 
0.07345542536517176 -0.02390069513240317 -0.1221455968257009 
-0.04333250970698579 0.1308533589909074 -0.08002800258379515 
0.03870470641893957 -0.02298196041195227 -0.01113844957240045 
0.08490536831192912 0.0384199345123469 -0.0814600692556797 
0.03870470641893957 -0.02298196041195227 -0.01113844957240045 
-0.1246491053831782 -0.06069077035980615 0.03189337794509921 
0.03870470641893957 -0.02298196041195227 -0.01113844957240045 
0.142802017222869 -0.1752085632620392 -0.01113844957240045 
0.03870470641893957 -0.02298196041195227 -0.01113844957240045 
0.03870470641893957 -0.02298196041195227 -0.01113844957240045 
0.2634063463088893 0.04500918671500834 -0.2265055551662998 
-0.1758435298912091 0.2911096117252128 -0.1655274219548729 
0.3853942624228065 -0.042620443952472 -0.2703040227854961 
-0.1185849245273454 0.1325065176110679 -0.06246354688097595 
-0.1585091870710346 -0.1853699821328894 0.2039477851866219 
0.249710558766212 -0.09994182115140132 -0.1277551212331713 
0.2407600154289027 -0.04076652298796439 -0.1764821867839667 
0.1377594321758164 0.04094194907199651 -0.1086582237882848 
-0.2710644260367725 0.09292191431091197 0.06311891945616474 
0.2935837147909627 -0.156354551582227 -0.1182818204565351 
-0.2845208145655349 -0.03869468309388757 0.2502912192264021 
0.2888878639270965 -0.1864519951801603 -0.1179341886840043 
0.02788086360321742 -0.08690412099015754 0.0569763225382466 
-0.09994316166608459 -0.02325619337068784 0.05822299457024083 
-0.07082225709052017 0.05646159541829066 0.002419603109283571 
-0.164560517564889 0.1674910567447717 -0.03546829123876877 
0 0 -0.03546829123876877 
0.1784167564549311 0.1200535623001141 -0.2416541032342651 
-0.05833479497049722 0.0455569297564851 -0.0005758888607850909 
0.5071826281828717 -0.2993389891053674 -0.235676723861013 
0.1352288901562289 -0.03232377414766151 -0.07553280854873684 
0.2305121758722608 -0.3290674034851631 0.06382057685794772 
0.05757883923989188 0 -0.02320153721296688 
0.05757883923989188 0 -0.02320153721296688 
-0.06319041782105847 0.03003419979984702 -0.0216288782493921 
0.06575432927557585 -0.04629221467220304 0.01273294775328289 
0.01040570611877159 8.673617379884035e-19 -0.02320153721296688 
-0.3286805194310344 0.02091260320900074 0.1911885565636914 
0.07465081696974005 -0.1299718443350776 -0.008702372772358993 
0.1694633538716626 -0.04931442102651862 -0.1036571712906866 
0.1985907818626719 -0.1076815965583546 -0.02320153721296687 
-0.03864334411545571 -0.03979443927661813 0.02026263014006164 
0.05757883923989188 0 -0.02320153721296688 
0.0498764167939875 0.08928233631161296 -0.06288386023246795 
0.05757883923989188 0 -0.02320153721296688 
0.09353645163111984 0 -0.0773750436423407 
0.2493176019242092 -0.1593097540654327 -0.07123218377000398 
-0.009211591843987302 0.07340121699728998 -0.0543003694356774 
-0.1493649681070152 0.09359068968439621 -0.03315465604200288 
-0.2912149336247152 -0.09389711748646312 0.3624990681604656 
0.09353645163111984 0 -0.0773750436423407 
0.09353645163111984 0 -0.0773750436423407 
0.03496445519592982 -0.07336038139181159 -0.02080757110180634 
0.09353645163111984 0 -0.0773750436423407 
0.09353645163111984 0 -0.0773750436423407 
0.09353645163111984 0 -0.0773750436423407 
0.09353645163111984 0 -0.0773750436423407 
0.08392720793410056 -0.02886888723682317 -0.04238936692785258 
0.1584846361519318 -0.03873039501972232 -0.0347179184112217 
0.09353645163111984 0 -0.0773750436423407 
0.09353645163111984 0 -0.0773750436423407 
0.09353645163111984 0 -0.0773750436423407 
-0.09918016317968502 0.1301981503584473 -0.01528231567706385 
-0.02343260370587842 -0.05183652624022594 0.03988556827647094 
0.2836762335738614 -0.1150411630102603 -0.1752467123131342 
0.04070034400501638 0.05328899419378259 -0.2113398692965319 
-0.1994585127751836 -0.103654935436636 0.2583019017812279 
-0.03166706726018803 0.1092238487669047 -0.1191941131055529 
0.09372591757748361 -0.0849266356615492 0.01988259295232812 
0.3575246182186509 -0.1585931005836851 -0.1855373641628822 
-0.008133871664230371 0.04959378410878745 0.02419982280745075 
0.07811648984484593 0.04973939833544021 -0.2244846197640341 
0.01380531841065937 0.0542135587432224 -0.1103791881553046 
0.1702611401434808 -0.1037507403883715 -0.06729523048518504 
0.02838114655197188 -0.007042199983798537 0 
0.02838114655197188 -0.007042199983798537 0 
-0.02807462122928316 0.04070842084795764 0.01839215951129792 
0.02838114655197188 -0.007042199983798537 0 
0.02838114655197188 -0.007042199983798537 0 
0.02838114655197188 -0.007042199983798537 0 
0.165241220308044 -0.1243551293838403 0.09117676193391436 
0.08745536564555201 -0.06465990509483095 0.02949207155642687 
0.1050489710221162 -0.1129120913347438 0.07834526227427409 
0.02838114655197188 -0.007042199983798537 0 
0.004263268279727516 0.04930044916048123 -0.01136328685707169 
0.02838114655197188 -0.007042199983798537 0 
0.1108956455220809 -0.04329577415015221 -0.02039384510671055 
0.02133886340712306 0.03932152382605821 -0.07419934983648264 
0.02711655362369308 -0.03416935225599538 -0.1185251582303434 
0.1366308098000826 -0.1077719402398757 -0.04323485313300995 
-0.1775128713430672 0.2189657662531458 -0.140080235691242 
-0.02962299781368656 -0.01686512994558931 0.0605217125257879 
0.09202816896046759 0.08643965073680476 -0.1314502920844773 
0.1589922500852421 -0.09470117158290903 -0.03156419656274811 
0.1589922500852421 -0.09470117158290903 -0.03156419656274811 
0.06703954706708648 -0.01098504285904455 -0.1826026813258822 
-0.1348095593113278 0.1866183324708343 -0.04923945839443208 
0.005464227081516924 -0.005218170342624048 -0.006615042330518898 
0.0857152743160268 -0.3082404305058823 0.2030067508231181 
-0.04517440702628921 0.04328184834424342 -0.01003333594272153 
0.02506419823735014 -0.09440464730977746 0.1402169576556762 
0.0001161184306422893 0.07102549002194802 -0.04566327602559327 
0.1589922500852421 -0.09470117158290903 -0.03156419656274811 
0.1318645388336311 -0.1128046157848861 0.0345879764038079 
0.1446133629445502 -0.03880797575223494 -0.07014401825966499 
0.08452214835819999 0.03800320793073551 -0.1463996535877538 
0.02105053442016493 -0.04085041520785995 0.0002181605270215568 
-0.08473139586747962 -0.1422141290255074 0.2208180147519043 
-0.01019203462290383 -0.1051749953523225 0.06818590031393154 
0.106492172598631 -0.07519670189097415 -0.02569279534152 
0.106492172598631 -0.07519670189097415 -0.02569279534152 
0.01024443082702399 -0.1488844177884643 0.09000086875539415 
-0.2052020619799301 0.1086199313940098 0.05341848381643902 
0.106492172598631 -0.07519670189097415 -0.02569279534152 
0.09648933715929896 -0.2333979648893039 0.0996606525248683 
0.106492172598631 -0.07519670189097415 -0.02569279534152 
0.05626082225774386 -0.03863291815671713 -0.07445815677685987 
0.106492172598631 -0.07519670189097415 -0.02569279534152 
0.106492172598631 -0.07519670189097415 -0.02569279534152 
0.1483776402874228 0.1048301571391823 -0.2380231800948951 
0.1961680768677628 -0.07519670189097415 -0.1850370878589345 
0.2025332412953468 -0.07519670189097415 -0.1123219635440888 
-0.1436843433150885 0.09198100417162872 0.01992724342982988 
-0.0544239880922505 0.08756056769017777 -0.06966948809129941 
0.2849686960094908 -0.1193325801052881 -0.1279316046210743 
0.1210028991349937 -0.001081946334189566 -0.1176279029770349 
0.1199926210165964 -0.001081946334189566 -0.1176279029770349 
0.252089561679424 -0.04975804221564082 -0.2176524688465057 
0.2561751509784506 -0.1644506487729877 -0.1271767210577848 
0.1210028991349937 -0.001081946334189566 -0.1176279029770349 
0.05789242598973955 -0.05421233776469656 -0.009097763465424243 
-0.03408963163289534 0.07090228801127137 0.06416266255304225 
0.1217265528869191 -0.05908821462081291 -0.136368601729647 
0.1736931807145877 0 -0.2182881288828891 
0.1804345406316557 -0.08550894445814795 -0.2520400044873213 
0.09024339594688702 -0.07174320490659399 -0.05480709177698097 
0.2321033925534619 0.03908826511281528 -0.3498764712323076 
-0.5077482443355688 -0.3413981265436014 0.6838445692695809 
0.2430968942137815 -0.1586611967658716 -0.0908911384148143 
0.1308224191854747 -0.01971639724567115 -0.1835734586657395 
-0.2364155605099943 -0.1608368091417459 0.3203497777512097 
0.07728404439537181 -0.06436655455648894 -0.01730811268045403 
0.09713169005285906 0.05036482005241916 -0.1010770629153732 
0.2922658829826089 -0.2462565865283543 -0.1123085474098944 
-0.1839973762453114 0.1712269757348946 -0.02872046089087867 
0.1015090846292298 0.08328054154252885 -0.1323359628852427 
0.1209003640730595 -0.005497883792346648 -0.1010770629153732 
-0.1001110484789122 0.01822889803182692 0.01629141053814689 
0.01925325701735747 0.09459263565486477 -0.1465610938435 
0.1209003640730595 -0.005497883792346648 -0.1010770629153732 
0.2232319695128177 0.05133997890053623 -0.2404415078596682 
0.03394668010846823 -0.1492102828791935 -0.0522605767671488 
0.03991117630872158 0 -0.01350045053902219 
-0.0206954406743563 -0.04373278320835298 0.01889083194575724 
0.007440659963258202 -0.2978175137948598 0.1775939247703945 
0.03991117630872158 0 -0.01350045053902219 
0.03991117630872158 0 -0.01350045053902219 
0.2112219359027974 -0.3698749769936682 0.06157148977688562 
0.1285896661327538 0.03456370486766634 -0.1229829844835645 
0.009722722769405844 0.04561582249405195 -0.01069997816293487 
-0.09339893321375034 0.09891216181226829 0.01342097252760122 
0.1571152585432631 -0.08347644996453119 -0.07646829812193302 
0.1571152585432631 -0.08347644996453119 -0.07646829812193302 
0.1114659525780412 -0.04932004598818179 -0.07646829812193304 
0.2468305340501953 -0.09890429300678565 -0.1238564875775113 
0.04202014345409787 0.02627533394331612 -0.1123524677450184 
-0.02456610046397303 -0.1139524579435854 0.1201308770969956 
-0.1071479618129826 0.1474129796219762 -0.0727756011047612 
-0.1603475870954158 0.1526537539571209 0.009913597686394153 
0.06934098969177818 -0.06600686475099656 -0.08198882313621769 
0.1046604177678627 -0.09971779561844868 -0.0246864409043371 
-0.1552575988722499 0.1877776542046604 -0.07547763721894367 
0.1719273679763831 -0.09663957071307758 -0.02875422019862264 
0.05775821486191218 -0.03713634396322255 -0.01685666169066289 
-0.01853713886628119 -0.09310219122976116 0.07795372723367693 
0.05775821486191218 -0.03713634396322255 -0.01685666169066289 
0.1140815593964001 -0.2511291161206322 0.05620038288585923 
0.1212601426499208 -0.1872726849244032 0.09527457508529953 
0.263956608143124 -0.3321287673227522 -0.03673190937970706 
-0.1013621587779448 0.05328316993280505 0.0165432357618295 
0.03434096598612502 -0.09274042858630971 0.06977221661206064 
0.05775821486191218 -0.03713634396322255 -0.01685666169066289 
0.05775821486191217 -0.07077103578473362 0.04314300041768872 
0.05775821486191218 -0.03713634396322255 -0.01685666169066289 
0.005043120159946332 0.05216749816925269 -0.03037002519328412 
0.05775821486191218 -0.03713634396322255 -0.01685666169066289 
0.05775821486191218 -0.03713634396322255 -0.01685666169066289 
-0.03588747004216581 -0.0376665527432536 0.06470035352086541 
0.03324662994728563 -0.06141989833413226 0 
0.1321358876049535 -0.129254234129105 0.01467555591432738 
0.03324662994728563 -0.06141989833413226 0 
0.0906363844320688 -0.1271372298564269 0.00168642225224843 
0.03324662994728563 -0.06141989833413226 0 
0.03324662994728563 -0.06141989833413226 0 
0.03324662994728563 -0.06141989833413226 0 
0.03324662994728563 -0.06141989833413226 0 
0.03324662994728563 -0.06141989833413226 0 
0.1965619524491716 -0.1565023018002326 -0.00492028582491807 
0.03324662994728563 -0.06141989833413226 0 
0.2051348035587513 -0.07536887208482849 -0.1826876670752158 
0.03324662994728563 -0.06141989833413226 0 
0.03324662994728563 -0.06141989833413226 0 
0.1079898337613492 -0.08344599704844111 -0.0219292645466696 
0.04553989350030326 -0.01936422611293806 -0.01680466495277553 
0.1569931794146574 -0.01804643825811956 -0.3262668496250581 
0.006925469678225781 -0.04656094013590271 0.02821955072867377 
0.05165409398692347 -0.131473443996102 0.05395948710811817 
0.04197145533570939 -0.05057293736281653 0.009975726377059103 
0.1644295613538195 -0.09718352665991109 -0.07593677595354298 
0.1070379278930465 -0.02252820009178084 -0.0764992504054289 
-0.006328141229618698 -0.02252820009178084 0.00496079611211387 
0.04973791738279332 -0.02252820009178084 -0.04016193560914411 
0.05545983185050308 -0.0814601653198295 -0.03541864572920109 
0.04973791738279332 -0.02252820009178084 -0.04016193560914411 
0.1371119036178598 -0.0765467731562413 -0.05542859723544473 
0.04973791738279332 -0.02252820009178084 -0.04016193560914411 
0.04973791738279332 -0.02252820009178084 -0.04016193560914411 
0.04973791738279332 -0.02252820009178084 -0.04016193560914411 
0.04973791738279332 -0.02252820009178084 -0.04016193560914411 
0.1934572771515876 -0.1503995734129821 -0.04016193560914411 
0.0843944096432889 -0.05039396995498598 -0.07627726814250763 
0.02981547454467503 -0.04669794512320877 0 
-0.01352879843507357 0.01442359120604488 -0.01210773569540386 
0.02981547454467503 -0.04669794512320877 0 
0.02981547454467503 -0.04669794512320877 0 
0.02981547454467503 -0.04669794512320877 0 
0.07964916690760625 -0.04669794512320877 -0.06229074219046516 
0.02981547454467503 -0.04669794512320877 0 
0.08941227753301713 -0.1067330444983257 0 
0.02981547454467503 -0.04669794512320877 0 
-0.05258068048712849 -0.009940466688909893 0.01839978250932152 
0.1085954868267001 -0.07869847358737586 -0.02099355018713633 
0.02981547454467503 -0.04669794512320877 0 
0.01162653805225246 0.008887409498125678 -0.05666396677259995 
0.3701554709822444 -0.2661374106831784 -0.1496771340171333 
0.02981547454467503 -0.04669794512320877 0 
0.02981547454467503 -0.04669794512320877 0 
0.02981547454467503 -0.04669794512320877 0 
-0.1125054067452583 0.07155437316868271 -0.04044813351642138 
0.02981547454467503 -0.04669794512320877 0 
-0.009341484775821009 -0.01906359282782096 0.05040200674203956 
0.11165776401408 -0.03086980452152875 -0.1263112941473171 
0.2603308377036205 -0.07522078002591708 -0.1882469054264364 
0.1849785300983731 -0.02056487163128751 -0.1221057743469808 
-0.1262179769582137 -0.06811853142848887 0.1300380643643717 
0.007647666616831413 -0.06850544476866384 0 
0.07133411281042318 -0.08749914238583463 -0.03789099055970788 
0.03122413226829725 0.140957672635536 -0.319506796032054 
0.09110376038287832 -0.09620237351167185 -0.1233938517080304 
-0.2281948379895943 0.07644076737777342 0.1472531335222367 
-0.06999039249603034 -0.2223707763458057 0.2545732797811976 
0.03960852734744816 -0.07359755066826125 -0.04620948002761393 
0.007647666616831413 -0.06850544476866384 0 
0.4896322334011133 -0.4150941577449027 -0.2043351200230603 
0.01953772626002545 -0.06850544476866384 -0.03491499006788148 
0.007647666616831413 -0.06850544476866384 0 
0.007647666616831413 -0.06850544476866384 0 
0.007647666616831413 -0.06850544476866384 0 
-0.01776467988960688 0.007792599074426459 -0.006150106341325574 
0.0649382434664946 -0.07191820819160247 -0.03225601078892019 
0.02441763716981409 0.01146504718891827 -0.006150106341325574 
0.02681628005872528 -0.02489377361551962 -0.006150106341325574 
0.02681628005872528 -0.02489377361551962 -0.006150106341325574 
0.1764168379546235 -0.2586584852648039 0.05022946885817354 
0.2272697540932853 -0.1941585467093357 -0.01528957780858035 
0.03510376437637364 -0.1144413708915998 0.02558523924637731 
0.02681628005872528 -0.02489377361551962 -0.006150106341325574 
0.02681628005872528 -0.02489377361551962 -0.006150106341325574 
0.02681628005872528 -0.02489377361551962 -0.006150106341325574 
0.1876340788600034 -0.1760180124398724 -0.01932497615019177 
0.09915340102948922 -0.1534220295211531 -0.03707300176951801 
0.0880071895879839 -0.06573967679683382 -0.01707758431329782 
0.02681628005872528 -0.02489377361551962 -0.006150106341325574 
0.02681628005872528 -0.02489377361551962 -0.006150106341325574 
0.02681628005872528 -0.02489377361551962 -0.006150106341325574 
-0.1718257362856476 0.08301385657957798 0.05141628598235062 
0.1271372594160625 -0.02023403098739411 -0.05417865468043457 
0.02681628005872528 -0.02489377361551962 -0.006150106341325574 
0.02681628005872528 -0.02489377361551962 -0.006150106341325574 
0.08866974156906998 -0.09451225661425497 0.009200113632242359 
0.02681628005872528 -0.02489377361551962 -0.006150106341325574 
-0.02545501568437583 0.02077513543722873 -0.006150106341325573 
0.08267793942236669 -0.03907236958433453 0 
0.08847659931330704 -0.03953180542090697 -0.06102208877071923 
-0.09073671586716196 0.03989946801941211 0.11967968138487 
0.08063096892483332 -0.04267526887912979 -0.04263314724792785 
0.008383588615211225 0.0820084369281549 -0.05706938848697491 
0.08267793942236669 -0.03907236958433453 0 
0.1111741334372468 -0.07211377709832958 -0.03067061880153423 
0.2867617789448209 -0.2329262622057925 -0.1860515438677412 
0.06449347028808886 -0.03907236958433453 0.007388361226638273 
0.08267793942236669 -0.03907236958433453 0 
0.04159790036499713 -0.04430058764627821 0.03867115783478239 
0.06975959815817376 -0.08076563242811154 0.06091696388174961 
-0.05934713245344632 -0.03938191006269499 0.07956464277538391 
0.1052646914572924 -0.0757219014460261 0.06807633882602337 
-0.1859893985400273 0.1327108129715212 0.05228953547674577 
0.1700519256574332 -0.093090942648795 -0.0152666616263006 
0.1780983526903137 -0.03285387892051057 -0.1317006316910787 
0.01552823280027239 -0.1776786136391679 0.09382854268535977 
0.004652452731206128 -0.05694421504853782 0.02352935798080834 
0.0316682377874964 0.2029324127774679 -0.3338623499146293 
-0.03951343933312498 0.04544952013874409 0.009026088918050689 
0.0473434107943826 0.03704626359135321 -0.04340503417812676 
0.2624056580076568 -0.09187938941618289 -0.1718520625398842 
0.07757306247703089 -0.101628256810389 0 
0.07757306247703089 -0.101628256810389 0 
0.127034456062754 -0.1272044459601436 -0.07028348452665016 
0.07757306247703089 -0.101628256810389 0 
-0.1346227143964251 -0.02717629719319229 0.1602402558353333 
0.008535720690230621 -0.09455360062659326 0.03265457660007381 
0.07698712134168216 -0.09091052924533703 0 
0.06665336978658913 -0.08162247027407497 -0.01103729832056319 
0.009708381595269752 0.165562932625052 -0.1667416824443128 
0.07698712134168216 -0.1400741967222784 0.05053287570893335 
0.07698712134168216 -0.09091052924533703 0 
0.04977516792201517 -0.03274845615091612 -0.06999954444721444 
0.07698712134168216 -0.09091052924533703 0 
-0.04721607029562991 -0.09091052924533703 0.1175811194192151 
0.07698712134168216 -0.1400741967222784 0.05053287570893335 
-0.02201149006139557 -0.03645437556083639 -8.673617379884035e-19 
0.09200211860373043 -0.1528236687664056 -1.517883041479706e-18 
-0.1205112621449959 -0.07488717086515009 0.1229191033820924 
0.03741056975669557 0.01627237238952374 -0.0822764355557702 
-0.01417102245954955 0.03309323910671923 -0.05429126539862544 
0.07698712134168216 -0.09091052924533703 0 
0.07698712134168216 -0.09091052924533703 0 
-0.0351803698323443 -0.07839721283448661 0.1052554635644205 
-0.03806001437300317 0.0603111582026705 -0.03745610416975891 
0.07698712134168216 -0.09091052924533703 0 
0.07698712134168216 -0.09091052924533703 0 
0.07698712134168216 -0.09091052924533703 0 
-0.02808714160344756 0.05735482193003304 -0.07349820844840682 
0.1189324319826884 -0.05440835815352736 -0.04300570835160306 
-0.05471647839604684 -0.1601964011202424 0.1665455068657014 
-0.07990863877634946 0.04251687080823127 0.03359313750258609 
0.06085654017617724 -0.03177630331844046 -0.01513420971919287 
0.06085654017617724 -0.03177630331844046 -0.01513420971919287 
0.06085654017617724 -0.03177630331844046 -0.01513420971919287 
0.06085654017617724 -0.03177630331844046 -0.01513420971919287 
0.2444830280512592 -0.1539870410097411 -0.05973161377854557 
0.2338868588373382 0.04461698247337436 -0.520272394830213 
-0.003782509756203957 -0.01705875007687804 0.04472573003972672 
0.2132127399897791 -0.1369730982962853 -0.02286231746593015 
0.06085654017617724 -0.03177630331844046 -0.01513420971919287 
0.06085654017617724 -0.04906041997617816 -0.01513420971919287 
-0.09215922088456381 0.03770016648092311 -0.007187746708660939 
0.06085654017617724 -0.03177630331844046 -0.01513420971919287 
0.06085654017617724 -0.03177630331844046 -0.01513420971919287 
-0.143445630862636 0.1033663076346207 0.02644674542141112 
0.06085654017617724 -0.03177630331844046 -0.01513420971919287 
0.06085654017617724 -0.03177630331844046 -0.01513420971919287 
0.06085654017617724 -0.03177630331844046 -0.01513420971919287 
0.04263465056675587 -0.007907901656995054 -0.01513420971919287 
0.06085654017617724 -0.03177630331844046 -0.01513420971919287 
0.06068365407469317 -0.02194099753916934 -0.06946500741514584 
0.1434595786281243 -0.2251195078621873 0.07228600148965911 
0.05383064150450585 0.08436208152006205 -0.2713375797393892 
0.06068365407469317 -0.02194099753916934 -0.06946500741514584 
0.1406174202325235 -0.05921150196219619 -0.1120838765795737 
0.2244826022394049 -0.1137354685476635 -0.1234896162895392 
0.00707239426017065 -0.1149898703474468 0.08257012175960803 
0.1871429072752525 -0.1313843180238886 -0.115960343553227 
0.06339245715446248 -0.09406676127944208 -0.008210497997842918 
-0.04477585772972394 -0.02194099753916933 -0.02682144238651716 
0.116067604685453 -0.07282717733815737 -0.0871908552265797 
0.1660244914957817 -0.1084680270939824 -0.08709429079494187 
0.02246724370300498 -0.03523973610924978 -0.01273115258441406 
0.06068365407469318 -0.09125298851350061 -0.01530384101662729 
-0.1113370254608666 0.1214799573619218 -0.07395351254636445 
-0.08977868335113329 0.07882674828030625 0.094949301584233 
0.007853677922052001 -0.01375365199155983 0.02329913046141884 
0.004253939816725805 -0.03934154535097754 -0.05797146069346559 
0.02252556868057441 -0.05167803705072313 0.03988598263510251 
0.05250193421824931 -0.01375365199155983 -0.02296441338050318 
0.1872898805041718 -0.1538846868833095 -0.1251453554765679 
-0.03685003216080614 0.01669469367351671 0.0662659275921095 
0.0760550192034615 -0.1661234013166901 0.02616772165601227 
-0.03907957148143252 -0.05962651554363146 -0.001628214273653117 
0.0525019342182493 -0.01375365199155983 -0.07742822785910508 
0.003298681416392515 0.0009130653920476587 -0.007062969480717029 
0.05250193421824931 -0.01375365199155983 -0.02296441338050318 
-0.004205733251663836 -0.01762565102376798 0.03355411089688363 
0.05250193421824931 -0.01375365199155983 -0.02296441338050318 
0.05250193421824931 -0.01375365199155983 -0.02296441338050318 
0.05250193421824931 -0.01375365199155983 -0.02296441338050318 
0.05250193421824931 -0.01375365199155983 -0.02296441338050318 
0.05250193421824931 -0.01375365199155983 -0.02296441338050318 
6.668083565539856e-05 0.08571950615154586 -0.07989352808095028 
-0.04991976136884395 0.01549143811297053 -0.00547490150854061 
-0.08185301037999033 0.06173086205116959 -0.02296441338050318 
0.05250193421824931 -0.01375365199155983 -0.02296441338050318 
0.05250193421824931 -0.01375365199155983 -0.06814169632170837 
0.1033483068955358 -0.09921723920229839 -0.1249965987026181 
0.1203573539588914 -0.1159895404170397 -0.02811859013454294 
0 0 -0.03836510528930705 
0 0 -0.03836510528930705 
0.3384005376154329 -0.3222724570583906 -0.0376771239460321 
0 0 -0.03836510528930705 
0.08743979668116089 -0.0716763384178391 -0.03836510528930705 
0 0 -0.03836510528930705 
0 0 -0.03836510528930705 
0 0 -0.03836510528930705 
-0.04884941604565272 -0.1269213761077886 0.07045007090488789 
0 -0.005362855633303631 -0.03836510528930705 
0.02330527397330929 -0.1565636641737664 0.03875113164921939 
0.3621298656777523 -0.1873638242666463 -0.2216757933879608 
-0.0202139945797185 0.06013721805750148 -0.1459733047191126 
0.1020392016052934 -0.08903732965982111 -0.02110156293240274 
0.01945997051478747 0 -0.02110156293240274 
-0.119709433919033 0.05031809491375272 -0.04714569789905371 
0.1688491582412279 -0.05770829738244371 -0.07160945775908313 
0.01945997051478747 0 -0.02110156293240274 
0.01945997051478747 0 -0.02110156293240274 
0.1142886892751884 -0.09088712203513166 0.001574410161274855 
-0.06509930818660864 -0.04937693245825649 0.08266643591808184 
-0.01946776452407023 0.03543333060404651 -0.02110156293240274 
0.01945997051478747 0 -0.02110156293240274 
0.07312486547985682 -4.336808689942018e-19 -0.02110156293240274 
0.01945997051478747 0 -0.02110156293240274 
-0.0405861773636679 0.01724128118880652 -0.02110156293240274 
0.1349108279593276 -0.05954666364466728 -0.01109717953546545 
0.1669121848476847 -0.1988929007021336 0.06726709331265869 
0.08177978352793018 -0.01970021781870087 -0.04598299298851504 
0.08177978352793018 -0.01970021781870087 -0.04598299298851504 
0.08177978352793018 -0.01970021781870087 -0.04598299298851504 
-0.04256078472670142 0.2044029315028964 -0.1617326809123329 
0.09296473326208654 -0.01970021781870087 -0.1106491915042465 
-0.02473694185855094 0.08829650078364239 -0.05802346746204672 
0.08177978352793018 -0.01970021781870087 -0.04598299298851504 
0.122539767864386 -0.01970021781870087 -0.08365868790997906 
-0.1801245026890086 -0.07470982228712454 0.1462690015011757 
0.1018441287773285 0.01692650907649021 -0.1312712872991464 
0.08177978352793018 -0.01970021781870087 -0.04598299298851504 
0.08177978352793018 -0.01970021781870087 -0.04598299298851504 
0.03707189505639325 -0.06046566304784602 0.07008058283027904 
0.08177978352793018 -0.01970021781870087 -0.04598299298851504 
0.1280054688088102 -0.0720298166661595 -0.04493067681488371 
0.1280054688088102 -0.0720298166661595 -0.04493067681488371 
0.1280054688088102 -0.0720298166661595 -0.04493067681488371 
0.2556149916456842 -0.08058915557700051 -0.1308581245483847 
0.1945694049353359 -0.1237299651131215 -0.05653875267980481 
-0.1313135869887366 0.02127910842260951 0.09289026707287144 
0.1280054688088102 -0.08286923213104273 -0.05025541216286458 
0.2087470461105581 -0.0294105431153559 -0.1455011484096242 
0.2403975484542439 -0.1842791412669071 -0.04493067681488371 
-0.03919198523769754 0.1037236626930945 -0.1514002886943095 
-0.02991147885244732 -0.01875752050917618 -0.02379667634699614 
0.1043660748765969 -0.2474257275675715 0.0486911043425199 
0.206661349778941 -0.1042037143904112 -0.06416464056319911 
-0.05792553855528494 0.06211580899897707 0.029043360951527 
0.2115860516914447 -0.06049531545625957 -0.124501357667244 
0.1743299713282109 -0.1283861371079553 -0.120041227623225 
-0.1713360865605579 0.1996974574686406 -0.06880721830578856 
-0.2602320804473893 0.219795147354534 -0.01112079308253607 
0.0944065684660928 0.001684936019932831 -0.09520501020668973 
-0.009687736136121283 -0.1439954866424492 0.1389577729384596 
0.01541324850353919 -0.006623572113333091 -0.04411809104995528 
0.1050390269018268 -0.2200202427452022 0.03915375318414203 
0.2704065141222985 -0.1042037143904112 -0.1250311349154938 
0.3595906195473509 -0.2192853014863644 -0.09240944466847523 
0.08152458189605868 -0.2717840734843893 0.1898164249377858 
0.08276420167824884 -0.03806182160488234 -0.05627896299247009 
0.1329676799678485 -0.06883437313059287 -0.05627896299247009 
0.1664454219265469 -0.09187071435992086 -0.06017936014272689 
0.01925814720904757 0.01815272885560437 -0.05627896299247007 
0.08276420167824884 -0.03806182160488234 -0.05627896299247009 
0.21559548464876 -0.1372945648343936 -0.1105081946343784 
0.08276420167824884 -0.03806182160488234 -0.05627896299247009 
0.03797883669118915 -0.009330230235333716 -0.05627896299247008 
0.2066102592724953 -0.07403081343313579 -0.1121374687109471 
0.08276420167824884 -0.03806182160488234 -0.05627896299247009 
-0.1078301594052472 0.1367929948967244 -0.05696220507570531 
0.08276420167824884 -0.03806182160488234 -0.05627896299247009 
-0.07513270721659496 0.1316579039272381 -0.06057557784268511 
0.04379230474044763 -0.04541797574700844 -0.00204920034814216 
0.04379230474044763 -0.04541797574700844 -0.00204920034814216 
0.1783763067865439 -0.1101835363191872 -0.03670254488903357 
0.1665486661882823 -0.08076961690958684 -0.00419141009775216 
0.04379230474044763 -0.04541797574700844 -0.00204920034814216 
-0.04490213723512385 0.05141677856748612 -0.05900695247088201 
0.09384883692806176 -0.1259659513175862 0.06145955571849478 
0.2134266291941403 -0.1060792840576407 -0.1824506383932727 
-0.1691525163494995 0.2199296708991189 -0.1313533122217744 
-0.03058734804044911 0.001681157413072923 -0.04601384297070721 
0.04379230474044763 -0.04541797574700844 -0.00204920034814216 
0.04043434789952111 -0.1262036703467068 0.08688300609443191 
0.04379230474044763 -0.04541797574700844 -0.00204920034814216 
0.04379230474044763 -0.04541797574700844 -0.00204920034814216 
-0.1054486128600254 0.04503285330336099 0.09211181586687618 
0.1037338405046186 -0.1413253756965797 0 
0.05652814468556438 -0.09392762221218551 0 
0.08785231720925031 -0.1413253756965797 0 
0.1037338405046186 -0.1413253756965797 0 
0.1310519528644017 -0.1413253756965797 -0.02803876611808514 
-0.1756638149428311 0.03168522688025869 0.05584869457653621 
-0.04249505191175871 0.02825054267722217 0.08627924613914084 
0.1070455578785137 0.017229146931236 -0.2579454882700262 
0.09688915959456615 0.01270228377115884 -0.02174392043726002 
0.06132135328488857 -0.04840018153427542 -0.0965603253354087 
0.1877436870217848 -0.1783480546320524 -0.08419132720869581 
0.04738132623928134 -0.1413253756965797 0.0619148510613939 
-0.508384008517713 0.317546929913033 0.08646084987335093 
0.2356590933418669 -0.1649189752132666 -0.0152666616263006 
-0.05394340411582039 0.1164988787280056 -0.05836080415488691 
0.1906552818633643 -0.1694943677662968 0 
0.1906552818633643 -0.1694943677662968 0 
0.1906552818633643 -0.1694943677662968 0 
0.02925836139333628 -0.06403419141437958 -0.01016711420766705 
0.1906552818633643 -0.1694943677662968 0 
0.1906552818633643 -0.1694943677662968 0 
-0.08237808028798416 0.1712085006554686 -0.1138846029190147 
0.1033474105490722 -0.1293142270062788 0 
0.2358853438046792 -0.1694943677662968 -0.04398753285019418 
-0.1006423632769287 0.04182008532942612 0.07534226863179555 
0.09105389573043812 -0.1370919413098047 -0.04674124123908929 
0.09933968981812731 -0.04719669279888926 -0.02785658485594518 
0.1349086842062819 -0.08634472674170618 -0.0729566564345895 
0.08391666574984115 -0.01421445512790431 -0.06162396589644661 
0.08391666574984115 -0.0336938173030522 -0.06122304812844326 
0.23802627086289 -0.12137840545197 -0.120459078686345 
0.03410507593426155 -0.02454566863745602 -0.06122304812844326 
-0.0429305371833808 -0.06165168625818868 0.06468956521106431 
0.08391666574984115 -0.0336938173030522 -0.09444837508158027 
-0.002040066063829313 -0.02876857861389677 0.06637782592883357 
0.08391666574984115 -0.0336938173030522 -0.06122304812844326 
0.07984640726268022 -0.0006251535419932661 -0.07175049408933268 
0.06990219892664777 -0.07436527734127496 0 
0.1153391257142946 0.02423969057639171 -0.09693427110128434 
-0.09694862416478921 0.3008956499066764 -0.3118013862250573 
0.06990219892664777 -0.07436527734127496 0 
0.06990219892664777 -0.07436527734127496 0 
0.06990219892664777 -0.07436527734127496 0 
0.06990219892664777 -0.07436527734127496 0 
0.06990219892664777 -0.07436527734127496 0 
0.06990219892664777 -0.07436527734127496 0 
-0.04792549066775184 -0.238723240631203 0.1733144276979961 
0.02717956341118086 -0.08779544727731106 0.07571582109943362 
0.009469002475751177 -0.3013828495444285 0.06719236501947151 
0.06990219892664777 -0.07436527734127496 0 
0.06990219892664777 -0.07436527734127496 0 
0.06990219892664777 -0.07436527734127496 0 
0.01189005964319405 0 -0.01702946957231265 
0.01189005964319405 0 -0.01702946957231265 
-0.01825502336960968 0.06584669471868838 -0.06902650034259805 
0.01189005964319405 0 -0.01702946957231265 
0.1232887426151161 -0.198402197360755 0.04139784537772644 
0.1986172921627003 -0.1135645430024269 -0.07147260090370869 
-0.004484711513450946 0.02513845546774039 -0.03480512782944601 
-0.268479488213116 0.1938588772202283 -0.02772979948720156 
0.04833411921003515 -0.08780253036510041 0.0006610155201449038 
-0.0769567525310165 -0.1279371702005866 0.1344542918337839 
-0.01627566052326044 -0.07965086200581023 0.03091681270940785 
